I 1.815324 0.108174 0.348178 -0.686591 -1.535079 -0.639865 -2.085802 0.061425 0.280242 -0.273969 0.978691 0.313817 0.467277 -0.275636 -0.967105 -0.128830 -1.757374 0.741381 1.245492 -1.118286 -0.213875 0.243138 -0.291850 0.980630 -0.358120 -1.196127 -0.437284 -1.437531 0.172852 -0.669371 -1.946083 0.419097 0.324473 0.309499 -0.292562 -0.731899 0.500628 -0.962175 0.081811 -1.063415 -0.194310 -0.420351 -1.067305 1.986722 -1.570555 1.135041 1.048022 2.001400 -1.445886 1.145993
you 0.443724 0.851892 0.644800 -0.474955 -2.495303 -0.473389 -1.515434 0.036921 0.993244 0.019488 0.608057 -0.168986 0.788394 0.089306 0.881876 0.284127 -0.916101 0.967812 0.512327 -1.160720 0.663135 -0.053935 0.389492 -0.246846 1.957148 0.788244 -0.752234 1.130284 0.561532 0.005380 -2.028642 0.846573 1.042392 0.247252 1.397151 0.330372 0.172580 0.446556 -0.212082 0.276937 -0.906874 -0.680448 0.628538 1.543476 -1.481539 0.382525 0.344791 -0.149608 -0.830489 0.624770
the -0.267998 1.581110 0.723180 -0.760957 -1.117505 1.352003 -2.240741 -0.135015 0.172975 0.165529 1.686654 0.483053 -0.412631 -0.669846 1.386886 0.537666 -0.129515 -0.654881 0.205603 -0.581241 0.126986 1.006761 -0.549498 -0.909685 0.129695 0.022193 -1.086168 -0.439674 0.446541 -0.418523 -1.900642 1.667434 0.774027 -0.526174 0.724202 -0.790583 -0.019059 0.229283 0.973423 -0.289194 1.384696 -1.093561 -1.386187 -0.656655 -1.509853 1.227467 -0.184432 0.013853 0.053629 -0.801693
to 0.197676 0.677497 0.294445 -1.229057 -1.841854 -1.013709 -0.410609 1.097951 1.316390 0.080204 -0.244560 0.381009 0.130813 -0.416469 -0.496534 -0.855651 -1.207879 -0.587652 2.197351 0.789647 0.179900 0.323120 -0.586946 -1.109525 1.078951 0.190880 0.630585 -0.601485 0.004052 -0.481417 -2.896104 1.409702 0.597240 1.041772 -0.321155 0.036218 0.341631 0.156587 2.257203 -0.234335 0.466865 -0.225950 -1.018857 0.867547 -0.326685 0.494259 0.732302 -0.335727 0.100208 0.141890
a 0.567112 -1.127734 2.009031 -1.295410 -0.870594 -0.340674 -0.509269 1.314130 -0.224075 -0.700155 -0.373543 -0.605755 0.583739 0.591640 1.077392 -0.697663 -0.483317 -0.603383 2.277259 -1.403416 -0.768534 0.270132 -0.906788 0.451568 -0.858518 -0.213488 -2.172039 -0.427693 -0.653393 -0.305682 -0.514449 1.986685 0.812225 0.229646 0.652826 0.048197 -0.667065 -0.648058 0.666927 1.049143 0.599252 0.451056 0.943629 0.286797 -1.747169 0.166495 0.830050 -0.435115 0.155114 0.530479
that -0.527216 -0.459418 -0.280207 -1.246933 -1.356226 -0.015636 -0.971086 0.612763 -0.004713 -0.177611 1.277851 0.471040 0.764500 -0.266789 -0.201531 -0.139436 -0.230014 0.282432 0.989283 -0.773529 -0.255277 0.789927 -0.561661 -0.652693 -0.198291 -0.469382 -0.029705 -0.929191 0.204868 0.135087 -1.287780 0.467325 -0.500382 -0.942081 0.874994 0.054271 -0.722164 0.380792 -0.220729 0.846857 -0.346370 -1.138835 -0.101854 -0.209910 -1.688238 0.421862 0.700520 0.276122 -0.412874 -0.131520
it 0.615434 -0.222073 -0.415924 -0.629715 -0.368321 0.971676 -0.376908 1.180432 0.720966 0.091380 0.252781 -0.755399 0.137762 -0.171628 0.391033 -0.374609 -0.201464 0.498414 0.969231 -0.197878 0.059882 -0.243667 0.009033 0.298344 0.269638 -0.536757 0.332511 -0.181246 1.026132 0.423768 -1.494436 0.999680 0.192493 -1.536177 0.534794 1.003690 -0.179709 0.949526 -0.042403 -0.347446 -0.128525 -0.951396 -0.424993 -0.015318 -1.604066 0.426367 1.568898 -0.794181 -1.508373 0.840413
s 0.802562 -0.685629 -0.218666 -1.357356 -0.874726 1.682274 -0.685712 0.958837 0.450686 -0.965103 1.624122 -0.182419 0.510759 0.401585 0.455540 0.470912 -0.480817 0.886000 0.261993 -0.458264 -0.617958 0.175561 -1.639094 -0.521537 -0.514135 -1.173248 0.968882 0.189166 0.205410 0.417086 -0.535303 1.465033 0.538009 0.319967 1.071534 -0.222562 -0.695218 -0.333110 0.525783 0.850583 0.857479 -1.147189 0.289884 0.171291 -0.995937 0.405943 0.340828 -0.514139 -0.309770 0.588366
and 1.193253 0.673237 0.946432 -0.353594 -0.411355 0.914232 -0.277108 0.008662 -0.570294 0.118188 0.198057 0.704868 0.876460 -0.263559 0.862029 0.582882 -1.425071 -0.094004 1.598965 -0.668802 -0.783772 -0.240017 -0.282658 -0.459248 0.191959 0.282290 0.539013 -0.566633 0.139858 -0.536708 -1.096784 1.366775 0.130221 -0.366896 -0.356294 0.052026 0.297138 0.416005 0.324913 0.475082 0.812602 -1.205374 -0.072944 0.749935 -1.875287 0.832759 -0.849498 0.311765 -0.207418 -0.327888
is 0.395460 -0.028557 -0.844586 -1.008154 -1.356591 1.029497 -0.395886 0.840284 0.277214 -1.445589 0.025703 -0.677564 0.052189 0.665527 0.093752 -0.110662 0.744983 -0.209648 1.216544 -0.511009 -0.207401 1.539803 0.252015 -0.548112 -0.005618 -0.754806 -0.134875 -0.383219 0.422021 -0.392516 -0.417692 0.723005 -0.017332 0.254100 1.257257 -0.662390 -0.304395 -1.093018 0.583046 -0.737244 1.295957 -0.430261 0.585366 -0.236535 -1.289192 0.160478 -1.039975 0.240621 -0.894156 -0.282434
my 0.462049 -0.180210 -0.654421 -0.642449 -1.838392 0.441534 0.367547 1.188334 -0.043543 0.275009 0.670170 -0.023581 0.404776 -0.296627 1.714748 -0.554318 -0.725641 0.131279 0.545891 -0.002439 -1.238510 -0.240874 0.294092 -0.064797 0.003712 -0.549261 -0.612865 -0.534819 -0.500263 -0.304410 -1.009841 -0.466176 -0.272718 -0.701170 -0.377924 -0.374593 -1.154691 1.228007 1.775762 -1.444638 0.083351 -0.198385 -0.043241 -0.774834 -1.389289 0.934257 -0.808138 0.404497 0.114086 0.872880
just 0.223193 -0.196093 0.692635 -0.565169 -1.216711 0.178747 -1.033951 0.633337 0.328959 -0.184363 0.053833 0.163199 0.740937 -0.657157 0.073186 -0.472318 -1.121484 0.757629 0.589418 -0.295278 -0.310111 -0.317273 -1.046884 -0.486806 0.387039 -0.394006 0.124139 0.003773 0.169311 -0.408759 -1.570419 0.944646 0.624868 -0.669247 0.023419 0.133090 0.396271 0.118448 0.719765 -0.329834 -0.136623 0.179510 -0.245458 0.872305 -0.736175 0.721106 0.408147 -0.124442 -0.081482 0.081428
in -0.391340 0.775959 0.535353 -0.456268 -1.241172 0.470647 -0.586719 1.025205 0.121141 -0.607211 0.208559 0.044360 0.230424 -0.431478 1.258868 0.112171 0.355820 -1.046863 0.355851 -1.276410 -1.069363 -0.286513 -0.048048 -0.519347 0.058700 0.033864 0.372072 -0.134047 -0.179313 0.567845 -0.432596 1.461142 0.254565 -0.080291 0.110639 0.304323 0.171367 -0.255204 0.616896 -0.121954 0.497752 -0.225945 -0.230684 0.331103 -1.690527 0.299297 -0.508145 0.376672 -0.782348 -0.490872
of 0.656971 -0.546572 1.149157 -1.352268 -0.235100 1.374823 -0.991354 1.140858 0.476592 -0.571536 -0.073680 -0.109787 0.155512 0.753528 0.669618 -0.787399 -0.696272 -0.615728 0.668599 -1.108339 -0.197450 0.820794 -0.360461 -0.775191 -1.169117 0.674202 -1.031039 -0.370007 1.552189 -0.861453 -1.451671 0.680827 0.458011 -0.515343 0.158510 0.148984 -0.719863 0.922034 0.878922 -0.200717 -0.496795 -0.267798 -0.016181 -0.615817 -0.728622 -0.730577 0.015643 0.429875 0.102367 -0.760975
t 1.507195 -0.540680 -0.434683 0.022030 -1.973225 -0.148859 -0.988533 0.597905 0.874292 -0.031132 -0.306702 -0.434620 1.024816 -0.110334 -0.081207 -1.142465 -0.501591 0.999910 -0.434623 -0.240098 -0.711118 -0.070971 0.048781 -0.457692 -0.185036 0.164933 0.270759 0.200918 0.125051 -0.529781 0.110761 0.193727 -0.114259 0.441186 0.137519 -0.003690 0.369700 -0.118712 0.424030 0.237388 0.327058 -1.355065 -1.153598 0.587357 -1.940286 -0.108331 1.537839 -0.259888 0.746181 0.855803
have 0.078228 -0.193363 0.811222 -0.397253 -1.693608 0.186644 -0.457064 0.392959 0.303669 0.249724 -0.896128 -0.036724 0.634846 0.162874 -0.852618 -0.757275 -0.434243 0.015219 0.492404 -0.962801 -0.121456 0.186655 -0.450497 -0.791389 0.100167 0.339497 -0.431559 -0.159077 -0.081717 -0.419357 -1.033568 0.566587 1.274276 0.306056 0.331036 0.118001 -0.047676 -0.529568 0.522498 0.405404 0.168225 -0.096517 0.038911 0.055472 -1.931726 0.159035 0.268241 0.804384 0.361936 0.759905
You 0.876274 -0.860714 0.150375 -0.253876 -2.049890 -0.567997 -0.187958 -0.211633 0.246798 -0.058759 1.143465 -0.291385 0.517560 0.043666 0.392219 0.034093 -0.003941 -0.116738 -0.826968 -0.270677 -0.194279 -1.152660 0.248125 -0.112997 0.258443 -0.102078 -0.005744 0.696036 0.448545 0.240727 -1.274769 -0.282431 1.125692 0.394218 -0.217905 0.274263 -0.183971 -0.874854 0.669419 -0.461046 0.248567 -0.535617 0.028348 0.285155 -1.290858 0.477794 0.690688 0.896278 0.437083 0.468904
was 0.317777 -0.037500 -0.108030 -1.000897 -0.532087 0.096976 -0.492327 1.285250 -0.830747 -0.455335 1.162553 0.078466 0.191894 0.501342 0.688525 0.854254 -0.830698 0.299733 1.036677 -0.776939 0.240897 0.311583 -0.536604 0.135579 -0.787147 -0.662480 0.431836 -0.480239 0.664307 -0.112797 -1.624331 0.365468 -0.438476 -1.323944 0.431091 0.309590 0.195733 0.726279 0.170501 0.011038 0.457601 -0.007579 -0.319723 0.319885 -0.589730 0.492299 0.251032 -0.891332 -0.735004 0.897942
we 0.010645 0.694881 0.859749 0.780947 -0.710296 -0.278128 -0.523506 0.272147 1.131002 0.171124 0.374313 -0.394035 0.268524 -1.143039 -0.222947 -0.412859 -0.152259 0.845650 0.647636 -1.221858 0.331157 -0.872447 -0.220439 -0.397577 0.533580 1.122726 0.160049 -0.790540 -0.462570 -0.806908 -1.071889 0.443210 0.945389 -0.906338 0.794789 -0.049772 -0.205073 -0.153962 -0.015177 1.071802 -0.489902 -0.092105 -0.283487 0.205666 -1.610446 1.253024 0.920571 -0.169340 -0.430723 -0.178170
not 0.276334 -0.955754 0.012872 -0.723691 -0.893038 -0.041874 -0.257895 0.436136 0.947657 -0.652869 -0.050886 -0.218649 1.018766 -0.328850 0.028901 -0.696451 0.039958 -0.257378 0.327003 -0.887394 -0.276024 0.837491 -1.227126 -0.676065 0.287695 -1.722881 0.140261 0.134703 -0.474395 -0.379895 -1.336210 0.439396 0.599172 0.164991 1.062050 0.302678 0.162985 -0.469835 0.584879 -0.340216 0.209860 0.030892 0.446594 0.118974 -0.643823 0.426821 -0.561842 -0.981761 -0.559000 0.559983
with 0.224792 0.358130 0.815161 -0.807037 -0.988749 -0.375670 -0.734944 0.093558 0.294550 -0.146616 0.177037 0.643722 0.499929 0.840531 1.054201 -0.796612 -0.119105 -1.275142 0.770360 -0.490329 -0.394094 -0.228199 0.549236 -1.082330 -0.458362 0.401523 0.238902 -0.647158 -0.182010 0.405602 -1.346401 0.417169 -0.473358 0.292626 0.177093 1.145251 0.464062 0.199415 0.624687 0.198178 0.543683 -0.608654 -0.741496 0.646229 -0.979743 -0.313716 -0.880301 0.632990 -0.505673 0.161082
this -0.315689 0.365139 -0.563568 -0.470030 -1.253654 0.137867 -0.974152 0.575121 -0.071051 -0.474451 -0.395988 -0.551437 0.001526 -0.221117 -0.021046 -0.230234 0.641957 -0.109047 1.643526 -0.404413 -0.341795 0.305453 0.593157 0.038170 0.200304 -0.199647 -1.324630 -0.724124 0.398872 -0.325570 -0.648782 0.651778 -0.524438 -0.577288 0.689061 -0.388892 0.079620 -0.130477 0.568881 -0.030418 0.766266 -0.215306 0.476717 -1.023654 -1.628413 -0.147271 0.201540 0.059348 -0.700585 -0.651909
I'm 0.370511 -0.010073 0.873876 -0.718699 -0.148988 -0.269796 -0.040631 -0.240499 0.380558 -0.634590 0.443672 0.004521 0.852063 -0.697647 0.025054 -1.023134 0.137100 -0.401315 -0.310826 -0.326395 -0.660348 -0.093243 -0.594887 -0.674659 -0.379931 -2.221156 -0.220204 0.273579 -0.329940 -1.151745 -1.756757 0.276738 -1.161059 -0.768243 0.972191 0.145996 0.212038 0.009699 0.160785 -0.460335 -0.114568 0.165821 -0.410905 0.479298 -0.347089 -0.006561 -0.840990 -0.356188 -0.961380 0.198927
do 0.477832 0.905843 -0.396400 -0.337978 -1.347435 0.288213 -0.674000 0.207050 1.212828 -1.200757 0.370403 -1.055009 -0.155690 -0.574272 -0.739081 -0.496209 0.147500 0.519655 0.136103 -1.088098 0.304391 -0.147840 0.820869 -0.636289 0.654055 0.440975 0.025465 -0.369901 0.391938 -0.538474 -1.207403 0.041799 0.328814 0.940695 0.625156 -0.215076 0.162265 -0.433844 0.362574 0.042817 -0.422672 -0.311935 0.811971 0.216282 -0.742284 -0.591981 0.783507 0.545619 -1.634290 0.492142
for -0.299589 -0.316973 0.274456 -0.284931 -0.840556 -0.210184 -0.742136 0.447158 0.694403 0.303488 0.892199 -0.022713 -0.298636 0.062551 0.514491 -0.389528 -1.299737 -0.839471 0.565057 0.212321 -0.885378 -0.034612 -0.709582 0.132831 -0.470631 -0.136866 0.236065 -0.512104 0.188656 -0.087265 -1.135424 0.875863 0.372402 0.535680 0.733900 1.405523 -0.007918 0.223968 1.158052 -0.224072 0.557914 0.316620 0.356711 0.778764 -1.065784 -0.549919 -0.765722 -0.065676 -0.149187 0.001299
"Oh, 0.991705 0.429462 0.029677 0.050199 -0.858694 0.171418 -0.082920 0.044988 0.444056 -0.280280 0.391070 -0.358127 0.077861 -0.199779 -0.459017 0.085842 -0.459896 0.797786 0.488295 0.620029 -0.705253 -0.166799 -0.135973 0.186996 0.352647 -1.072145 -0.185234 0.156188 -0.270325 -1.013517 -0.546322 0.436749 0.348563 -0.227825 1.431258 -0.407583 -0.644881 0.155411 0.093414 -0.656955 0.099508 -0.376004 -0.162682 0.323877 -0.929388 0.491404 -0.043443 0.462805 -0.615699 -0.036481
be -0.488658 -0.439317 -0.277155 -0.610846 -0.499803 0.361210 -0.427767 0.941509 0.663742 -0.254948 0.158319 -0.368645 1.086697 -0.890515 0.004344 -0.209304 0.059606 -0.224628 0.052388 0.275015 -0.869523 0.286315 -0.449007 -0.220088 -0.483937 -0.091428 -0.268098 0.686870 0.227561 1.025189 -1.367643 0.954008 0.598811 -0.350939 -0.268002 1.208589 0.201659 -1.006810 0.356953 0.290701 -0.672040 -0.084982 -0.258445 0.553075 -1.067783 1.660218 0.633273 -0.141403 -0.859705 0.403094
me 0.287185 -0.575402 -0.750911 -0.723385 -1.786042 0.264274 -0.579257 0.358540 0.786479 -0.262818 -0.302317 0.219269 0.481209 -0.507137 0.318677 -0.218932 -0.370775 0.230686 1.334347 0.319402 -0.249994 -0.545467 -0.021029 -0.420084 0.760333 -0.020855 -0.398025 0.133729 0.758398 0.105142 -1.383534 0.562606 -0.027997 0.328604 0.570690 0.910944 0.177968 0.798241 0.303651 0.418570 -0.515119 -0.863985 0.321377 0.386507 -0.566598 -0.341657 -0.097738 -0.577825 0.515690 0.568069
are 0.352695 0.385302 0.111460 -0.008536 -0.901728 -0.627395 0.662463 0.436536 0.502861 -0.785507 1.116998 -0.107434 0.957334 0.201693 1.138577 0.259074 -0.253473 0.394069 -0.140480 -0.374162 0.142163 0.802664 0.034907 -1.176430 0.201615 0.990692 -0.204020 0.457193 -0.074600 -0.040588 -1.665793 -0.267834 0.775572 0.792184 0.868832 -0.184200 -0.409665 0.267357 0.865517 0.276647 0.029164 -0.610592 1.334985 0.102819 -0.305009 1.047673 -1.048225 0.233141 -0.415674 -0.258737
your 0.269858 -0.204854 -0.007263 -0.673831 -0.633246 0.414502 -0.684375 0.080524 0.559455 -0.925554 0.164022 -0.014287 0.109211 0.156402 1.276571 -0.503308 0.383046 -1.066321 0.339960 -0.340203 -0.546550 0.332423 -0.178663 -0.395546 -0.337047 0.216966 -0.661693 -0.690389 0.318026 0.250230 -0.445820 0.751402 -0.409667 -0.048972 0.023459 0.220678 -0.092718 0.318667 0.513354 -0.094783 -0.042990 -0.494880 -0.544056 0.277117 -0.735399 -0.172058 -0.561537 -0.085759 -0.506475 0.119352
m 0.554359 -0.297577 0.265186 -0.239154 -0.542014 -0.383870 -0.499818 0.016668 0.316593 -0.988499 0.531209 -0.162512 0.860774 -0.517399 -0.002461 -1.068947 -0.133962 0.431822 -0.745275 -0.581888 -0.620145 0.595184 -0.950567 -0.404936 -0.245365 -1.673788 -0.214179 -0.007570 -0.292724 -0.802749 -1.700244 0.460943 -0.493912 -0.693077 0.232305 0.132979 0.571978 -0.456812 0.316015 -0.308467 -0.059323 0.308337 -0.434794 1.016437 -0.611781 0.622026 -0.784091 -0.068946 -0.778443 1.068077
what 0.468187 0.255143 -0.044601 -1.109057 -1.340404 0.050046 0.330586 0.599771 0.795814 -1.333504 0.482382 -1.097209 0.424863 0.094898 0.266809 0.207307 -0.407920 0.136430 0.640256 0.053640 0.268918 -0.316965 0.303813 -0.684405 0.324436 -0.168239 0.582823 -0.365497 0.164434 0.046879 -0.931845 0.207414 0.153973 0.102154 1.031739 -0.364339 -0.253551 0.547021 0.134140 -0.395374 -0.059620 -0.675440 0.213479 0.462716 -0.239448 0.631898 0.172084 -0.002826 -1.335750 0.289734
like -0.673026 -0.200995 0.153884 -0.614717 -1.162886 -0.163439 -0.700509 0.805322 -0.393203 -0.403081 0.679361 -1.071299 0.404457 -0.955942 -0.547005 -0.096552 -0.772032 -0.749969 -0.178793 0.169234 -0.826490 0.390278 -0.187838 -0.529914 -0.040029 -0.207997 -0.874166 0.088463 -0.176694 0.517623 -0.838635 0.774574 0.146160 -0.076202 0.341698 0.630717 0.634947 -0.455794 0.578252 -0.621171 0.715662 0.288584 0.581331 0.077294 -1.765964 -0.461052 0.492908 -0.463891 -0.649233 -0.097716
so -0.099138 -0.442484 -0.102104 -0.074221 -0.711351 -0.094292 -0.241511 0.034330 0.833041 -0.760264 0.422317 -0.409957 0.948650 -0.371902 0.331994 0.232087 -0.515985 -0.175752 0.366135 -0.155398 -0.730608 0.411928 -0.459208 0.130042 -0.205639 -1.094403 -0.363626 -0.030352 -0.035030 -0.211822 -0.868824 0.248588 0.260096 -0.328621 1.149274 0.420262 -0.261092 -0.307474 0.316296 -0.252266 -0.195530 -0.442846 0.661834 0.500892 -1.070579 0.798978 -0.694617 0.599843 -0.783447 -0.126359
gonna 0.278627 -0.073876 -0.211405 -0.575121 -1.211959 0.299526 0.116809 0.604454 0.717585 -0.562238 -0.168341 0.202160 1.021072 -0.651951 0.116376 -0.819029 0.687380 0.518437 0.237360 -0.809093 -0.590714 -0.225063 -0.510473 -1.462745 0.455962 -0.311132 0.653004 0.313520 -0.280207 -0.082788 -1.737008 0.449249 0.306215 -0.081576 0.138533 0.464428 0.906217 -0.560400 0.913873 0.323989 0.175813 0.004491 0.254218 0.338863 -0.477929 0.614950 -0.839779 -0.741175 -0.237603 0.521331
on 0.146435 0.312857 -0.267989 -0.138838 -0.634580 0.814984 -0.656742 0.557430 0.874037 0.260797 0.249554 0.126061 -0.280105 -0.063541 0.904786 -0.950040 0.448235 -0.299996 0.436852 -0.373550 -0.332862 0.211293 0.404875 -0.381375 -0.048287 0.261598 -0.684435 -0.298118 -0.589495 0.132184 -0.537534 0.808898 0.089014 -0.161257 0.154221 0.934040 -0.325161 0.145187 0.644360 0.351820 0.459397 -0.289495 -0.535252 -0.108631 -1.212935 0.014613 -0.474895 -0.059826 -0.354357 0.054277
"Well, 0.359586 0.066554 0.945846 -0.614937 -0.942008 -0.048882 -0.495046 0.086730 -0.027039 -0.290165 0.293012 -0.354238 0.149456 -0.475855 -0.100595 -0.033814 -0.347036 0.324768 0.438471 -0.129929 -0.002390 -0.319629 -0.325805 -0.154786 0.271262 -0.677537 0.336405 -0.071333 -0.197942 -0.536762 -0.678985 0.920508 0.281048 -0.904669 1.179963 -0.186511 -0.021352 0.268779 -0.363593 -0.304576 0.157189 0.109007 -0.513719 0.731668 -0.840358 0.787358 0.370974 -0.296820 -0.852095 0.187908
can 0.435844 0.256142 -0.098872 -0.043114 -1.435886 0.197032 -0.992537 -0.020489 1.170087 -0.053625 0.156219 -0.236710 -0.036455 -0.351084 0.409732 -1.014390 -0.095303 0.752637 0.518359 -0.445430 -0.249942 -0.647961 0.431580 -0.155497 0.434770 0.814151 0.046895 -0.455911 0.320968 -0.478741 -0.074986 0.506017 0.237074 0.315991 0.602691 -0.002458 -0.019977 0.165057 0.218733 0.678459 -0.336246 -0.682096 -0.367625 0.276244 -1.166683 0.402921 1.073735 -0.102088 0.132051 0.131975
know 1.043273 0.069028 0.916956 -1.262996 -1.693436 -0.565041 -0.375342 0.117802 0.108982 -0.829127 0.499798 -1.404248 0.826659 -0.090999 0.174443 0.321478 -0.445867 -0.170488 -0.215040 -0.388502 0.014356 -0.133960 -0.091043 -0.847406 0.051589 0.085033 0.467764 0.001126 0.809610 -0.674705 -0.711936 0.444746 0.185278 0.071660 0.576588 -0.945361 0.030908 0.524294 -0.322566 -0.456659 0.176494 -0.881109 -0.262572 0.190164 -0.574693 0.267338 1.059793 -0.259858 -0.497227 -0.032366
think 0.954622 -0.568132 0.130908 -0.249977 -1.028650 -0.027246 -0.897316 0.307148 0.071665 -0.090890 0.195783 -0.261020 0.780737 -0.330318 -0.412670 0.033861 -0.219012 0.068394 -0.074421 -0.901180 -0.301628 -0.007449 -0.353124 -0.188635 -0.275815 -0.514226 -0.163117 0.065687 0.171584 -0.670488 -0.764335 0.199191 0.388255 -0.674621 0.423790 0.122156 0.138587 -0.166167 0.000323 0.239702 0.246009 -0.196783 -0.525549 0.222625 -1.597569 0.037482 0.590285 -0.354535 -0.374585 0.498481
but 0.616643 0.116880 -0.061278 -0.155232 -0.554420 -0.073091 -0.765722 0.231789 -0.047962 -0.201508 -0.176636 -0.418480 0.889808 -0.372364 -0.360373 -0.600284 -0.762686 0.133674 0.770904 -0.033037 -0.411025 0.287895 0.016492 0.029206 -0.021215 -0.645185 -0.297830 -0.214056 -0.329656 -0.734827 -0.996529 0.847406 -0.365551 -0.487129 1.033101 -0.326612 0.079316 0.552072 -0.104154 -0.079183 0.065374 -0.683171 -0.316282 0.423331 -1.540538 0.224588 0.466448 -0.447096 -0.962366 0.200670
about 0.422115 0.246795 -0.514948 -0.698616 -0.869377 -1.222755 -0.550282 -0.147590 0.534515 -0.857482 1.425028 -0.351200 0.312125 -0.284815 0.048805 0.404649 -0.421765 -0.982940 0.512305 -0.612043 0.347042 0.629275 -0.048955 -0.608905 -0.500809 0.412343 -0.087420 -0.784951 1.231597 -0.842879 -1.787671 -0.580404 -0.371470 0.083223 -0.003655 -0.064958 0.212645 0.591951 0.761345 0.242606 -0.151522 -0.315713 -0.479134 -0.037615 -0.439240 -0.654519 0.252047 -0.475549 -0.792077 0.329853
"Yeah, 0.307115 0.543073 0.107738 0.151203 -0.099049 0.068944 -0.413518 0.309529 0.159646 0.098519 0.693048 -0.422025 0.061065 -0.719215 -0.296127 -0.239911 -1.018247 0.836084 0.203470 0.559703 -0.739822 -0.408996 -0.421866 0.235582 -0.168246 -0.887589 -0.000932 -0.178760 -0.604535 -0.721304 -0.626901 0.562179 -0.192074 -0.727266 1.549905 -0.037279 -0.471024 0.792357 -0.179254 0.032270 -0.116563 -0.219927 -0.235740 0.373879 -0.956910 0.514096 0.359738 -0.312612 -0.471994 -0.212629
get 0.436298 0.004596 0.401273 -0.267295 -1.136229 0.801663 -0.570910 0.220644 0.777399 -0.511035 0.217474 -0.393842 -0.094257 -0.393686 0.227365 -1.386046 -0.163532 0.090243 0.382009 -0.643349 -0.605646 -0.943388 0.004979 -0.622392 0.461435 0.824017 -0.053128 -0.570050 0.695120 -0.615069 -1.273024 0.602952 0.430033 -0.163616 -0.262653 0.211973 0.051145 -0.412853 0.724131 0.195998 -0.350460 0.292014 -0.088806 0.445554 -0.566135 -0.135421 0.262359 0.648393 -0.111757 0.318101
re 0.519171 -0.728065 0.625928 0.232659 -0.489262 -0.611730 0.208915 0.232178 1.316560 -0.126942 0.048757 -0.099341 1.196845 -0.345772 0.994958 -0.486551 1.017505 -0.343089 -0.702809 -0.759684 -0.403452 -0.539092 -0.814199 -0.771267 0.071758 -0.941825 0.044650 0.868188 -0.030202 -0.420316 -1.247606 0.069325 1.103444 -0.050211 1.086790 0.596546 -0.540277 -0.151786 0.769012 -0.137320 -0.190240 0.057911 -0.113610 -0.098832 -0.683154 0.810630 0.061741 -0.617503 0.183168 -0.485583
What 0.161410 0.244613 -0.604854 -0.610581 -0.782932 -0.422965 0.440067 0.515616 0.327153 -1.021002 0.986960 -0.906666 -0.124423 0.254444 0.359368 0.499374 0.149082 0.197381 0.090501 -0.504839 0.665083 0.499692 0.578046 -0.603916 0.075997 0.764696 -0.117294 -0.069714 0.682319 0.122934 -0.913697 -0.929710 0.362698 0.502192 0.538779 -0.139292 -0.167286 0.220166 0.617298 -0.076552 0.048210 -0.031778 1.333894 -0.684227 -0.110955 -0.154751 -0.125664 0.040590 -0.978394 0.088264
don 1.244514 0.021508 -0.119295 0.501934 -1.571723 -0.254665 -0.708567 0.440919 0.603560 -0.162846 -0.280064 -0.494113 0.679392 -0.393954 -0.437779 -0.748933 -0.117317 0.890264 -0.390060 -0.048950 -0.629184 0.013229 -0.064552 -0.602563 0.182946 0.156842 0.029429 0.356646 -0.075328 -0.752095 -0.263883 0.279699 0.110611 0.043752 0.541713 -0.819686 0.034517 0.055870 0.317068 0.038278 0.183056 -0.837728 -1.018014 0.362520 -1.539194 0.105985 1.426338 -0.075827 0.441497 0.424084
don't 1.234358 -0.079696 0.502286 0.295492 -1.699275 -0.812756 -0.727566 -0.014337 0.146524 -0.344101 -0.648250 -0.641170 0.572768 -0.526124 -0.573955 -0.553184 -0.296334 0.183611 -0.414416 -0.002666 -0.787291 -0.189298 0.048058 -0.411172 0.303792 0.289154 -0.516036 0.470362 0.324136 -0.997062 -0.661628 0.287737 0.246345 0.267848 0.215600 -0.742380 0.586246 -0.263790 0.398885 -0.661214 0.366750 -0.063718 -0.695143 0.796402 -1.216740 -0.393595 0.938109 0.155085 0.183622 0.226109
Oh 0.433014 -0.552197 -0.747020 -0.414900 -1.085488 -0.290218 1.327260 0.712741 -0.567969 0.060400 0.881511 -0.220534 0.356726 0.216612 0.638401 0.136177 -0.326731 0.932941 -0.323524 0.420445 -0.958040 -0.450599 -0.002434 0.276537 -0.430499 -0.668658 -0.139879 0.185377 -0.516860 0.227120 -0.235161 -1.034751 -0.071292 -0.043849 0.023821 -0.393670 -1.185024 0.405243 0.679173 -0.877270 -0.105537 -0.119293 0.677154 -0.877607 -0.542572 0.694171 -0.440099 0.721663 0.363045 0.907427
he 0.335801 0.368029 -0.084476 -1.153045 -0.749503 0.240643 -0.155409 0.935229 -0.330817 -0.135029 -0.348271 -0.378080 1.070142 -0.099375 0.142375 0.647137 -0.818110 -0.188751 1.488296 -0.445163 0.146159 0.105312 0.009549 -0.477083 0.084371 -0.307331 0.846836 -0.510660 -0.016695 0.365427 -0.416121 0.443199 -0.582972 -0.200798 -0.011797 -0.455946 0.196723 0.232849 -0.400456 0.437987 0.377568 -1.104085 -0.430515 0.009380 -0.564248 0.449652 0.656244 -1.031872 -0.794066 0.111306
"I 1.330666 0.093271 0.826668 0.158436 -0.949123 -0.514530 -1.123674 0.253563 -0.285184 -0.782883 -0.250583 -0.637216 0.213502 -0.464503 -0.798557 -0.767936 -1.067191 0.850952 -0.422167 -0.463723 -0.516806 0.156946 -0.755376 -0.038183 -0.074651 -0.512827 -0.165175 0.073627 0.365395 -1.361014 -0.968087 0.798885 -0.059493 -0.513277 0.394771 -1.131223 0.593907 -0.132887 -0.027720 -0.882061 0.238583 0.228856 -0.922021 1.224210 -0.765685 0.240538 1.048168 -0.261653 -0.481994 0.575199
"Oh 0.953777 0.729114 -0.469919 0.289846 -0.904413 0.120308 0.570279 0.561391 0.293497 0.019643 0.523197 -0.071746 0.395303 -0.180849 0.352006 -0.239418 -0.442421 1.604292 0.360099 0.247858 -1.159164 -0.486763 0.188936 0.520650 0.154575 -0.678069 -0.239088 0.108035 -0.602308 -0.852007 -0.317590 -0.153773 -0.287423 -0.472298 1.406041 -0.866000 -1.525151 0.970825 -0.028512 -0.376629 -0.515715 -0.635039 0.062679 -0.154912 -0.856385 1.172589 -0.309229 0.646386 -0.075964 0.244861
got 0.055024 -0.384299 0.705556 -1.005367 -0.735508 0.630832 -0.393307 0.357997 -0.481791 0.011512 1.001560 -0.423065 -0.134933 0.058665 -0.177873 0.348029 -1.351692 -0.683830 0.513960 0.139750 0.240059 -0.790372 0.130408 0.079885 0.246511 0.105418 0.345409 -0.110335 -0.157109 0.168721 -0.221217 0.901279 0.865617 -0.080848 -0.259534 0.099670 -0.290626 -0.103453 0.465875 -0.132566 0.222870 0.290440 0.166560 0.131221 -1.153978 0.009327 0.768754 0.219942 -0.424004 -0.130224
all 0.113713 0.640953 -0.071350 0.263132 -0.041062 0.565346 -0.654388 0.639966 0.590459 -0.473837 0.143193 0.389242 0.356056 -0.089969 1.146376 -0.105084 0.137207 -0.146738 0.172745 -0.300860 -1.052436 -0.045685 -0.368310 -0.081685 -0.532075 -0.121406 -0.904209 -0.204817 0.826433 -0.007192 -1.296203 0.562279 0.045960 -0.126499 0.454249 0.038717 -0.338532 0.474920 1.069966 -0.149728 -0.166698 -0.449540 -0.460181 -0.406721 -0.868486 0.302692 0.324308 0.374297 -0.391273 -1.051962
out 0.690377 -0.306663 0.083251 -0.569485 -0.231965 0.393167 -0.417675 0.442816 0.626408 -0.152447 0.238737 0.328652 0.271417 0.282223 0.907204 -1.097444 0.115817 -0.388767 0.609937 -0.171901 -0.402131 -0.383375 0.311057 -0.536097 -0.546008 0.216562 -0.150469 -0.449860 0.214765 -0.167828 -1.491092 0.366461 -0.343338 -0.217199 -0.088623 0.839090 -0.078050 0.389708 0.632757 0.207383 -0.059773 -0.204552 -0.958910 0.393777 -0.162709 0.200801 -0.544974 0.017293 -0.321602 0.165888
it's 0.459816 -0.560007 0.043654 -0.047981 -0.512156 -0.233610 -0.480474 0.101297 0.042075 -0.114918 0.070607 -0.175147 0.649968 -0.053306 -0.085600 -0.148309 -0.488409 0.228967 0.064976 -0.268243 -0.620086 0.852313 -0.808663 0.035653 0.032723 -1.400800 -0.364261 0.287599 -0.317178 -0.862674 -0.436229 0.292363 0.296347 -0.489721 1.537468 0.021512 -0.573288 0.312040 0.015025 -0.484226 0.450125 0.262281 0.307216 -0.041316 -1.199540 -0.197704 -0.662361 -0.750340 -0.398396 -0.097870
at 0.093555 0.028549 0.058136 0.335314 -0.032144 0.074663 -1.271075 0.178461 0.759993 0.390134 0.106830 0.240550 0.636631 -0.395706 0.329796 -1.107043 -0.381674 -0.659119 -0.132369 -0.938655 -0.133815 0.452756 -0.332841 0.156344 -0.335091 -0.340967 0.241061 -0.578834 -0.254241 0.063859 -1.346566 0.052758 0.103880 0.951895 -0.227555 -0.364331 0.165398 -0.065953 0.380584 0.585883 0.471723 -1.776270 0.001814 -0.519679 -0.417460 -0.139603 -0.235651 -0.343380 0.050554 -0.322510
go 0.556000 0.248843 0.351148 -0.269248 -0.916828 0.859210 -0.482556 0.099341 0.525939 -0.194855 0.027233 0.505306 0.216008 -0.368996 0.615534 -1.392582 0.131650 0.399538 0.249545 -0.202797 -0.750806 -0.824858 -0.090807 -0.687884 0.348139 0.425145 -0.217540 -0.138572 0.097122 -0.370544 -1.586407 1.026610 0.044105 -0.225048 -0.415628 0.224790 0.196193 -0.144128 0.619174 0.097503 -0.165797 -0.056999 -0.878898 0.636460 -0.240452 0.432466 -0.479094 0.445297 0.175773 0.445852
want 0.532901 -0.008858 -0.325835 -0.430557 -1.810388 -0.195219 -0.500580 0.572023 0.602297 -0.294009 -0.088580 -0.486023 0.206643 -0.398470 -0.431594 -0.642554 -0.293838 0.118935 0.277441 0.117848 -0.056455 -0.224165 0.387978 -0.795489 0.404598 0.800771 0.194751 0.168662 0.405445 -0.353528 -0.866064 0.285748 0.138482 0.530574 -0.196815 0.037078 0.412397 -0.095968 0.826783 -0.055499 0.051029 -0.299015 -0.426533 0.455413 -0.753637 -0.328253 0.814896 0.046279 0.214369 0.720623
"No, 0.849351 0.191402 -0.067546 0.532073 -0.783314 -0.421622 -0.209104 0.095934 0.043960 0.306227 -0.364828 -0.042883 0.313405 0.154957 -0.221333 -0.714228 -0.442631 0.590371 0.294780 -0.105843 -0.519207 0.351509 -0.379527 0.221951 0.367778 -0.733286 -0.366674 -0.003500 -0.189939 -1.137855 -0.897741 0.369402 0.375328 -0.428749 1.468679 -0.620462 -0.362454 0.423922 0.316240 -0.429703 0.283961 -0.157143 -0.485504 -0.061804 -1.189462 0.570335 -0.048308 0.029343 0.064264 0.154215
she -0.343655 -0.273398 -0.569760 -0.818227 -0.835288 0.714552 -0.588746 0.820276 0.257779 0.352101 0.475608 0.133608 0.056938 -0.446053 -0.589282 -0.224017 -0.904335 0.450775 1.303409 -0.173074 0.436661 -0.147634 0.105674 -0.056990 0.000149 -0.536858 0.728373 -0.649032 -0.457296 -0.046871 -0.383561 0.413783 -0.146841 -0.277266 0.872557 0.421804 -0.327503 0.146474 -0.155019 0.661551 0.031315 -0.472349 -0.100103 -0.120121 -0.683184 0.346763 0.557081 -0.605235 -0.594007 0.541125
What? 0.324126 -0.002089 -0.272317 0.042748 0.280446 -0.156708 0.516190 0.072731 -0.335125 -0.082831 0.312507 -0.268489 -0.001139 0.149613 -0.201543 0.486084 0.238558 0.413825 -0.150809 0.074452 0.064586 -0.218098 -0.074351 0.272071 -0.154535 -0.379472 0.129136 0.182461 -0.041221 0.076922 0.169015 -0.401049 0.081345 -0.131745 0.384708 -0.296461 -0.288617 0.024039 -0.269083 -0.098111 0.072776 0.123458 0.252823 -0.104693 0.069268 0.245440 0.303804 -0.019760 -0.331031 0.097904
uh, 0.218417 0.291651 1.542263 -0.450089 -0.567537 0.805768 -0.454159 -0.103341 0.439411 -0.638185 0.529629 -0.380364 -0.113354 -0.084137 0.330340 0.004022 -1.351888 0.445936 0.352727 -0.193430 0.131486 -0.946796 -0.312997 -0.074259 0.303504 0.499353 0.712145 -0.158236 -0.054881 -0.590192 -0.084032 1.083336 0.568908 -0.105507 0.812690 -0.591767 -0.341822 0.555045 -0.107498 -0.245491 -0.479211 0.475219 -0.005696 1.265644 0.188995 0.107514 0.123336 -0.016317 -0.481094 -0.394324
if 0.217314 0.105621 0.355244 -0.407788 -1.061419 -0.477490 -0.298198 0.049943 0.216412 -0.489484 -0.005624 -0.828357 0.429926 -0.515181 0.147469 0.143224 -0.023476 0.112986 0.616588 -0.276536 -0.089927 -0.412285 0.114233 -0.185076 -0.025373 0.364035 -0.157123 -0.239109 0.577101 -0.283148 -0.756297 0.259702 0.289918 -0.654106 0.821815 0.091697 0.084752 0.516306 -0.424097 -0.076325 -0.284028 -0.245341 0.016432 0.361686 -0.765899 0.420051 0.479574 -0.255442 -0.834173 0.182957
up -0.073806 0.139955 0.380278 0.077909 -0.487763 0.090309 -0.486420 0.172076 0.436467 0.555957 -0.369194 0.527987 -0.051225 -0.366810 1.087760 -0.570583 0.061789 -0.357583 0.918750 -0.666604 -0.731568 -0.779668 0.175889 -0.336315 0.017676 0.438870 0.167006 -0.773539 -0.230891 -0.095426 -0.843041 0.767948 -0.362639 -0.450611 -0.309030 1.016657 0.358175 0.398233 0.339311 0.271168 0.020073 0.029734 -0.654388 0.546860 -1.065886 -0.238856 -0.576044 -0.103175 -0.228813 0.002949
"Okay, 0.457152 0.598578 -0.046811 0.319530 -0.392976 0.435262 -0.456921 -0.010104 0.702101 -0.526802 -0.046949 -0.423608 0.284702 -0.605350 0.056117 -0.172337 -0.299260 0.940201 0.497275 0.337222 -0.822339 -0.331288 -0.303799 0.249862 0.247774 -0.475016 -0.007449 -0.066574 -0.283116 -0.321298 -0.280571 0.663681 0.061748 -0.068717 1.098521 -0.268737 -0.236026 0.255685 -0.221438 0.145912 -0.210018 -0.520285 0.003737 0.502363 -0.463140 0.476202 0.156053 -0.079319 -0.708298 -0.194999
really 0.503141 -0.614214 -0.552930 -0.092595 -1.239292 -0.486639 -0.073574 0.803197 -0.130771 -0.401315 0.309776 -0.400339 0.856109 -0.521307 -0.364175 -0.122220 -0.071564 0.072280 -0.098524 -0.433783 -0.084346 0.137699 -0.349016 -0.366399 -0.201984 -0.477106 0.230383 0.107486 -0.050184 -0.422420 -0.868608 -0.310129 0.007270 -0.569023 -0.037741 0.077538 0.419687 -0.405410 0.634776 0.005796 0.384776 0.056836 -0.141383 -0.083611 -1.242417 0.007744 0.595926 -0.733707 -0.107033 0.788709
know, 0.999527 0.160741 1.139000 -0.361844 -0.932423 -0.548664 -0.607075 0.215926 -0.844442 -0.793036 -0.301142 -1.063648 0.424898 -0.067351 -0.331597 0.042810 -0.468901 -0.055433 -0.331442 -0.264444 -0.468049 0.073473 -0.151559 -0.528112 -0.106495 0.417557 0.258755 0.193240 0.877958 -0.968829 -0.578946 1.011658 0.053349 -0.349199 0.533927 -0.964274 0.584385 0.260749 -0.498887 -0.639282 0.707521 0.009543 -0.404856 0.723870 -0.901331 0.046512 0.801729 -0.609249 -0.472385 -0.301591
one -0.069621 -0.682751 0.603568 -0.849275 -0.559208 0.464959 -0.791951 0.403742 0.007559 0.313199 0.104511 0.277248 0.196854 0.467378 0.207032 -0.177955 -0.598842 -0.054122 0.073026 -0.509689 0.036364 0.595191 -0.756528 -0.311585 -0.463324 0.225485 -0.298329 -0.044678 0.759457 -0.057751 -0.607003 0.463433 0.696640 -0.093239 -0.046131 0.208843 -0.258128 -0.042871 0.297072 -0.109047 -0.000319 -0.263297 -0.165390 -0.195121 -0.564927 0.047878 -0.025273 0.208350 0.817444 -0.273691
see 0.425893 0.308736 0.072689 -0.442296 -1.222503 0.166112 -0.677501 -0.055893 0.838715 -0.815470 0.082056 -0.132245 0.172939 -0.255955 0.659028 -0.342741 -0.002183 0.168027 0.215425 -0.180457 -0.434947 -0.580364 0.094762 -0.099355 0.339480 0.322693 -0.042932 -0.004420 0.763036 0.247327 -0.908471 0.529415 0.136649 0.289733 0.122663 0.179955 0.395226 -0.055516 0.217219 -0.138272 -0.402389 -0.491683 -0.318887 0.864127 -0.264417 0.069445 0.191316 0.315028 -0.561949 0.533165
It 0.479266 -0.848117 -0.249649 -0.644733 -0.268787 0.616838 -0.037585 0.971170 -0.557886 -0.112530 0.817694 -0.056074 0.316296 0.303603 0.405806 0.468512 -0.835899 0.641432 -0.291201 0.324983 -0.597657 -0.153970 -1.046286 0.147298 -0.832260 -1.169905 0.551523 0.216612 0.297031 0.482643 -0.179881 0.201015 -0.051857 -0.355362 -0.075410 0.204056 -0.239765 0.172515 0.232326 -0.252207 0.357880 -0.230761 -0.155397 0.146190 -0.262454 0.217354 0.506819 -0.462090 0.185701 0.724620
tell 0.464609 -0.060896 -0.297019 -0.438598 -1.367463 -0.592877 -0.200433 -0.237154 0.702741 -0.214795 0.082756 0.465000 0.512700 -0.311216 -0.295887 -0.586082 -0.260206 0.553711 0.311505 -0.245700 0.251059 -0.444483 -0.029610 -0.917639 0.792054 0.242080 0.560637 -0.061397 0.022099 -0.059314 -1.010752 0.126568 -0.123033 0.496742 -0.112388 0.307971 0.622461 0.161893 0.274949 0.461855 -0.350273 -0.492835 -0.139084 0.900164 -0.134525 -0.168474 0.222527 -0.203670 0.091733 1.066709
would -0.354420 -0.369137 -0.121937 -0.513082 -1.253231 -0.116121 -0.569619 0.485896 0.096545 0.086251 0.634521 -0.491465 0.100746 -0.680229 -0.363356 0.482418 -0.375829 -0.156243 -0.062610 0.072725 0.200431 0.228261 0.211420 -0.208563 0.114815 0.179866 -0.205018 -0.001778 -0.115695 0.531541 -0.570971 0.107969 0.460699 -0.460083 -0.195597 0.194799 0.164220 -0.439378 0.201572 -0.228859 0.066017 -0.119132 -0.238483 0.370925 -1.273697 0.179046 0.710920 0.031538 -0.595168 0.734233
did 0.131020 0.428777 0.011901 -0.663564 -0.800589 -0.152988 -0.004699 0.216855 0.669885 -0.429859 0.244952 -0.612116 -0.059731 0.063090 0.669524 0.473423 -0.498869 0.028158 0.727429 -0.543080 0.482244 0.166079 0.456300 -0.165430 0.715767 0.243919 0.025457 -0.334019 0.131959 -0.074622 -0.464303 -0.004390 0.290994 0.424885 0.596141 -0.156351 -0.371356 0.566484 0.196229 -0.123420 -0.155675 -0.388358 0.449907 0.212753 -0.239191 0.083544 0.124479 -0.241205 -0.880245 0.168616
And 0.400715 0.152995 0.323430 -0.535411 -0.141150 0.255012 -0.055823 0.267060 0.434464 -0.470523 -0.310346 -0.535312 0.362196 0.026954 0.178225 0.048431 -0.233341 -0.258749 0.516658 -0.504115 0.055665 0.218071 -0.069481 -0.298292 0.034296 -0.429520 0.269916 -0.320737 -0.082633 -0.330472 -0.273084 0.348088 0.184849 0.018819 0.442939 -0.205892 -0.092801 -0.186763 0.105899 -0.219663 0.194779 -0.250901 0.015770 0.212133 -0.474027 0.250081 -0.104413 -0.279116 -0.692413 -0.313359
how 0.355196 0.770048 0.455923 -0.648067 -0.793030 -0.539076 0.072279 -0.287124 0.669053 -0.761516 0.123863 -0.941570 0.334990 -0.253283 0.501989 0.686060 -0.346543 -0.403318 0.921261 -0.453685 0.216247 -0.031790 0.311938 -0.252699 0.426669 -0.023952 0.099536 -0.394663 0.323746 -0.527950 -0.223822 -0.034302 -0.102971 0.144255 0.430695 -0.670716 -0.199802 0.593586 -0.024691 -0.004063 -0.173724 -0.463491 0.308191 0.258294 -0.282452 -0.049123 -0.035063 -0.040721 -1.080905 -0.003815
they 0.686442 0.221860 0.375028 0.293527 -0.810990 -0.190005 0.040986 0.187640 0.727981 0.312489 -0.182791 -0.167947 0.240669 -0.184024 0.539632 -0.123228 0.335722 0.175368 0.320956 -0.440454 -0.170909 -0.616223 0.130457 -0.377884 0.344253 0.012420 0.231453 0.337409 -0.018737 -0.325356 -0.939920 0.233584 0.801560 -0.141148 0.694605 0.086198 -0.534868 0.580554 0.312426 -0.312525 -0.282799 -0.273355 -0.142005 -0.051684 -0.988177 0.521115 0.285636 -0.050317 -0.268417 -0.029528
no 0.044557 0.109681 -0.300602 -0.582008 -0.775549 -0.322727 0.743089 0.496085 -0.985150 0.279898 -0.107863 0.479269 0.371614 1.271626 -0.966771 0.323008 -0.262318 0.641003 0.817674 0.935356 -0.007750 0.178819 -0.456273 0.349215 0.323546 -0.513817 0.216644 0.421380 0.647496 -0.150701 -0.913043 0.434332 0.798355 0.173368 1.112499 -0.575298 -0.842698 -0.264850 0.074884 -0.253507 0.438806 -0.101164 0.080910 -0.444199 -0.662169 1.116278 -0.269891 0.893948 0.855536 0.300861
were -0.122746 0.339333 0.454858 0.133609 -0.528898 -0.486960 0.161240 0.345560 -0.083836 0.167762 0.471249 -0.292560 0.308987 -0.200391 0.865461 0.394926 -0.028696 -0.161886 0.062044 -0.667002 0.226974 -0.424909 0.086187 -0.319431 0.020304 0.491739 0.332341 0.168453 0.148162 -0.109565 -1.011364 0.096461 0.472448 -0.648706 0.570719 0.215969 -0.283721 0.666612 0.078661 0.075139 -0.124851 -0.082731 -0.090148 0.007512 -0.667313 0.750313 0.208180 -0.413978 -0.344309 -0.172598
had -0.073530 -0.387748 0.726891 -0.572745 -0.792199 -0.046571 -0.321724 0.469109 -0.269313 0.315547 0.179560 0.217142 0.009605 0.220912 0.029206 0.118178 -0.643823 -0.263870 0.985363 -0.311902 0.181503 -0.326180 -0.048212 -0.043050 -0.186633 0.138484 -0.091531 -0.459066 -0.089524 -0.217157 -0.551727 0.530752 0.523982 -0.487679 0.146329 0.117250 -0.501377 0.169567 0.293504 0.016729 0.271703 0.117320 0.092508 -0.071656 -1.116207 0.187314 0.058230 0.405626 0.084495 0.010559
there 0.382944 0.474522 -0.249628 -0.378898 -0.263547 0.398295 0.246924 0.696056 -0.645465 -0.361008 0.179280 0.176288 0.360352 0.557593 0.365838 0.062209 -0.090737 0.236396 0.779353 0.013553 -0.515869 -0.018479 0.015076 -0.062468 -0.048347 0.353514 0.752520 -0.049208 0.834594 0.312813 -1.322019 1.352864 -0.052943 -0.423708 0.367518 -0.036328 0.057707 0.429335 0.014903 0.150004 0.103625 -0.493600 -0.560871 0.451405 -0.660021 1.114166 -0.217834 0.276481 -0.513065 -0.006881
her -0.014625 0.165176 -0.181570 -0.561017 -1.119363 0.435474 -0.374442 0.632025 0.294384 -0.140251 -0.145228 0.531075 -0.054225 -0.108815 0.052544 -0.453730 -0.080270 0.011735 0.806027 -0.026097 -0.063156 -0.137632 0.254464 -0.631756 0.298804 0.380857 0.264124 -0.357139 0.068712 0.415490 0.084000 0.784323 -0.398465 0.162776 -0.405327 0.413650 0.283546 0.144345 0.561407 0.360614 0.413652 -0.502884 -0.443392 -0.012169 -0.767737 -0.206182 0.582666 -0.224208 0.172598 0.079159
right, 0.101113 1.216699 -0.020743 0.495784 0.253037 0.321775 -0.540903 -0.026567 1.182476 -0.917959 -0.532738 0.263232 0.479156 -0.392011 0.377496 0.296535 0.499382 0.717815 0.178447 0.164614 -0.953714 -0.319240 -0.567751 0.492952 0.056632 -0.548256 -1.017894 -0.033699 0.621858 0.048927 -0.949688 0.648573 0.169341 0.078991 0.887940 -0.464818 -0.350318 -0.214781 0.299716 -0.011373 -1.053427 -0.394875 -0.219773 0.184156 -0.152384 0.777255 0.758327 1.071977 -0.578901 -0.839818
ll 0.215634 0.569350 -0.019384 -0.181372 -0.212734 0.058603 -0.493038 0.339061 0.808232 -0.020709 -0.378559 0.369246 0.342971 -0.693092 -0.284578 -0.361201 -0.223639 0.697929 0.753315 -0.092817 -0.241203 -0.603699 0.050477 0.045296 0.381320 0.278579 0.155246 -0.340145 -0.000563 0.260650 -0.735070 0.652154 0.033499 0.182998 -0.614650 0.422311 0.511210 -0.345716 -0.066760 0.733071 -0.840341 -0.260344 -0.817263 0.865995 -0.121546 0.631936 0.987067 0.266546 -0.364432 0.462204
That -0.378258 -0.883585 -0.582017 -0.836291 -0.125703 0.748777 0.150327 0.844667 -0.570628 -0.255467 0.728581 -0.287805 0.220273 0.046320 0.054513 0.679850 -0.215713 0.172091 -0.020517 0.118577 -0.059092 0.594230 -0.645336 0.078091 -0.720293 -0.868696 0.229032 0.107464 -0.134962 0.718033 0.106490 0.249539 -0.025109 -0.383920 0.285205 0.102893 -0.465208 -0.328175 0.056698 0.072012 0.317520 -0.201412 0.210050 -0.350267 -0.325383 0.477003 0.209135 -0.509320 -0.394709 0.498178
Okay. 0.199781 -0.244780 0.136367 0.017469 0.265382 -0.034455 0.208344 -0.082242 -0.361414 -0.155050 -0.085773 -0.517268 -0.090053 0.136937 -0.471847 0.260589 -0.113418 0.211472 -0.149155 0.148250 -0.007792 0.321430 -0.208475 0.470368 -0.161115 -0.832617 -0.236348 0.138337 -0.344114 -0.371625 0.716503 -0.122745 0.030283 -0.088059 0.523014 -0.632821 -0.304384 -0.383699 -0.409157 -0.486086 0.239739 0.272632 0.233719 0.044864 0.006997 0.115108 0.029833 0.041944 -0.047928 0.056188
could -0.306883 0.041954 0.119999 -0.230257 -0.219340 0.358788 -1.237458 -0.081227 0.729210 0.065588 0.326619 -0.233332 -0.082916 -0.909207 0.024080 -0.226831 -0.234630 0.074342 0.544270 -0.927904 0.215276 -0.274612 -0.023837 0.298510 -0.070696 0.445762 -0.043601 -0.842689 0.302250 -0.081421 -0.533657 0.462537 0.341781 -0.321636 -0.057690 0.510266 0.165664 -0.162139 -0.371088 0.778817 -0.933211 -0.190728 -0.443810 0.468178 -0.496242 0.346122 0.661920 -0.138665 -0.891949 0.326794
you're 0.114385 0.444443 0.222191 0.004548 -0.324111 -0.161704 0.221089 -0.033583 0.472572 -0.535405 -0.450700 -0.148691 0.869762 -0.531395 0.154032 -0.074551 0.313649 0.260989 0.271034 -0.098210 -0.614941 -0.294191 -0.562693 -0.198812 0.112617 -0.548763 -0.271359 0.120796 -0.153918 -0.301851 -0.741556 0.472712 0.326110 -0.303764 1.149837 0.149723 0.193146 0.030811 0.023107 0.230545 -0.229686 -0.019715 0.003541 0.378787 -0.417824 0.637647 -0.217079 -0.222170 -0.476423 -0.089144
an -0.265017 -0.503029 0.487841 -0.405716 -0.215389 0.346948 0.070139 0.561366 -0.378639 -0.102937 -0.581201 -0.020509 0.191292 0.106187 0.253451 -0.550426 -0.272287 -0.571491 0.319910 -0.171627 -0.674635 0.017890 -0.232637 -0.185406 -0.480259 -0.368338 -0.141148 -0.148183 -0.399616 0.102274 0.022172 0.783827 -0.161315 -0.373021 -0.093531 0.445318 0.111075 0.084832 0.459753 -0.332812 0.425100 0.456994 0.085369 -0.046708 -0.747332 -0.205879 -0.405956 -0.288151 0.067955 0.046777
right -0.124633 0.703849 -0.250672 -0.158869 0.339867 0.355249 -0.342648 0.431953 0.705048 -0.349571 -0.436629 0.839322 0.416842 0.223405 0.646871 -0.089560 0.829227 0.022479 0.376975 0.446349 -0.738997 -0.103225 -0.540375 0.329403 0.056326 -0.952234 -0.658809 0.197931 0.219305 0.813400 -1.119986 1.041878 0.064028 0.557649 -0.113796 0.168565 -0.008747 -0.528281 0.720644 -0.128839 -0.209605 -0.189808 -0.370771 0.142783 0.108912 0.780179 -0.055501 1.019051 -0.136480 -0.353929
come 0.582328 1.014732 -0.096984 0.335963 -0.952728 -0.078783 -0.259093 -0.091018 0.854101 0.277579 -0.244095 -0.202099 -0.338988 -0.251052 0.002613 -0.661138 0.781766 0.110572 0.993934 -0.506506 -0.487780 -0.399243 0.581676 0.068159 0.625362 -0.082394 -0.486387 -0.502431 -0.844259 -0.805902 0.152243 0.453123 0.089480 -0.104132 0.592050 -0.075809 -0.293713 0.127940 0.155598 0.018896 0.290662 0.018372 -0.334291 0.011901 -1.135955 -0.041024 -0.545030 0.480603 -0.478436 -0.046936
going 0.241151 -0.171251 0.210215 -0.547729 -0.003364 0.041915 0.240540 0.367658 0.548152 -0.383132 0.368382 0.069735 0.296165 0.129714 0.625832 -0.644141 0.358328 -0.307560 0.067578 0.143805 0.023662 0.415396 -0.362750 -0.579293 0.052485 -0.765587 -0.049876 0.051503 -0.539039 0.066320 -1.386800 0.384569 0.264269 -0.179733 0.063363 0.507452 -0.031975 -0.085111 0.809539 -0.416237 0.285234 0.249618 -0.453146 0.238559 0.197648 0.857025 -0.793066 -0.290686 -0.386688 0.259331
when -0.244136 0.939444 0.457203 -0.397615 -0.319235 -0.059399 -0.299132 0.203683 0.210545 -0.002507 0.214772 0.114862 0.157848 -0.296380 0.578960 0.085661 -0.086601 -0.341575 0.724624 -0.755405 0.034623 -0.311282 0.179023 -0.445268 0.308887 -0.036144 0.522239 -0.626161 -0.216543 -0.154658 -0.950621 0.600029 -0.536541 -0.576777 0.606152 0.154411 0.079600 0.678147 -0.418482 0.374854 -0.140513 -0.367660 -0.509516 0.348075 -0.315458 0.333582 -0.040013 -0.536743 -0.973568 -0.389166
him 0.056565 -0.095434 -0.342315 -0.369071 -0.613725 0.024082 -0.642972 0.006054 0.111419 0.278664 0.020164 0.806181 0.261112 -0.279099 0.131527 -0.626699 -0.315874 0.060694 0.577816 -0.206920 -0.006736 -0.167866 -0.075446 -0.298313 0.168070 0.109731 0.127367 -0.257942 0.004839 0.296444 -0.703501 0.326830 -0.266799 0.039153 -0.863708 0.591410 0.838087 0.007388 0.405732 0.681294 0.184191 -0.534115 -0.413597 0.275102 -0.167324 -0.050062 -0.122587 -0.369989 0.459507 0.737031
some 0.099725 -0.270353 0.545966 -0.418391 -0.582646 0.522362 -0.924295 0.293107 -0.177630 0.053944 -0.017409 0.367279 0.197066 0.157583 0.277402 -0.461236 -0.564530 -0.350390 0.465511 -0.561013 -0.254595 0.076748 -0.081407 -0.414903 -0.166746 0.677183 -0.090416 -0.446981 0.477963 -0.142093 -0.558645 0.484946 0.034505 -0.240764 -0.723841 0.404160 0.320979 -0.064853 0.346927 0.329345 0.127243 0.055092 -0.027561 0.204157 -0.640325 -0.463163 -0.081153 0.210357 0.296092 0.068548
"Hey, 0.254478 0.812959 -0.112898 0.057013 -0.476932 -0.085833 0.055824 -0.077383 0.217872 -0.449808 0.176421 -0.713220 -0.008145 -0.264075 -0.308234 0.564158 -0.126558 0.698623 0.384323 0.461504 0.063385 -0.138817 0.044014 0.301990 0.342827 -0.532455 0.049403 -0.079410 -0.047883 -0.347269 -0.065010 0.164935 -0.096215 -0.392628 1.311147 -0.571371 -0.239365 0.594096 -0.498621 -0.401356 -0.063017 -0.225972 -0.093744 0.411134 -0.392797 0.414636 0.489858 -0.008420 -0.806019 -0.111418
Yeah. 0.289133 0.069164 -0.189777 0.194824 0.006349 -0.298696 0.346351 -0.048470 -0.183359 -0.095785 0.213247 -0.175336 -0.125094 0.159476 -0.136739 0.290658 -0.151464 0.622605 -0.267351 0.221846 0.017549 0.064482 -0.016338 0.395074 0.034555 -0.335919 -0.127684 0.175257 -0.143415 -0.055244 0.133167 -0.483202 0.105172 0.103719 0.247120 -0.506606 -0.314435 -0.018411 -0.075002 -0.481217 -0.100648 0.102419 0.272498 0.039096 0.160525 0.248219 -0.042258 0.385219 -0.126019 0.169966
should 0.271709 -0.305414 0.789759 0.032546 -0.538989 -0.207497 -0.147023 0.402541 0.171913 0.142203 -0.368042 -0.173817 0.105799 -0.416630 -0.460805 -0.446983 -0.034992 0.084270 0.607501 -0.671802 0.452604 -0.572957 0.117164 -0.293758 -0.003529 0.979568 -0.215485 -0.385819 -0.211851 -0.056053 -0.213135 0.126003 0.805554 -0.325008 -0.627637 0.337759 0.173467 -0.260810 -0.077745 0.574454 -0.265780 0.165878 -0.024677 -0.012153 -1.069546 0.544803 1.237571 -0.153482 -0.181241 0.317130
because 0.564008 -0.092294 0.406992 -0.247466 -0.341559 0.083204 -0.553572 0.210021 0.306638 0.188843 0.069743 -0.211508 0.249878 -0.229787 0.141518 -0.406977 -0.469615 0.257701 0.004492 -0.376998 -0.128757 0.064922 -0.351940 -0.299614 -0.030198 -0.257708 0.319535 0.048641 -0.016957 -0.402783 -0.525051 0.648080 0.153774 -0.429632 0.465715 0.061102 -0.139118 0.572934 0.112701 0.171308 0.061279 -0.410957 -0.629733 0.098387 -0.725255 0.071558 0.693995 -0.753095 -0.057982 0.057687
But 0.289767 -0.332309 0.413086 -0.152867 -0.150704 0.284895 -0.095396 0.149322 0.030948 -0.278199 0.363436 -0.476888 0.153509 -0.529525 -0.172502 0.018981 -0.260187 0.182774 -0.241229 -0.318900 0.030614 -0.245814 -0.268506 0.034371 -0.111904 -0.802047 0.296719 0.052342 -0.335651 -0.246521 -0.170800 0.182739 0.074939 -0.542761 0.519831 -0.004265 -0.012233 -0.121921 -0.246174 -0.217770 0.060846 0.072277 0.025395 0.256813 -0.514068 0.281062 0.411370 -0.492251 -0.551623 0.204066
We 0.201077 -0.642230 0.522642 0.342569 -0.322202 -0.463690 0.215340 0.289590 0.133394 0.278320 -0.075952 -0.076380 0.525602 -0.297061 0.012687 -0.531162 0.181655 -0.064204 -0.355237 -0.532587 0.134012 -0.021987 -0.156521 -0.412314 0.026020 0.524366 -0.113613 0.449045 -0.583529 -0.046760 -0.449992 -0.238560 1.002244 0.173901 -0.402035 0.286870 -0.099506 -0.583591 0.483832 0.386737 -0.079616 0.160661 0.025888 -0.166269 -0.652755 0.790577 0.429961 -0.156951 0.597724 0.167313
It's -0.015071 -0.465691 0.426812 -0.200215 -0.175060 -0.217064 -0.311987 0.136376 -0.113636 -0.384230 -0.164951 -0.312624 0.482149 -0.377334 -0.042666 -0.369115 -0.272665 -0.590879 -0.362026 0.022467 -0.674086 0.619546 -0.649650 -0.178849 -0.219901 -0.765623 -0.499872 0.180601 -0.265557 -0.207405 -0.263264 0.339683 0.070483 0.003713 0.133243 -0.060277 0.317959 -0.517321 0.495656 -0.579687 0.479206 0.329221 0.070976 0.224321 -0.366989 -0.222813 -0.357168 -0.401865 0.051251 -0.048731
little -0.264611 -0.598733 0.501352 -0.628482 -0.264374 -0.057705 -0.500598 0.267531 -0.107817 -0.298259 -0.031789 0.098259 0.121321 0.318129 0.376632 -0.322604 -0.117169 -0.899372 0.967177 -0.467667 -0.001194 0.477039 -0.204634 -0.124493 -0.367227 0.201710 -0.832647 -0.622587 0.212979 0.100027 -0.362140 0.501085 0.085253 0.186834 0.004549 0.298492 -0.160817 -0.014899 0.205341 0.417113 0.250715 -0.068409 0.565691 -0.403582 -0.497393 -0.501426 -0.266723 -0.103043 0.087068 -0.143380
mean 0.360421 0.069610 -0.090338 -0.059121 -0.753146 -0.435949 -0.374871 0.207136 0.389273 -0.638504 0.119044 -0.655958 0.080821 -0.145124 -0.279015 -0.330158 0.050574 -0.001405 -0.306627 -0.389175 -0.149414 0.200068 -0.050065 -0.306165 0.046765 -0.508326 -0.166117 0.062660 0.480960 -0.442233 -0.695765 -0.000059 0.187302 0.053739 0.678140 -0.220378 0.172185 -0.145394 0.415351 -0.522298 0.135684 -0.055295 -0.026751 -0.108491 -0.746331 -0.247591 0.686617 -0.062824 -0.538852 0.162225
So 0.185362 0.236672 0.114634 -0.520303 -0.539023 -0.103530 0.218964 0.077500 0.568840 -0.722685 0.411847 -0.488126 0.248127 0.047598 0.075111 0.311795 -0.148675 0.360047 0.294048 -0.213690 0.261103 -0.021669 0.008987 -0.312485 0.251099 -0.036431 0.218252 -0.098365 -0.030022 0.041464 -0.287237 0.019653 0.174024 0.446256 0.677089 -0.301218 -0.255603 0.157574 -0.102187 0.161062 -0.130730 -0.387016 0.475344 0.165131 0.064188 0.270700 0.166090 0.010398 -0.729725 -0.048414
who -0.056344 0.060850 0.286751 -0.705818 -0.588576 0.469462 -0.341759 0.684578 -0.294257 0.037737 0.037064 -0.265263 0.208083 0.088022 0.326776 0.400867 0.071260 -0.272916 0.626010 -0.259576 0.181654 0.487349 0.020278 -0.491742 -0.097202 0.383316 -0.131211 -0.306100 0.234903 0.209713 -0.129390 0.617086 0.036000 -0.225675 -0.403628 -0.222842 0.029721 -0.044835 0.331440 0.202575 0.604639 -0.465546 -0.210907 -0.400869 -0.779993 0.457943 0.330056 -0.358380 -0.022306 -0.384767
been -0.442682 -0.762656 0.243588 -0.714995 -1.246031 -0.001881 -0.064058 0.344263 -0.356861 0.465448 0.628803 -0.143779 -0.237388 0.102524 -0.269500 0.359724 -0.958757 -0.609983 0.587083 0.167613 0.124665 -0.442335 0.094969 0.130812 0.073954 0.079011 0.403081 -0.391905 -0.396790 0.389401 0.356743 -0.006191 0.187205 -0.363192 -0.484869 0.587887 -0.263282 0.089742 0.504762 -0.198709 0.659702 0.663580 -0.009544 0.148676 -1.380704 -0.560395 0.080407 0.315604 0.016237 0.616440
no, 0.905937 0.362383 -0.519512 0.717175 -0.541065 -0.406749 0.280353 -0.007619 -0.248834 0.444477 -0.324349 -0.040985 0.225200 0.367301 -0.600511 -0.381764 -0.434416 1.065758 0.285295 0.329849 -0.276002 0.346861 -0.390172 0.651980 0.594635 -1.038018 -0.233072 0.046587 -0.168285 -1.164911 -0.538649 -0.033481 0.426854 -0.327238 1.617126 -1.226476 -0.683669 0.222899 0.140449 -0.683639 0.360554 -0.109471 -0.310593 -0.426413 -0.759901 0.888751 -0.201747 0.178258 0.111198 0.206550
wanna 0.362785 -0.024289 0.268945 0.069754 -1.206974 -0.126559 -0.415342 -0.081891 0.355284 -0.066707 -0.090584 -0.156016 0.307562 -0.348315 0.322093 -0.571094 0.014904 0.007257 -0.560985 -0.157147 -0.361282 -0.790357 0.321082 -0.406390 0.326326 0.785268 0.056567 0.409955 0.304944 -0.071332 -0.671117 0.061639 0.440806 0.285053 -0.632252 0.168905 0.549796 -0.221633 0.456051 -0.263716 -0.137643 0.025350 -0.349644 0.465682 -0.412879 0.052707 0.341050 0.494404 0.220856 0.339448
love -0.169649 -0.490673 -0.082979 -0.307904 -0.820371 -0.627333 -0.215188 -0.302704 0.564078 -0.141633 0.594471 0.151005 0.084437 0.103198 -0.197348 0.471443 -0.104486 -1.028987 0.232655 -0.038738 0.118563 0.014457 0.171941 -0.313453 0.027963 -0.272571 0.743348 -0.126818 0.224344 0.525006 -0.709128 -0.307205 0.158655 0.347251 -0.269109 0.914247 0.299451 -0.493851 0.263724 -0.273679 0.021499 -0.332738 0.162962 0.688918 -0.464236 -0.573272 -0.295802 0.553244 -0.862207 0.682280
This 0.247357 0.024616 -0.431171 -0.249223 -0.264186 0.477428 0.017661 0.254455 0.153157 -0.596048 -0.494219 -0.481803 0.020965 0.406988 0.062735 -0.063408 0.439567 -0.216649 0.520180 -0.155557 -0.189399 0.895720 0.285346 -0.042948 0.047146 -0.706112 -0.369605 -0.289215 0.003221 -0.377710 0.294462 0.192319 -0.310151 0.042198 0.496953 -0.538616 -0.104916 -0.454544 0.364892 -0.640149 0.773347 -0.249839 0.201710 -0.382425 -0.430834 0.064076 -0.651598 0.031558 -0.306917 -0.295269
"All 0.088960 1.184450 -0.114155 0.481258 0.500858 0.333622 -0.384293 -0.069273 1.005818 -0.933945 -0.621354 0.321646 0.374096 -0.173702 0.206328 0.287850 0.625855 0.667980 0.172932 0.236209 -0.791009 -0.264253 -0.635108 0.594300 0.071057 -0.970318 -1.073366 0.047524 0.679704 0.161722 -0.941945 0.538830 0.092913 0.310718 0.728663 -0.429937 -0.236724 -0.249161 0.226995 -0.029948 -1.030653 -0.359981 -0.110395 0.271562 0.224856 0.725196 0.671587 1.108278 -0.752696 -0.739628
make 0.183025 -0.630747 0.116359 -0.461266 -0.598078 0.149916 -0.599867 0.062712 0.495561 0.233954 -0.362878 -0.040509 0.413655 -0.248706 -0.089088 -0.707942 -0.486699 -0.062354 0.177400 -0.519467 -0.148856 0.152456 -0.166750 -0.372826 0.015281 0.283457 0.027697 -0.061616 0.413275 -0.176581 -0.656604 0.417620 0.199887 -0.080299 -0.038768 0.839410 0.372686 0.075581 0.133589 0.390240 -0.346599 -0.067288 -0.023266 0.370212 -0.646927 -0.465468 0.251730 -0.367746 0.154162 0.555852
that's 0.243189 -0.094946 0.550408 -0.279018 0.079287 0.026913 0.120335 -0.158434 -0.119147 -0.353087 0.253296 -0.548862 0.220030 -0.131340 -0.262594 0.269394 -0.369536 -0.072582 0.144249 0.162221 -0.184360 0.540318 -0.485550 0.045791 -0.179565 -0.936628 -0.155609 0.111881 -0.265939 -0.760196 0.031890 0.289710 0.234173 -0.610932 1.124523 -0.350549 -0.415774 0.319661 -0.138746 -0.475792 0.371392 0.048344 0.008375 -0.049617 -0.414712 0.120988 -0.213096 -0.203106 -0.584101 -0.237959
you. 0.256849 -0.485056 -0.516683 -0.410174 -0.641806 -0.428598 -0.116635 0.156009 0.355655 -0.099542 0.817018 0.341895 -0.095970 0.218689 0.391183 0.074498 -0.225185 -0.173428 0.207231 0.235009 -0.215989 -0.254349 -0.221864 -0.041448 -0.130410 -0.315558 0.384630 -0.025581 0.282530 0.277735 -0.694530 -0.242877 -0.007272 0.377933 -0.196489 0.646115 0.169684 0.021973 0.593250 -0.084877 0.134587 -0.173516 -0.239819 0.472126 0.006219 -0.476147 -0.111764 -0.037447 -0.016645 0.725602
it. 0.315618 -0.167765 0.060260 -0.489949 -0.462395 -0.067298 -0.680128 -0.055900 0.224490 -0.085313 0.657051 -0.358680 -0.197131 -0.028610 -0.385912 -0.201069 -0.571980 -0.234518 0.043423 -0.463817 0.448438 -0.003601 0.283864 -0.035136 0.083822 0.427849 -0.090509 -0.185505 0.180028 -0.236509 -0.285137 -0.027766 0.320316 0.454141 -0.292065 -0.020207 0.127136 -0.194107 0.143184 0.329262 -0.079448 -0.031934 -0.044130 -0.000468 -0.388988 -0.532716 0.624209 -0.029131 -0.245335 0.236470
here -0.244472 0.695696 0.170874 0.021791 -0.619099 0.346813 -0.217659 0.024563 0.907902 0.063121 -0.042046 0.361241 0.000064 -0.321643 0.474081 -0.382626 0.431346 -0.190990 0.587632 -0.029630 -0.827883 -0.461257 -0.233148 -0.233530 0.295052 0.068466 0.113509 0.086071 -0.547671 0.347911 -0.058796 1.087695 0.307859 0.455291 0.242819 0.476845 -0.006536 -0.432690 0.610102 0.411846 0.130026 0.031405 -0.161836 0.513150 -0.565256 0.186736 -0.528003 0.474163 0.007411 -0.149313
take 0.300271 -0.110025 0.380082 -0.239175 -0.342921 0.356302 -0.311187 0.489889 0.245517 0.193713 -0.140079 0.502206 -0.003327 0.009867 0.314278 -0.482239 -0.213384 0.005813 0.550022 -0.493854 0.228697 -0.231019 0.211006 -0.411487 0.120458 0.985357 -0.197570 -0.277890 0.251057 0.305734 -0.296772 0.368395 0.451730 -0.080462 -0.975311 0.391903 0.176765 0.064057 0.427407 0.542005 -0.162297 -0.254367 -0.329928 -0.056217 -0.698610 0.270496 0.834658 0.114434 0.132186 0.202637
look 0.182256 0.202942 -0.043010 0.468254 -0.467409 0.041666 -0.650121 0.083824 0.255810 0.251677 0.053966 -0.113459 0.456124 -0.212301 0.152472 -0.252895 -0.460820 -0.098181 -0.215597 -0.157700 -0.299633 0.040789 -0.151932 0.026533 0.138650 -0.285940 0.340435 0.097681 0.047612 -0.081405 -0.497551 0.054530 -0.035733 0.407860 0.399950 -0.250428 0.268067 0.071401 -0.032630 0.186088 0.300052 -1.123974 0.093846 0.177843 -0.519904 0.032853 -0.077992 -0.432241 -0.058943 -0.213484
say -0.025436 0.070808 -0.035955 -0.497907 -0.748053 -0.092986 -0.151405 0.293342 0.042926 -0.047324 0.122958 0.023846 0.257294 -0.101749 -0.642109 -0.067162 -0.445855 0.450138 0.369623 -0.093623 0.009310 -0.174402 -0.262606 -0.488054 0.351134 0.352405 0.585297 -0.125940 0.211791 -0.198432 -0.757799 0.284132 0.291705 -0.073951 0.250083 0.005741 -0.095606 -0.037291 0.106443 0.315004 -0.093684 -0.033712 -0.127181 0.078211 -0.613021 0.422423 0.413675 0.006072 0.112264 0.243537
The -0.048899 -0.003198 -0.036512 -0.084586 -0.185479 0.471307 -0.122082 0.308334 -0.350455 0.220013 0.041610 0.027837 0.018899 0.361540 -0.014503 0.114795 0.519915 -0.041996 -0.085591 -0.170401 0.021975 0.623934 0.089655 -0.214224 -0.014384 0.190627 -0.283883 0.000311 -0.212397 0.156508 0.410177 0.150441 0.213771 0.033579 -0.076245 -0.313966 -0.215463 -0.657583 0.157814 0.053491 0.690287 -0.307660 -0.157386 -0.564323 -0.761458 0.433591 -0.063758 0.263980 0.541255 -0.221801
from 0.173404 0.097266 0.031313 -0.581671 0.097569 0.716157 -0.459296 0.203191 -0.006877 -0.029135 0.436742 0.312563 -0.171853 0.233112 0.403799 0.180171 -0.107496 -0.408243 0.486883 -0.009119 0.196159 0.088010 -0.159449 -0.078262 0.015908 0.147309 0.189027 -0.210138 0.374764 0.260236 -0.101429 0.859849 0.004290 -0.108029 -0.469623 0.062783 0.104017 0.087397 0.179765 0.084044 0.274580 -0.419910 -0.419984 0.069978 -0.275535 0.091046 0.323449 0.044032 -0.105979 -0.343101
said -0.179271 -0.266062 0.117401 -0.418226 -0.490738 -0.118795 0.018097 0.394046 -0.554353 0.368853 0.821936 -0.059353 0.217833 -0.065791 0.024877 0.935527 -0.686174 -0.016633 0.325527 -0.085174 0.609041 -0.107267 -0.074888 -0.019574 -0.067208 -0.082619 0.579644 0.029688 -0.058016 0.264479 -0.503719 -0.092505 0.454325 -0.390976 0.262014 0.052552 -0.261596 0.085778 -0.042004 0.143887 0.205285 -0.243455 0.102482 0.019336 -0.451336 0.553894 0.644945 -0.297653 -0.068214 0.285141
Hey! -0.057771 0.135037 0.089960 0.157025 0.281882 -0.020887 0.010730 0.009402 -0.315344 -0.029038 0.031375 -0.107705 -0.230767 0.169424 -0.262036 0.348927 -0.032334 0.099660 -0.131960 0.051396 0.174547 0.463414 0.085255 0.246137 -0.120112 -0.182437 -0.129617 0.000693 -0.089016 -0.160860 0.482295 -0.104573 -0.079845 0.018708 0.162349 -0.474299 -0.028007 -0.151525 -0.179497 -0.155739 0.286237 0.098984 0.152579 -0.093682 0.208669 0.024391 0.081051 0.006992 0.060569 -0.143872
let 0.369718 0.012922 -0.341058 -0.370704 -1.102503 0.587020 -0.500597 0.242817 0.679563 -0.461171 0.033934 0.018155 0.234833 -0.413411 -0.012908 -0.507206 -0.009722 0.915466 0.490461 0.082481 -0.229311 -0.591150 -0.311428 -0.224542 0.631067 -0.420316 0.217775 0.032634 0.036973 0.102118 -0.420812 0.796675 0.171141 0.505946 0.247556 0.126057 0.165703 0.012697 -0.089230 0.349827 -0.164602 -0.456202 0.089244 0.463508 -0.113951 0.102530 0.190465 -0.188942 -0.086831 0.403578
No! 0.436443 -0.099878 0.006030 0.204396 0.129530 -0.451282 0.154326 -0.301805 -0.187922 0.027818 0.362123 -0.183474 -0.159697 -0.000936 -0.748420 0.336540 -0.239955 0.848886 -0.649979 0.232796 0.070644 -0.376295 -0.300091 0.618532 -0.025925 -0.831556 0.338722 0.430899 0.191163 -0.232692 0.286360 -0.533082 0.238332 0.272680 0.419368 -0.669513 -0.413121 -0.445923 -0.647173 -0.231741 -0.232007 -0.040971 -0.065641 0.207455 0.338437 0.256815 0.747403 0.436436 0.010559 0.308841
can't 0.147861 0.139656 -0.251216 0.041982 -0.923182 -0.132420 -1.040732 0.035586 0.656332 -0.286977 0.003615 -0.113792 0.113326 -0.645001 -0.180111 -0.547060 -0.001471 0.525882 -0.281179 -0.394208 -0.247074 -0.325927 0.194715 0.276827 0.563915 -0.178024 -0.101535 0.122288 0.057006 -0.020850 -0.166401 0.273817 0.022882 0.362461 0.046139 -0.160457 0.571220 -0.426766 -0.239168 -0.124237 -0.608616 -0.406749 -0.539692 0.598331 -0.442054 0.342690 0.907694 -0.154229 -0.299465 0.290987
didn't 0.453119 -0.354968 0.184740 -0.314708 -1.033440 0.035992 -0.370060 0.064185 0.277716 -0.046568 0.203700 -0.205890 0.053150 -0.264906 -0.539048 -0.593904 -0.355394 0.345619 -0.115296 -0.265759 0.188269 -0.379460 -0.026956 -0.555378 0.219563 0.508461 0.325177 -0.117128 0.556481 -0.680911 -0.543174 0.035910 0.214315 -0.180064 -0.079517 -0.131540 0.110878 -0.066604 0.193516 0.242523 -0.173471 -0.024010 -0.693460 0.264559 -0.438338 -0.210541 1.159378 -0.099684 0.346016 0.670847
know. 1.137168 -0.011966 0.550954 0.573867 -0.515952 -0.329288 -0.552266 -0.365580 -0.301737 0.108347 -0.551033 -0.276569 0.214855 -0.325628 -0.800697 -0.298036 -0.487499 0.480678 -0.593134 -0.029780 -0.397161 -0.037364 -0.183738 0.070883 0.130281 -0.022173 -0.092823 0.429517 -0.032506 -0.707610 0.265260 0.223605 0.024112 -0.147597 0.134430 -0.809586 0.583856 -0.429776 -0.275039 -0.318119 0.334748 -0.145555 -0.754231 0.819254 -0.695443 0.008174 0.893700 0.050436 0.243697 0.284787
am 0.375926 -0.410496 0.385790 -0.372089 0.031005 -0.229550 0.009919 0.084286 0.180524 -0.753359 -0.209390 -0.161794 0.476941 0.228961 -0.135214 -0.223331 -0.245719 -0.254183 0.170911 -0.162445 -0.290846 0.754409 -0.531430 0.157573 -0.268353 -1.195612 -0.330626 -0.091819 -0.154701 -0.334455 -0.599956 0.354306 0.111095 0.106470 0.355255 -0.217282 -0.003250 -0.481884 0.425912 -0.645042 0.112284 0.335245 0.127295 0.611210 0.020712 0.428350 -0.630392 0.292709 -0.631823 0.246745
need 0.160862 -0.732407 -0.042765 -0.167302 -0.947971 -0.599095 -0.281394 0.571512 0.047662 -0.271658 -0.267818 -0.003787 0.284565 -0.142241 -0.787029 -0.565600 0.192706 -0.060552 0.134956 -0.290719 0.088422 0.033155 -0.070562 -0.456883 0.116077 0.674550 -0.125192 0.000057 0.256449 -0.507831 -0.534242 -0.046762 0.311984 0.255673 -0.497564 -0.025275 0.335242 -0.771572 0.583997 0.179645 -0.056529 0.462454 -0.212009 -0.010639 -0.495174 -0.424253 0.760657 -0.020735 0.530193 0.192394
What?! 0.078669 -0.178711 -0.011000 0.031209 -0.170913 -0.220898 0.461452 0.053581 -0.191522 -0.106754 0.140635 -0.232600 -0.024238 0.168126 0.086074 0.256865 0.207027 0.049688 -0.252838 0.027673 0.146338 -0.160032 0.071962 -0.040937 0.017320 0.172587 -0.065632 0.292506 0.030603 0.100148 0.171594 -0.376242 0.306815 0.158089 -0.008533 -0.154615 -0.269942 -0.059737 0.110547 -0.087491 0.060347 0.150338 0.382807 -0.297419 0.106875 0.042714 0.236542 0.025192 0.198525 0.039743
Why 0.308052 0.121934 -0.042597 0.471510 -0.975434 -0.327251 0.002623 0.062177 0.052216 -0.014779 0.024788 -0.580359 0.186977 -0.631420 -0.484938 0.090043 -0.392697 0.720693 -0.659644 -0.009156 0.079645 -0.000738 0.365368 -0.268435 0.462907 0.549899 -0.232810 0.342660 -0.042088 -0.319685 -0.122875 -0.543951 0.321172 -0.212671 0.167054 -0.569998 0.061725 -0.026029 0.039527 -0.417446 -0.162217 0.079133 0.016877 0.093782 -0.589424 0.179655 0.639426 0.109347 -0.183851 0.476978
ve -0.332724 -0.714811 0.748061 -0.519866 -1.116073 0.057222 -0.508625 0.144851 -0.500440 0.647777 0.865988 -0.127324 -0.141766 -0.248916 -0.432266 0.539469 -1.037250 -0.631934 0.403924 -0.092536 0.450476 -0.858567 0.207081 0.229545 0.216363 0.364949 0.070569 -0.122577 -0.260870 0.395021 -0.086536 0.253901 0.892726 -0.515677 -0.661444 0.376545 -0.149682 -0.414554 0.211471 -0.299042 0.320847 0.511067 -0.027058 0.300664 -1.621700 0.226736 0.840182 0.645869 -0.058982 0.500558
never -0.470753 -0.434398 0.223028 -0.193021 -0.966605 -0.058475 -0.488292 0.113861 -0.008985 0.044254 -0.070053 0.073273 0.111980 -0.621629 -0.791304 -0.369827 0.106646 -0.036828 0.214258 -0.442539 0.098358 -0.197441 -0.144915 -0.390757 0.148262 -0.049144 -0.093424 -0.164077 -0.273597 0.085081 -0.498191 0.213895 0.423741 -0.448642 -0.522713 0.380266 0.605434 -0.929126 0.143834 0.039412 0.106400 0.460638 -0.028948 0.313978 -0.887008 0.231987 0.122009 0.156146 -0.291829 0.655721
over 0.046286 0.285733 0.034596 -0.096275 0.131671 0.567461 -0.090211 0.375304 0.166117 0.007532 -0.189808 0.501669 0.066751 0.248526 0.799775 -0.456578 -0.050959 -0.227713 0.613276 -0.119570 -0.580813 -0.222098 -0.245183 -0.291945 0.063291 0.399438 0.295392 -0.254022 0.285769 0.195086 -0.752839 0.954925 0.121390 -0.012308 -0.194543 0.232080 0.142055 0.188985 0.610350 0.258087 0.143996 -0.002656 -0.312280 0.258916 -0.091291 0.419170 -0.504174 0.090322 0.063531 -0.327465
or -0.518273 -0.250335 0.231802 -0.354919 -0.360880 -0.115394 -0.202188 0.208724 -0.066329 -0.211305 -0.238621 -0.139799 0.036022 -0.020875 0.089407 -0.320393 0.262317 -0.765574 0.220009 -0.067079 -0.393480 0.198157 0.129385 -0.466799 0.041680 0.250913 -0.516327 0.027283 -0.084316 0.306264 0.211837 0.613637 -0.255054 0.313860 0.162055 0.417495 0.334839 -0.104577 0.227581 0.117039 0.313048 0.253285 0.355863 -0.160714 -0.348678 -0.687426 -0.045606 -0.431874 0.196650 -0.237623
time -0.203423 0.254784 0.920782 -0.394222 -0.002775 0.282003 -0.803480 -0.064020 -0.069571 0.148617 0.357894 0.152345 -0.140621 0.578792 0.345013 0.386402 -0.544635 -0.508823 0.226799 -0.335720 0.253485 0.717223 -0.237504 -0.008584 0.029273 0.317321 -0.443977 -0.256111 0.419350 0.102779 -0.428766 0.369420 0.642883 0.090975 0.453920 0.097753 -0.087566 -0.035396 0.104180 -0.280740 0.316346 0.059848 0.009241 0.072935 -0.387779 -0.063790 -0.422300 0.484203 -0.398397 -0.398040
No. 0.260985 -0.072411 -0.008625 0.236935 0.163554 0.013090 0.046167 -0.106483 -0.241510 0.062688 0.274546 -0.178773 -0.106949 -0.150626 -0.308357 0.240924 -0.178826 0.375192 -0.437114 0.064080 0.117889 -0.171781 -0.035323 0.223105 -0.068120 -0.188650 0.235383 0.136509 -0.166245 -0.117007 0.386822 -0.312007 0.066491 -0.036665 0.004687 -0.267779 -0.027271 -0.091776 -0.292528 -0.127375 -0.005078 0.049579 -0.093121 0.091865 0.141484 0.198267 0.326272 0.038319 0.021428 0.170425
maybe 0.333168 0.129263 0.870056 0.160923 0.087275 -0.066701 -0.556330 0.132626 -0.054837 -0.083817 -0.280576 -0.050252 0.049019 -0.158317 -0.473308 -0.031328 -0.359874 0.432014 0.854913 -0.514041 0.250005 -0.339628 -0.165570 0.429166 -0.085119 0.074577 -0.033416 -0.540982 -0.094336 -0.564750 0.048558 0.458648 0.154784 -0.707687 0.464738 -0.134571 -0.050030 0.242770 -0.740865 0.244527 -0.348746 0.299310 -0.238646 0.351308 -0.540690 0.226081 0.881058 -0.264871 -0.647479 -0.059301
mean, 0.402140 0.223632 0.389770 -0.032363 -0.471938 -0.124812 -0.680903 0.120293 0.170768 -0.274702 -0.206350 -0.629587 -0.007478 -0.055015 -0.062462 -0.055662 0.005856 -0.136143 0.151237 -0.626623 -0.110987 0.403003 0.000940 0.059009 0.046886 -0.265890 -0.370649 -0.074845 0.216330 -0.509034 -0.408971 0.359000 0.196682 -0.285590 0.590894 -0.297237 0.002641 0.029633 -0.152753 -0.574681 0.185083 0.026658 -0.153279 0.274287 -0.770157 -0.015102 0.107816 -0.013587 -0.856451 -0.024459
still 0.059933 -0.677046 0.057300 -0.113103 -0.277377 0.108837 -0.070208 0.054137 0.297117 -0.003915 0.392287 -0.039204 0.416574 -0.097359 0.375548 -0.146317 0.627534 -0.643143 -0.482572 -0.558232 -0.137024 -0.155906 -0.211065 -0.262821 -0.197249 -0.919520 0.337345 0.303815 -0.392462 0.129138 -0.321463 -0.071887 0.375178 -0.176619 0.241400 0.427782 -0.121004 -0.650044 0.163950 -0.031607 0.448944 -0.275989 0.005478 -0.102403 -0.663662 0.140874 -0.312164 -0.161485 -0.079266 0.268772
his 0.012097 0.204924 0.414101 -0.499619 -0.106788 0.422960 -0.120527 0.417679 -0.249716 -0.049302 -0.142234 0.259704 0.277938 0.160879 0.519345 0.190912 -0.169326 -0.741270 0.597073 -0.301202 -0.220588 0.108511 -0.066811 -0.254951 -0.261265 0.045435 0.211184 -0.216298 -0.126757 0.341382 -0.173213 0.662746 -0.238420 0.106147 -0.449723 0.129474 0.235479 0.042073 0.206614 0.054905 0.484890 -0.290208 -0.208875 0.115333 -0.171407 0.052581 -0.295716 -0.035585 0.047221 -0.227238
"Well 0.805750 0.320295 0.171092 -0.149462 -0.600695 0.066091 -0.110511 -0.009220 -0.137798 -0.795398 0.151648 -0.672031 0.053703 0.076337 -0.481752 0.308683 -0.629453 1.033226 0.395039 0.234361 -0.220868 -0.311639 -0.349877 0.502140 0.333827 -0.608769 0.237405 -0.165538 0.186590 -0.591997 0.118264 0.536578 0.107064 0.119372 1.149993 -0.997335 -0.173706 0.376080 -0.759190 -0.215544 0.019153 -0.250743 0.348872 0.584903 -0.230773 0.388053 0.436831 -0.166292 -0.721208 0.067484
why 0.479465 -0.062743 -0.132005 0.259000 -1.108738 -0.117848 -0.051791 0.161462 0.347001 -0.409325 0.141864 -0.530409 0.512281 -0.209107 -0.231209 0.243221 0.189457 0.678915 -0.279456 -0.135347 -0.143794 0.252943 0.113341 -0.311901 0.295136 0.114800 0.066916 0.280675 -0.220350 -0.252772 0.133835 -0.056417 0.197121 -0.089067 1.021278 -0.660441 -0.267748 -0.140411 -0.261100 0.018551 0.116112 -0.725714 0.045618 0.169163 -1.001122 0.346100 0.576803 0.115916 -0.331680 0.055991
it." 0.051129 0.365290 -0.126395 -0.238931 -0.419912 -0.046174 -0.339469 0.034345 0.499738 -0.134933 0.091167 -0.287978 -0.286195 -0.256686 -0.160839 -0.328097 0.067935 -0.161513 0.281217 -0.407373 0.279404 -0.002133 0.495646 -0.309858 0.296334 0.642782 -0.110556 -0.208807 0.115437 -0.290261 -0.444523 -0.010915 0.155189 0.405701 -0.133914 0.197351 0.357436 -0.159984 0.390979 0.218342 -0.098036 0.159938 0.138472 0.074330 -0.154642 -0.348313 -0.141149 0.100466 -0.489955 0.097012
thought -0.014392 -0.012557 0.278559 -0.185785 -0.401997 -0.242106 -0.689548 0.278927 -0.478472 0.225509 0.391409 0.066699 0.235841 -0.322972 -0.059803 0.412300 -0.823224 0.590366 0.342923 -0.423094 0.149537 -0.301235 -0.224538 0.269696 -0.157598 0.067092 0.271931 -0.314106 0.149228 -0.173488 -0.638884 0.165369 -0.140014 -0.966667 0.159105 0.247907 0.165421 0.327238 -0.547180 0.089825 -0.340096 0.066869 -0.450671 0.683310 -0.432851 0.343184 0.739869 -0.191041 -0.454736 0.430927
then 0.607763 0.327046 0.549616 -0.055945 0.078174 0.499854 0.043436 0.215442 -0.153118 -0.055169 -0.327021 -0.067401 0.526152 -0.229242 -0.140261 0.285362 -1.083959 0.363142 1.262904 -0.175780 -0.162158 -0.618396 -0.095222 0.209868 0.328938 0.006769 0.475333 -0.435405 -0.405643 -0.363229 -0.033006 0.730519 0.093647 -0.581966 0.339433 -0.174980 -0.099867 0.404576 -0.455932 0.391135 -0.252891 -0.291796 0.075557 0.639267 -0.694834 0.706297 0.217196 -0.147588 -0.633328 -0.166534
back -0.012487 0.860925 -0.136689 -0.005327 -0.576598 0.369523 -0.221391 0.483442 0.675348 -0.003397 -0.158662 0.302035 -0.344130 -0.292528 0.583905 -1.016073 0.462966 -0.108127 0.813299 -0.509509 -0.363807 -0.521487 0.356965 -0.521053 0.590812 0.399615 0.263143 -0.631229 0.013448 -0.114112 -0.942557 0.769347 -0.402610 -0.327913 -0.387673 0.465149 0.130290 0.161476 0.574380 0.166904 0.029759 0.063158 -0.632263 0.116101 -0.307988 0.088074 -0.165798 -0.039998 -0.493716 0.140142
All -0.198094 0.711305 -0.426592 0.397480 0.777938 0.473100 -0.245006 -0.069688 0.442622 -0.656691 -0.224874 0.239764 0.083783 -0.024079 0.052013 0.488853 0.597984 0.542492 -0.480662 0.422066 -0.565377 -0.010361 -0.472350 0.607970 -0.300809 -0.841526 -0.678082 0.119391 0.586349 0.596644 -0.180477 0.246943 -0.131328 0.214670 0.210235 -0.344604 -0.174431 -0.356871 0.102339 0.105280 -0.830361 -0.345036 -0.346785 0.109201 0.409574 0.573562 0.831914 0.928600 -0.531683 -0.513907
Well 0.161573 0.053607 0.316243 -0.077752 -0.064979 -0.045757 0.030147 0.082015 -0.014755 -0.244423 -0.028260 -0.525149 0.059243 -0.032563 -0.493236 0.295187 -0.340502 0.607867 0.600656 -0.213254 0.180887 0.004611 -0.119897 0.282038 0.186667 -0.263298 -0.094582 -0.242657 -0.177597 -0.435661 0.347403 0.140722 0.215674 -0.263638 0.890278 -0.494733 -0.499339 0.116965 -0.661347 0.121019 -0.200959 0.025930 0.573487 0.009310 -0.367935 0.112727 0.459054 -0.078347 -0.557434 -0.134426
as -0.870007 -0.501323 0.616008 -0.492158 0.364592 -0.322593 -0.040201 -0.540360 0.739814 0.165144 -0.114181 -0.164612 0.114698 -0.110192 0.378355 0.450744 -0.149595 -0.720386 0.985088 -0.548704 0.595679 0.841691 -0.500631 0.117631 0.297200 -0.889760 -0.097058 0.186649 0.055629 0.348596 -0.183869 0.148661 0.833549 -0.124972 0.423583 0.904639 -0.220764 -0.251214 0.162320 0.063954 -0.178692 -0.136095 1.144630 0.134383 0.074072 -0.082446 -0.416731 -0.025679 -0.819899 0.375932
now 0.481634 0.329325 0.297712 -0.002074 -0.049094 0.197237 -0.232180 -0.158457 0.305774 -0.203893 -0.060093 0.043175 0.327210 -0.107981 -0.064547 -0.065620 -0.339650 0.550887 0.763692 -0.031514 -0.417343 -0.363011 -0.240103 -0.054379 0.157843 -0.571981 0.253789 -0.178634 -0.301120 -0.210441 -0.280428 0.536922 -0.089140 -0.053556 0.637027 0.157745 0.096413 0.223207 -0.449165 0.409281 -0.103984 -0.316212 0.145859 0.636133 -0.292733 0.209983 -0.054817 0.012872 -0.631723 -0.038521
it! -0.000494 -0.190121 -0.380324 -0.309206 -0.212738 0.428506 -0.314672 -0.075212 0.107224 -0.204276 0.466780 -0.552843 -0.711373 0.099482 -0.586093 0.111032 -0.397237 0.140729 -0.297061 -0.014989 0.592046 -0.349945 0.597658 0.449832 0.428345 0.374591 0.272975 -0.033217 0.251075 0.212073 0.576904 -0.068380 0.394610 0.689329 -0.406698 0.007942 0.083640 -0.272510 -0.219249 -0.074785 -0.460317 0.035352 0.218980 -0.020164 0.234338 -0.505258 0.812424 -0.009923 -0.324274 0.384493
you, 0.041103 0.136616 -0.121377 -0.153873 -0.715784 -0.372915 -0.237596 -0.153043 0.592977 -0.325904 0.185310 -0.172458 -0.095743 -0.164444 -0.242507 -0.188667 -0.449848 0.122462 0.132849 -0.576621 0.362186 0.207346 0.128840 -0.274195 0.493350 -0.022705 0.156250 -0.239904 -0.040387 -0.195550 -0.490228 0.001413 0.055126 0.523971 0.730883 0.367063 0.271082 0.206054 0.255269 0.170522 -0.047610 -0.095687 0.632904 0.378020 -0.341700 -0.707971 -0.060080 -0.247711 -0.777377 0.434822
How -0.212975 0.261449 0.053819 -0.153850 -0.211118 -0.382794 -0.474462 -0.511699 0.915345 -0.184231 0.208520 -0.366036 -0.116486 -0.343287 0.008183 0.027922 0.007330 -0.073821 0.506509 -0.763949 0.382367 0.037366 0.443215 0.186779 0.193713 0.627746 -0.368758 -0.458876 0.279702 -0.189300 -0.022202 -0.269912 0.255517 0.390205 0.221097 0.301231 -0.022961 0.064900 -0.214113 0.605704 -0.850281 -0.261847 0.410261 0.054344 -0.177329 -0.312463 0.286672 0.229416 -0.757815 0.188682
something 0.152044 -0.162175 -0.337288 -0.446032 -0.661007 0.037116 -0.064459 0.469476 -0.249748 -0.175350 0.414627 0.006575 -0.016381 -0.112611 -0.416869 0.020850 -0.236300 -0.084449 0.507546 -0.106161 -0.141608 -0.340090 -0.122676 -0.322354 -0.156454 0.638308 0.643150 -0.197182 0.337571 0.141796 -0.476421 0.665583 -0.104578 0.109228 -0.358871 0.137907 0.327722 -0.061282 0.327997 0.576576 0.185803 -0.034452 -0.444973 0.237475 -0.670847 -0.240339 0.640673 -0.267952 0.044547 0.419342
Do 0.275939 -0.193536 0.085477 0.063222 -0.782265 -0.104647 -0.301665 0.096714 0.246919 0.092807 0.170429 -0.221067 0.006350 -0.082974 -0.264875 -0.364870 -0.199199 0.100807 -0.511871 -0.508907 0.277134 0.073011 0.099280 -0.263782 0.237188 0.378191 -0.052730 0.282010 0.101682 -0.305430 -0.520029 -0.232061 0.580489 0.168644 -0.141210 0.065933 -0.071200 -0.101906 0.292910 -0.231595 -0.152470 -0.094745 -0.008356 -0.027664 -0.421658 -0.113771 0.292597 0.188891 0.245777 0.571422
it, 0.336157 0.012856 -0.277756 -0.158493 -0.560262 0.105689 -0.402441 0.005421 0.412225 -0.402001 0.014182 -0.792143 0.117738 -0.380832 -0.364198 -0.576111 0.201516 -0.060702 0.126633 -0.467406 0.243025 0.160259 0.377667 -0.429080 0.296010 -0.008212 -0.236946 0.036999 0.224808 -0.634676 -0.780482 0.079639 -0.037633 -0.297652 0.433161 -0.074038 0.325546 -0.061299 0.250564 0.000490 0.038729 -0.043517 0.087705 -0.232576 -0.818579 -0.341590 0.478336 -0.695515 -0.753453 0.147134
you." -0.244458 -0.238419 -0.221529 -0.005994 -0.270528 -0.674163 -0.085330 -0.018382 0.493506 0.149357 0.274312 0.413299 -0.187982 0.062275 0.116433 -0.074473 -0.593946 -0.327507 0.283301 0.431725 -0.315446 -0.086832 0.007363 0.132684 -0.101829 0.104203 0.076402 -0.216624 0.048040 0.119388 -0.407826 -0.242866 -0.047708 0.490660 -0.177886 0.791338 0.187043 0.048467 0.599888 -0.094076 -0.221333 0.182374 0.100459 0.601469 0.027402 -0.543520 -0.418992 0.361711 -0.071988 0.296549
me. -0.207558 -0.439677 -0.003980 -0.258788 -0.269729 -0.074898 -0.379799 0.118075 0.383859 0.153566 0.240886 0.086155 0.178924 -0.010212 0.368936 -0.216022 -0.257208 -0.601624 -0.091126 0.031703 -0.137257 0.280600 -0.280974 -0.040149 -0.081969 -0.444937 0.086536 0.059877 -0.240275 0.364385 -0.484357 0.109896 0.129357 0.484565 -0.080406 0.515045 0.204327 -0.247743 0.482666 -0.161582 0.351597 -0.294142 0.090071 0.207311 -0.161828 -0.214290 -0.338757 -0.250949 -0.036130 0.169437
I'll 0.263206 0.707627 0.442386 0.327497 -0.337097 0.561893 -0.348835 -0.462098 0.702188 -0.449964 -0.022900 0.283788 0.006019 -0.472939 0.463937 -0.326564 -0.225181 0.862778 -0.213460 0.172227 -0.412541 -1.115456 -0.137313 0.014505 0.525698 0.438465 -0.013956 0.142540 0.448782 -0.145197 -0.511397 0.482500 0.139335 0.017607 0.049127 -0.250300 0.224881 -0.071002 0.008381 -0.004330 -0.772222 0.088209 -0.460230 0.898454 0.445841 0.355307 0.239952 0.511801 -0.058446 0.046715
I've -0.239398 -0.119007 1.159354 -0.704548 -0.632111 0.186572 -0.222352 -0.057448 -0.337963 0.143421 0.495313 -0.246780 -0.406895 -0.169212 -0.352214 0.293128 -1.017834 -0.544215 0.489717 0.256120 0.396262 -0.869530 -0.015993 0.087709 0.165730 0.213482 0.432488 -0.249923 -0.444921 -0.043061 0.463000 0.592415 0.324529 -0.319021 -0.190210 -0.213719 -0.174884 0.202623 0.135120 -0.353137 0.339368 0.790642 -0.220244 0.551624 -0.402725 -0.141140 0.411245 0.379727 -0.302414 -0.022600
it? -0.132480 -0.053058 -0.248727 -0.239363 -0.107122 0.381424 -0.001173 0.084413 0.095939 -0.393662 -0.020610 -0.417703 -0.378592 0.330135 -0.153529 -0.131866 0.181960 -0.085283 0.313891 -0.121680 0.323751 0.265719 0.333097 -0.148237 0.242402 0.367027 -0.003012 -0.272211 0.641447 0.058989 -0.117152 -0.046950 0.002172 0.130260 -0.096962 -0.081888 0.059902 -0.497627 0.074997 -0.163434 0.060528 0.215190 0.410504 -0.077831 0.136291 -0.452827 -0.016451 0.408242 -0.112485 -0.036978
well 0.337301 0.405981 -0.041887 0.317039 -0.233470 0.068684 -0.305484 0.086004 0.318247 -0.223485 0.095784 -0.165834 0.207857 -0.570660 -0.291337 0.089987 -0.662452 0.933057 0.842008 0.524351 -0.611157 -0.533307 -0.364374 0.611488 0.073396 -0.627515 -0.269467 -0.245062 -0.124812 -0.503713 -0.322584 0.344227 0.070423 -0.243504 1.102779 -0.139061 -0.270476 0.439070 -0.436964 0.036483 -0.442940 -0.198323 0.177284 0.412609 -0.397605 0.418255 0.316143 -0.140076 -0.343122 -0.018598
believe 0.201369 0.015108 -0.382003 0.089424 -0.936735 -0.196723 -0.932349 -0.117895 0.442807 -0.321040 0.208486 -0.116577 0.174509 -0.509229 -0.399987 -0.364418 0.124754 0.654608 -0.586086 -0.736912 -0.311288 -0.046390 0.264947 0.438949 0.457531 -0.455434 -0.082584 0.104721 0.126800 -0.206637 0.135151 -0.124259 -0.023402 0.273879 0.401112 -0.392627 0.159837 -0.548070 -0.558111 -0.184402 -0.770829 -0.590313 -0.452543 0.259873 -0.584007 0.331078 0.917217 0.127030 -0.438918 0.192841
Are -0.238007 0.194054 0.076389 0.385228 0.046785 -0.335938 0.103215 -0.283040 0.236323 0.060947 0.025175 -0.070167 0.003521 0.020092 0.205490 0.383024 0.133063 0.338890 -0.515925 -0.147361 0.327649 -0.205680 0.145894 0.094711 0.475300 0.394104 -0.043103 0.570016 0.063910 0.255700 0.304363 -0.266712 0.250812 0.282116 0.189557 0.055364 0.092394 0.083017 -0.467081 0.234468 -0.559297 0.121837 0.507743 0.200288 0.494332 -0.044812 0.167903 -0.140014 -0.019781 0.020257
God! 0.441912 -0.327619 -0.631992 -0.141030 -0.930607 -0.349261 0.959242 0.556423 -0.436469 0.039047 0.647912 -0.156095 0.186910 0.118661 0.708250 -0.002147 -0.246943 0.596032 -0.428269 0.080687 -0.645505 -0.193840 0.160601 0.103120 -0.190084 -0.312804 -0.227697 0.174483 -0.579603 0.109045 -0.201078 -1.056963 -0.023766 0.084496 -0.215682 -0.410226 -0.863547 0.395536 0.762508 -0.857367 0.063187 -0.079677 0.493155 -0.674315 -0.320332 0.604703 -0.530154 0.598590 0.301755 0.697784
He 0.065818 -0.404494 -0.592461 -0.452922 -0.462139 -0.079085 0.056464 0.311876 -0.138408 -0.080443 0.418331 -0.248765 0.054104 0.058018 -0.147652 0.234212 -0.275294 0.038177 -0.205334 0.288778 -0.071349 0.130806 -0.033437 -0.016338 -0.152308 -0.199359 0.360047 0.058077 -0.001315 0.401650 0.149049 -0.243087 -0.161536 0.347557 -0.240590 0.068418 0.077891 -0.169627 0.332198 -0.177736 0.274925 -0.158174 -0.002223 0.064313 -0.114906 -0.172214 0.302798 -0.212470 0.070941 0.523692
I-I 0.434242 -0.200885 0.412695 0.135801 -0.526159 -0.612498 -0.418416 -0.160693 -0.033333 0.024414 -0.164706 -0.282005 0.376043 -0.427648 -1.033612 -0.240941 -0.311239 0.427163 -0.423419 -0.199213 -0.017124 0.026217 -0.427356 -0.126504 0.109804 -0.528055 0.135296 0.094871 -0.201188 -0.712246 -0.429317 0.044691 0.308404 -0.382382 0.321113 -0.204080 0.420747 -0.535059 -0.175358 -0.195282 -0.045522 0.226435 -0.561313 0.556743 -0.514516 0.332784 0.673058 0.027601 -0.102876 0.678894
No 0.138596 0.088632 0.155902 0.080095 0.190705 -0.451851 0.418970 -0.259325 -0.346741 0.059546 0.053296 0.359920 0.343339 0.182252 -0.435246 0.053253 -0.021845 0.573386 -0.382423 0.236874 -0.232464 -0.124966 -0.394363 0.260781 0.011754 -0.652621 0.187558 0.459557 0.113423 -0.464759 -0.244128 -0.217490 -0.196782 -0.072617 0.480474 -0.451220 -0.229571 -0.042119 -0.460695 -0.044763 -0.318327 0.040734 -0.194944 0.183637 0.170322 0.407420 -0.118303 0.358767 0.286564 0.075067
guy -0.099744 -0.039253 0.103431 -0.593199 -0.431128 0.549617 -0.652583 0.524336 -0.723467 -0.068405 0.385786 0.237007 0.126527 0.322616 0.166484 0.227525 0.034183 -0.359444 0.446963 -0.262204 -0.069796 0.759131 -0.184330 -0.382918 -0.358591 -0.021433 -0.134255 -0.411215 0.174429 0.214213 0.071838 0.697842 -0.219850 -0.120512 -0.371544 -0.445520 0.107978 -0.482450 0.338269 0.202857 1.115604 -0.496823 -0.217648 -0.454079 -0.777802 0.029590 0.119229 0.026510 0.389788 -0.424058
two 0.026888 -0.046126 0.541516 -0.279276 -0.266452 -0.032039 -0.014355 0.080435 -0.359934 0.165544 0.280519 0.298307 0.077165 0.367427 0.119433 0.083794 -0.565040 -0.512975 0.085815 -0.179160 0.143417 0.343134 -0.119425 -0.527119 -0.052771 0.846445 -0.014835 0.095978 0.179960 0.025923 -0.542774 0.259719 0.598069 0.224572 -0.442222 0.168500 -0.025211 0.045960 0.400089 0.040704 0.311710 0.023315 0.183574 -0.111619 -0.460391 0.132848 -0.316108 0.329213 0.548943 -0.232787
yeah, 0.414887 0.789529 -0.241289 0.252696 -0.044934 -0.004124 0.189102 0.455273 -0.089894 0.025752 0.601503 -0.015668 0.198708 -0.161498 -0.066614 0.452502 -0.439126 1.120746 0.329159 0.295633 -0.395312 -0.016246 -0.143657 0.391099 0.076595 -0.631659 0.085690 0.022195 -0.269777 -0.438288 -0.229510 0.002277 -0.111053 -0.512063 1.337776 -0.612337 -1.061782 0.664309 -0.460403 -0.058450 -0.345171 -0.570239 0.022764 -0.189003 -0.542355 1.036848 0.297063 0.111650 -0.279234 -0.151660
he's 0.431105 -0.319228 0.339376 -0.164607 -0.041402 0.001256 0.197198 0.279831 -0.660160 0.006528 -0.320926 -0.004133 0.934329 -0.200498 -0.085709 0.133963 -0.246297 0.120676 0.006754 -0.351268 -0.566978 0.118351 -0.628722 -0.245154 -0.075717 -0.805615 0.266734 0.241638 -0.558392 -0.077429 0.067452 0.306276 -0.076345 -0.265320 0.166605 -0.185227 0.275858 -0.070891 -0.305110 0.049352 0.302978 -0.104366 0.054717 0.180863 -0.350909 0.378544 -0.086842 -0.613474 0.150414 0.022173
much -0.606101 -0.388090 0.460990 -0.683137 -0.074246 -0.657137 -0.267617 -0.759327 0.583070 -0.245057 0.241372 -0.286377 0.336600 0.076710 -0.155046 0.746351 -0.729342 -0.643599 0.908071 -0.435668 0.451357 1.119515 -0.318515 0.048809 -0.010219 -0.688796 -0.397215 -0.152855 0.592499 -0.141809 -0.584193 -0.322344 0.434844 -0.017879 0.445465 0.383234 -0.090557 -0.093319 0.005179 0.070736 -0.458332 -0.393254 0.953921 0.227589 -0.148145 -0.262903 -0.505955 0.436966 -1.008095 0.197285
okay, 0.242645 0.353181 -0.375258 0.117831 -0.144690 0.266012 -0.435892 -0.010357 0.119990 -0.198677 0.005120 -0.572048 0.126818 -0.327442 -0.143011 0.161150 -0.189241 0.764844 0.478328 0.254805 -0.636559 0.000728 -0.288420 0.731557 -0.000065 -0.866851 -0.189661 -0.137655 -0.309489 -0.271109 0.502581 0.562397 -0.082856 -0.349538 1.034388 -0.543752 -0.390802 0.359913 -0.445940 -0.028382 0.065747 -0.297474 0.067407 0.034774 -0.617748 0.296922 0.318838 -0.246484 -0.685122 -0.181184
didn 0.694613 0.027112 0.010617 0.177375 -0.942737 -0.459556 -0.415185 -0.128398 0.278992 0.033216 -0.021435 -0.159671 0.348324 -0.209906 -0.252989 -0.567612 -0.088418 0.544247 -0.514123 -0.158013 -0.170500 -0.399128 0.092964 -0.282150 0.117203 0.200290 0.180258 0.137977 -0.004817 -0.334894 0.034420 -0.183021 -0.078209 0.089148 -0.144599 -0.273908 0.460122 -0.237745 -0.019572 0.268931 0.044117 -0.467267 -0.789736 0.505162 -0.539206 0.116602 0.968136 -0.078936 0.528318 0.525359
doing 0.258493 0.169388 -0.045502 -0.163236 -0.173397 -0.674715 0.254513 -0.134110 0.116406 -0.430606 0.773664 -0.026512 0.338244 0.201585 0.587721 0.118504 0.079468 0.088927 -0.338968 -0.387969 0.620666 0.201358 0.279422 -0.522466 0.025845 0.420857 0.011319 0.553432 -0.022331 0.253575 -1.091365 -0.634125 0.004923 0.124600 0.070031 0.442661 0.514984 0.055033 0.011258 0.229758 -0.168106 0.072569 0.364715 0.319139 0.362650 0.183973 -0.513096 0.000273 -0.622406 0.425080
even 0.319200 -0.387180 0.552556 -0.149209 -0.935247 -0.480741 -0.490964 -0.290280 0.126336 -0.241918 -0.497264 -0.337314 0.411907 -0.407126 -0.575752 -0.483213 0.043160 -0.107992 -0.351180 -0.612683 0.025911 0.221729 -0.180359 -0.513892 0.229281 -0.038047 -0.254821 0.163528 0.224207 -0.501577 -0.370842 0.154906 0.455189 -0.088642 0.067812 -0.104611 0.622351 -0.557971 0.025026 -0.142810 0.112332 0.132283 -0.269201 0.438337 -0.582522 0.003056 0.483199 -0.236755 -0.034621 0.380227
good -0.168306 -0.325843 0.401848 -0.472504 -0.204107 -0.096703 -0.128253 0.161092 -0.017995 -0.272077 0.003510 -0.162039 0.435313 0.311473 0.023099 0.289405 -0.332820 -0.413864 0.542038 -0.482466 0.024815 0.785974 -0.449358 0.015654 -0.282061 -0.440233 -0.165253 -0.181213 -0.177384 0.149093 -0.150725 0.170514 0.325220 0.399001 0.309483 -0.115968 -0.238250 -0.276657 0.144434 0.346438 0.315136 -0.502657 0.683536 -0.137690 -0.389215 0.056134 -0.300021 0.190769 -0.161374 0.021579
by -0.144658 0.479541 0.610581 0.160599 0.458168 0.189099 -0.546214 0.052681 0.081390 0.039414 -0.135743 0.461182 0.072746 0.081345 0.587216 -0.119009 -0.183031 -0.110735 -0.056538 -0.127267 -0.238877 0.194191 -0.257734 -0.017204 0.003975 0.368117 -0.543878 0.086515 0.437078 -0.005802 -0.839686 0.479918 0.062373 -0.042000 -0.286564 -0.214914 0.233404 0.242348 0.439499 -0.420991 -0.164350 0.313696 -0.250249 0.174908 0.467759 0.194805 -0.256336 0.539999 0.066465 -0.791784
me, 0.426417 0.248558 -0.117336 -0.055329 -0.061060 -0.393933 -0.444003 -0.377224 0.393098 -0.031031 0.272079 0.027017 -0.045807 -0.138309 0.162236 -0.039293 -0.501815 -0.099748 0.025496 -0.003197 0.094232 -0.133222 -0.187175 -0.093031 0.225634 0.161037 0.454646 -0.193515 0.503094 -0.247476 -0.420463 0.181582 -0.210858 0.102707 0.120914 0.177815 0.406168 0.674231 0.013148 0.185543 -0.186561 -0.450930 -0.522973 0.656215 -0.010552 -0.394762 0.339261 -0.548605 -0.339914 0.191308
Is -0.094538 -0.161141 -0.658052 -0.410914 0.161130 0.160688 0.520092 0.440299 -0.475697 -0.075746 0.152648 -0.140422 0.153391 0.318810 -0.069334 0.383609 0.344457 -0.140526 0.777475 0.097257 0.042075 0.222588 0.129048 -0.003268 -0.132033 -0.247972 0.495023 -0.178016 0.100733 0.378447 -0.021488 0.206987 -0.514962 -0.405599 0.237157 0.010506 -0.071766 0.185220 -0.209926 0.306548 0.402156 -0.289937 0.237897 -0.355242 -0.301500 0.057464 0.040612 -0.401078 -0.352690 0.061804
Oh, 0.265412 0.071938 0.145173 0.159317 0.085785 0.153298 -0.076753 0.019527 -0.158223 -0.062102 0.225019 -0.201922 0.138893 -0.132182 0.122284 0.130931 -0.345087 0.161370 -0.399345 -0.110419 -0.142569 0.024996 -0.082928 0.201499 -0.087491 -0.444821 0.135840 0.147682 0.122610 -0.207964 -0.203381 0.002881 -0.165821 -0.494713 0.303263 -0.288249 -0.127737 0.332675 -0.247343 -0.333306 -0.093757 -0.251994 -0.089709 0.111113 -0.283004 0.271358 -0.084283 -0.094831 -0.420628 0.042531
She -0.067227 -0.353119 -0.678143 -0.330468 -0.156387 0.204249 0.270616 0.606034 -0.265890 0.140288 0.623247 0.169377 0.055365 -0.026951 0.295313 0.209769 -0.161023 0.181400 0.049296 0.013973 0.115884 0.087730 -0.289824 0.054906 -0.346552 -0.531182 0.522110 -0.083146 0.018290 0.095446 -0.387874 -0.365968 -0.308272 -0.359197 -0.070505 0.160949 -0.230689 0.285955 0.487445 -0.039465 0.154554 -0.018229 -0.275139 -0.401230 0.139412 0.244016 0.071217 -0.675567 0.128377 0.605198
gotta 0.202105 -0.073411 0.131537 -0.008945 -1.042590 -0.108213 -0.097112 -0.255594 0.430235 -0.062854 0.143756 0.020354 -0.145334 -0.452143 -0.208079 -0.640200 0.205444 0.249814 -0.311381 -0.065627 0.029689 -0.935234 0.231042 -0.666347 0.597901 0.836438 0.205521 0.083023 0.074871 -0.122558 -0.523101 0.101913 0.402799 0.417175 -0.483926 0.044955 0.456201 -0.535347 0.436516 0.249947 -0.092725 0.174576 -0.269222 0.456223 0.026514 -0.065578 0.370763 0.269000 0.456964 0.594862
has -0.281113 -0.114990 0.052363 -0.705821 -0.317140 0.462106 0.123301 0.748103 -0.607765 0.261561 -0.074726 -0.058234 -0.167952 0.345780 0.105636 0.444420 -0.480863 -0.566179 1.422518 -0.010917 0.192706 0.109982 0.251915 0.020097 -0.050762 -0.064934 0.276085 -0.591500 -0.379156 0.206418 0.385685 0.433314 -0.229438 -0.210651 -0.158256 -0.019100 -0.216305 0.114799 0.393343 0.117051 1.014428 0.025499 0.230504 -0.327865 -0.753041 0.000618 -0.256276 -0.316393 0.012489 -0.162772
them 0.102794 0.044863 0.063743 -0.117280 -0.084208 0.336192 -0.341874 0.131589 0.276501 0.192724 -0.161388 0.331863 -0.110657 0.010761 0.453957 -0.121817 0.160185 -0.351173 0.414804 -0.213677 0.075086 -0.068503 0.004337 -0.220261 0.118735 0.231655 0.002882 -0.028154 0.296757 0.153330 -0.558342 0.501598 0.285038 0.037098 -0.462894 0.360927 0.250313 0.000396 0.315223 -0.066270 0.111457 -0.217406 -0.257309 0.053843 -0.229912 0.053792 0.029018 0.045220 0.173095 -0.140142
ah, 0.186588 0.572762 0.170955 0.006347 -0.205557 0.103965 -0.050820 -0.047149 0.098596 -0.607895 -0.064892 -0.354065 -0.155011 0.065383 -0.097108 0.168394 0.013868 0.206423 0.295364 0.097042 -0.118662 -0.154944 0.129589 0.036168 0.313831 0.174600 -0.060862 -0.180338 0.022912 -0.102169 0.117693 0.441133 0.075417 0.303648 0.531575 -0.590252 0.019612 0.108239 -0.290983 -0.176722 0.035946 -0.007092 0.303737 0.296085 0.052822 0.238883 0.008140 0.110839 -0.454579 -0.375084
big -0.244309 -0.616767 0.444127 -0.577907 0.308147 0.263611 -0.188410 0.380578 -0.344903 -0.006876 0.170257 0.066144 0.030666 0.412705 0.166375 -0.083882 -0.248674 -0.469295 0.384222 -0.200998 0.067683 0.618766 -0.419429 -0.098417 -0.571740 -0.019742 -0.516661 -0.050778 0.028993 0.016604 -0.299699 0.404397 0.188094 -0.275390 -0.030785 0.274953 -0.299657 -0.074225 0.234884 0.145157 0.266349 0.336370 0.202973 -0.342834 -0.209406 -0.194065 -0.095246 -0.323624 0.221312 -0.029947
talk 0.263260 0.183133 -0.062811 -0.292766 -0.544384 -0.895181 -0.355204 0.072804 0.598899 -0.210217 0.169438 -0.095435 0.064482 -0.263293 -0.263050 -0.248362 -0.447932 -0.154477 0.650580 -0.004596 0.147016 -0.273795 0.002562 -0.146202 0.275359 0.722843 0.069076 -0.368046 0.356156 -0.328419 -0.681444 0.065646 -0.027380 0.498712 -0.367199 0.087155 0.418453 0.050284 0.389453 0.383192 -0.460015 0.157847 -0.353418 0.562163 -0.033719 -0.377692 0.660889 -0.235022 -0.002690 0.431367
Okay, 0.258510 0.040966 -0.365983 -0.043819 -0.437491 0.416438 0.213838 -0.004639 0.269433 -0.447060 0.063906 -0.243864 0.032056 -0.220025 0.015624 -0.215476 0.396037 0.702913 -0.174472 0.154478 -0.336751 -0.324497 -0.032087 0.038998 0.313127 -0.414632 -0.203349 0.269752 -0.117779 -0.056257 0.012330 0.069519 0.009164 0.199622 0.260271 -0.342726 -0.223338 -0.156137 -0.033164 -0.156952 -0.198644 -0.041772 0.246860 -0.084619 0.295290 0.324322 -0.208605 0.212272 -0.100303 0.173574
any -0.010090 -0.051094 0.127175 -0.194653 -0.525821 0.306053 -0.410570 0.209242 -0.180809 0.399125 -0.312521 0.046597 0.108165 0.365884 -0.071782 -0.184839 -0.198800 -0.292220 -0.036098 -0.554377 0.225529 0.406773 0.182721 -0.398648 -0.173183 1.056321 -0.285333 0.119400 0.666596 0.322499 -0.351451 0.162496 0.354973 0.090781 -0.418175 0.281401 0.096053 -0.025985 0.138475 0.109540 0.081305 -0.433908 -0.001655 -0.306645 -0.816831 -0.268153 0.383450 0.399062 0.567843 0.191214
give 0.036238 0.028039 -0.195787 0.014837 -0.608844 0.098904 -0.590469 0.111010 0.541121 0.231936 -0.278503 0.488247 0.049746 -0.344292 0.211791 -0.788447 -0.068836 0.076075 0.675243 0.204534 -0.383105 -0.419995 -0.039104 -0.179460 0.310204 0.397264 -0.343552 -0.179506 0.106367 0.022380 -0.648952 0.551996 0.020171 0.083696 -0.082912 0.624571 0.274782 0.256817 0.440516 0.392012 -0.120062 -0.135594 -0.376910 0.308246 -0.241547 -0.233521 0.144094 -0.297308 0.592901 0.183552
right. 0.001533 0.539833 -0.355221 0.586497 0.601654 0.053462 -0.209096 -0.231514 0.536779 -0.541527 -0.159619 0.123241 0.255119 0.051325 0.155030 0.540153 0.452629 0.628405 -0.711417 0.322592 -0.511829 -0.107824 -0.482167 0.584769 -0.194214 -0.672401 -0.562621 0.273050 0.558239 0.409065 -0.250572 -0.142658 -0.012559 0.193669 0.494951 -0.305319 -0.265939 -0.147109 0.039001 -0.071153 -0.765724 -0.246546 -0.040470 0.096642 0.422414 0.418677 0.658235 0.729001 -0.301020 -0.540878
too -0.219088 -0.664090 0.128443 -0.537766 -0.008539 -0.234061 0.019791 -0.183588 -0.287151 0.012957 -0.076166 -0.066477 0.224964 0.234323 -0.221418 0.336781 -0.314861 -0.406612 0.738071 -0.051898 -0.114610 0.683991 -0.191342 0.220861 -0.302223 -0.850216 -0.255618 -0.187907 0.094391 -0.072151 0.162702 0.162947 -0.052723 -0.206300 0.246909 0.090863 -0.175471 -0.034800 -0.003640 -0.055337 0.290591 -0.139242 0.497012 -0.355518 -0.403560 -0.367417 -0.434512 0.040500 -0.377660 0.020269
"You 0.648600 0.288491 0.688914 0.197572 -0.740542 -0.626734 -0.329520 -0.194095 -0.034980 -0.259174 -0.332054 -0.415658 0.216210 -0.122972 -0.139899 -0.134753 -0.229486 0.197782 -0.257058 -0.190176 -0.078367 -0.241454 -0.026498 -0.204894 0.431377 0.477806 -0.040088 0.229484 0.431564 -0.746729 -0.413840 0.257249 0.323516 0.151839 0.388435 -0.652534 0.236697 0.092110 -0.158380 -0.299503 -0.012457 -0.058076 -0.222869 0.597164 -0.212141 0.271075 0.615482 -0.230337 0.081594 -0.188439
Oh! 0.313866 -0.394483 0.023337 0.234114 -0.048351 0.187705 -0.164595 -0.251652 -0.404350 -0.089464 0.048467 -0.159408 -0.040536 0.135112 -0.355383 0.197499 0.172976 0.524061 -0.531324 0.047639 0.077818 -0.033987 -0.355495 0.548675 -0.000749 -0.604698 -0.452054 0.229093 0.049910 -0.006785 0.596864 -0.036958 0.449003 -0.027698 0.211842 -0.478933 -0.250227 -0.569763 -0.445453 -0.315349 0.022954 0.043380 0.191063 0.020300 -0.091537 0.366999 0.390992 0.396508 0.352228 0.177103
our -0.276099 -0.126607 0.091469 -0.098140 0.059544 0.596012 -0.124650 0.378761 0.351098 0.171018 0.383234 0.097358 -0.019986 -0.064727 0.727276 -0.203101 0.096037 -0.453491 0.031283 -0.211718 -0.212278 -0.106623 -0.363622 -0.288235 -0.242840 0.079767 0.412860 -0.281649 0.016786 0.212000 -0.406548 0.442159 0.204620 -0.109881 -0.004698 0.429376 -0.379926 0.201998 0.443003 0.304823 0.375726 -0.179192 -0.094328 -0.371476 -0.248877 0.051680 -0.374853 -0.360680 0.097583 -0.215882
well, 0.165603 0.800505 -0.061661 0.470517 0.269253 0.000530 -0.050589 0.106826 0.193306 0.043400 -0.001069 -0.110777 0.224096 -0.309781 -0.369769 0.102706 -0.463373 0.959105 0.503519 0.554987 -0.514736 -0.159572 -0.314137 0.421650 0.146789 -0.682564 -0.162558 -0.129307 -0.260895 -0.563857 -0.191522 0.194725 -0.085421 -0.415435 1.176589 -0.412152 -0.485104 0.354036 -0.291601 -0.049531 -0.330718 -0.147408 0.099934 0.142962 -0.303954 0.679714 0.145545 0.133663 -0.245960 -0.410264
feel -0.278241 -0.485575 -0.241040 -0.283166 -0.888170 -0.421309 -0.658888 0.043477 -0.155163 -0.352720 0.240131 -0.796694 0.296801 -0.570761 -0.586578 0.379268 -0.709360 -0.260522 0.043354 0.112153 -0.474001 0.118411 -0.059260 0.143063 -0.214526 -0.079464 -0.931026 -0.094929 0.498199 0.278803 -0.181578 -0.020633 0.015232 -0.004407 0.318136 0.363012 0.440267 -0.448223 0.063921 -0.244942 0.109605 0.023590 0.605046 0.298700 -1.214438 -0.642756 0.600446 0.105572 -0.298553 0.203434
other -0.299102 0.537820 0.184757 -0.170046 0.357182 0.415645 -0.724263 0.093900 -0.154155 0.356190 0.234129 0.436777 -0.289112 0.174456 0.302353 0.138446 -0.170352 -0.484265 0.087744 -0.254008 0.241496 0.596959 0.075690 -0.395420 -0.401153 0.853752 -0.297177 -0.234145 0.473056 0.229377 -0.357726 0.376618 -0.027800 -0.013362 -0.473039 0.069481 0.030391 0.196584 0.149631 0.137539 0.205508 -0.423122 -0.351278 -0.362027 -0.086832 -0.193308 0.070234 0.335166 0.464217 -0.541257
told -0.126013 -0.232418 -0.370233 -0.368662 -0.799402 -0.445173 -0.164944 0.075430 0.088572 0.043946 0.218685 0.418269 0.166181 -0.241078 -0.318029 -0.038013 -0.253913 -0.009017 0.756435 -0.001112 0.342775 -0.190888 0.034628 -0.059956 0.101741 -0.186022 0.253771 -0.302896 0.091268 -0.009301 -0.570861 -0.064448 -0.203184 0.139414 0.154233 0.434086 0.159444 0.199585 0.008855 0.202942 -0.038710 -0.077093 0.095887 0.299006 -0.068837 -0.176610 0.067129 -0.240542 -0.015805 0.480848
very -0.066759 -0.548177 0.126005 -0.117317 0.293843 0.231574 -0.053927 0.235694 -0.372893 0.030097 0.026704 -0.035253 0.215645 0.204438 0.047913 0.156727 -0.457683 -0.159922 0.283554 -0.132562 -0.194786 0.657867 -0.570141 0.327569 -0.460249 -0.779030 -0.142683 0.006065 -0.201591 -0.076477 0.149400 0.160941 0.174265 -0.325900 0.315107 0.170426 -0.231248 -0.207760 -0.064681 -0.109670 0.427622 0.239864 0.294920 -0.078565 -0.427836 0.102177 -0.300096 -0.298657 -0.077618 0.200385
God, 0.775370 0.242099 -0.548629 -0.116918 -0.597287 -0.149298 0.792972 0.480738 0.039332 -0.121782 0.359712 -0.226151 0.197683 0.250891 0.606212 0.166069 -0.328697 0.952603 0.244309 0.136565 -0.541959 -0.139469 0.105093 0.309882 -0.027714 -0.377814 -0.126422 -0.017819 -0.138956 -0.384633 -0.251818 -0.583765 -0.215650 -0.225658 0.667011 -0.700727 -1.215886 0.987188 0.097811 -0.584493 -0.330648 -0.371252 0.380876 -0.441675 -0.297717 0.595047 -0.369838 0.428974 -0.180694 0.330779
Oh. 0.017791 -0.052473 -0.055278 0.251012 0.441644 -0.001327 0.245922 -0.156656 -0.229588 0.116591 -0.019767 -0.020065 -0.091203 0.114890 -0.090392 0.192915 0.091806 0.248566 -0.357980 0.177513 0.055704 -0.058203 -0.057715 0.237717 -0.121475 -0.147668 0.002370 0.162632 -0.108597 0.066229 0.454647 -0.282325 0.022810 -0.040285 -0.016317 -0.190154 -0.149331 -0.063281 -0.230608 -0.053672 -0.055848 0.087111 0.040975 -0.107933 0.313175 0.068606 0.093939 0.056983 0.194278 -0.068629
always 0.069143 0.060377 0.822499 0.166637 -0.401352 -0.610145 0.020152 -0.432273 0.123920 0.263982 0.001155 0.136367 0.151219 -0.573053 -0.046771 -0.431268 0.185770 -0.273357 -0.357723 -0.670251 0.191633 -0.529506 -0.053275 -0.679353 0.101501 0.259666 0.119286 0.174527 -0.400578 -0.435414 -0.455729 -0.195268 -0.020831 -0.416309 -0.491711 0.079816 0.481724 -0.099853 -0.070144 0.097175 -0.064139 0.579874 -0.460820 0.205469 -0.283783 -0.013497 0.204204 -0.165104 0.101458 0.363433
