， 0.582008 2.652526 1.160082 0.266723 -0.217385 -1.269118 0.371421 0.786551 -0.053215 -1.274258 -1.480543 1.916269 -1.865609 0.756329 -0.662136 -0.437978 0.233298 -0.197059 0.632836 0.768809 -0.578309 -0.940911 1.521804 0.810520 0.474511 -0.697711 -0.572287 -1.348743 -1.260555 0.347232 -0.080673 1.041900 -0.345746 1.460585 -0.668058 2.025761 1.022245 0.206891 -1.769164 -0.661826 0.089265 0.660294 0.867827 0.632540 -0.072949 -0.596233 -0.711905 -0.022032 2.145262 1.138654
“ -0.048551 1.928226 1.416382 -0.033121 0.501942 -0.959052 -0.834270 -0.533207 -0.117824 -1.898054 -1.492440 0.262455 -1.061043 0.525795 0.412871 -0.584823 -0.229209 0.096797 0.471828 0.360277 -0.514731 0.515527 0.161300 -1.041313 -0.112989 -1.058446 -0.548652 -1.253010 -0.306619 0.557313 0.638774 0.018809 -0.190226 0.032266 -0.881331 1.294351 0.558322 0.030836 -0.496533 0.465414 0.313540 1.510111 0.887351 1.212123 1.064138 -1.429754 0.187845 0.722052 1.311808 2.107684
” 0.273162 1.717533 1.543262 -0.199595 0.409586 -0.956868 -0.629963 -0.559967 -0.107076 -1.826680 -1.624342 0.274555 -0.917034 0.553769 0.319240 -0.625305 -0.079417 0.170656 0.426971 0.560234 -0.521213 0.450123 0.277856 -1.018634 0.047890 -1.092074 -0.362837 -1.336818 -0.438215 0.613300 0.657724 0.191882 -0.215980 0.064159 -0.933948 1.172513 0.431688 0.026447 -0.819040 0.147979 0.311153 1.435683 0.903643 1.249935 0.929509 -1.355475 0.135537 0.758012 1.264902 2.151572
。 0.017166 1.509209 1.545611 -0.126168 0.851313 -0.344252 0.743157 -0.681473 1.278214 -2.916527 -0.967597 -1.104400 -1.753696 0.971005 -0.805091 0.343601 -0.651191 0.329373 2.021874 0.476732 -0.180815 0.311520 -0.444739 0.700911 -0.353523 -1.195191 0.083031 -0.480985 0.383431 0.447472 1.036408 0.544489 -0.498079 -0.000762 -1.158655 -0.647155 0.090506 -0.540068 -0.225400 -0.899860 0.839487 0.286862 0.416229 1.172777 2.467772 0.307428 -1.707107 1.166339 0.627991 1.768621
我 0.176234 1.267136 -0.232108 0.538766 -0.397952 0.365374 0.380391 -1.353835 0.667670 -1.965400 -0.604280 1.583852 -1.194945 -0.236133 -0.046464 0.838043 -0.708449 -0.021407 0.161709 1.062099 0.392625 1.335284 -2.055865 0.039517 -0.056485 -1.258006 -0.406075 -1.091482 -0.841329 -1.399309 0.251883 1.363406 -0.532403 0.982685 -0.364741 1.153855 0.495045 1.070027 -0.380824 -0.283146 1.031339 0.109200 0.649718 -0.168948 0.365001 -0.818347 -0.363007 1.588688 2.462215 1.702086
的 0.564154 1.874856 0.967536 -0.288343 -0.561274 -1.083006 -0.496954 0.359484 0.258792 -0.793829 -1.549915 1.241691 -1.286587 0.359810 -0.160488 0.153018 0.761024 -1.599299 -0.385461 -0.165227 0.198464 0.732788 -1.498747 0.004042 -0.166780 -1.324152 -0.281955 1.639437 0.375388 -0.239358 1.915335 1.345651 0.345797 -0.399517 -0.782378 -0.736304 0.341900 0.242796 -0.506853 -0.614598 0.030564 0.842854 1.813843 -0.058214 -0.476059 -1.098473 -2.586143 0.647334 1.141628 2.177987
你 -0.078511 1.642376 0.844769 -0.709126 0.969057 0.490516 0.193223 -0.519968 0.606118 -1.453596 -1.326486 2.902340 -1.114808 -0.128725 0.636788 -0.397989 -0.546259 -0.501848 1.917060 0.694818 -0.595316 -0.119091 -0.707641 0.723373 -0.430837 -1.289980 -0.095756 0.348955 -0.091370 -0.192374 -0.241131 0.885683 -1.390747 0.530311 0.354801 -0.631405 1.587965 0.012901 -1.003650 0.850528 0.570425 1.148540 0.247881 1.747224 -0.787731 -0.683431 -0.060137 0.822950 1.225826 0.563742
！ 0.469976 1.562286 2.631723 0.143235 0.562939 0.445127 1.158806 1.616866 0.662048 -2.267492 -0.995994 0.894973 -0.082676 0.416675 0.204288 -0.504826 -1.750578 -0.393772 -0.800934 1.234699 -1.103652 1.945841 -0.937421 -0.204527 -0.325219 0.585991 -0.670304 -0.702619 -0.551423 -0.369279 1.679060 0.985294 0.112930 -0.678179 -0.289418 0.039095 -0.506817 1.134353 -0.010779 0.054563 1.171980 2.227418 -1.081721 1.012469 -0.699298 -0.793207 -0.474842 -0.038229 0.115363 0.704139
？ 0.449443 0.705004 1.680963 -1.427944 0.188024 0.535265 -1.429201 0.180672 0.072566 -1.904740 -1.294747 1.388631 -0.572251 -0.386693 0.325580 -0.757421 1.135543 1.013918 0.294625 0.779387 0.434401 -0.516794 -0.326074 -0.580446 1.125814 -0.118986 1.384585 -0.460597 1.002911 0.693882 0.068085 0.800803 0.872283 0.108822 1.136152 -0.261341 0.486141 1.066175 -0.927319 0.238334 0.584051 1.964955 -0.043744 0.983546 0.241394 -0.482908 -0.526830 1.381248 0.326458 2.026473
是 -1.255441 1.407306 0.923089 0.222992 1.118424 -0.829037 0.576960 -0.735712 -0.078193 -2.370784 -1.021124 1.051616 -0.590416 0.375489 -0.069821 0.397207 0.756293 -0.164668 -1.130825 0.443765 0.041689 -0.167166 -0.141756 -0.156844 -0.130747 -2.405315 0.911578 0.192608 0.355296 -0.565325 1.081511 -0.178383 0.217111 -0.653704 0.655776 0.788964 0.262278 0.344542 -0.843335 -0.408831 1.317749 0.731969 0.752672 1.074899 -1.130172 -0.476987 -1.060979 0.995119 1.248620 1.168075
了 2.247056 1.431675 0.940215 1.528539 0.017091 1.553183 0.416350 0.473829 1.000077 -0.874659 -1.869480 0.888395 -0.154847 -1.378864 -0.167722 -0.190123 -0.735620 0.535596 1.417951 0.553028 -0.039536 0.928807 0.578830 -0.921009 -0.232806 -0.515068 0.209341 -1.161395 0.073881 -0.213464 0.116354 0.058145 -0.489025 2.064181 -0.770427 0.659039 -0.306277 0.126445 -0.898431 -0.124463 1.321632 0.394158 -1.469386 0.851456 -1.163504 -0.632778 -1.609158 1.316162 0.071015 2.585794
好 0.041879 0.507591 1.090065 -1.007781 0.176069 -0.482200 -0.446576 -0.128639 0.263212 -1.751307 -0.704196 1.281486 -0.189315 1.026890 -0.943410 -0.348709 0.062632 -1.135536 0.718785 1.470025 -0.055046 0.078847 0.849661 -0.728425 -0.957867 -0.208024 -1.054625 -0.705506 -0.080370 -0.280644 0.717334 0.859042 -0.720548 -0.016401 -0.297745 0.472753 -0.622561 0.801577 -0.273237 -0.165003 0.930278 0.895783 0.825605 1.498570 0.130261 -0.374890 -0.676135 0.269600 0.394949 2.030839
不 0.528617 0.517855 1.980051 0.659733 2.340539 -0.067024 -0.651194 0.590479 1.652435 -2.099560 -0.382911 0.784872 0.118898 -0.261890 0.410510 0.468253 0.385341 -0.171028 0.905495 0.365992 -0.165172 -0.046159 -1.142739 0.314402 0.440068 -0.463915 0.096800 -1.936217 0.219570 -0.808487 0.031705 1.038153 -0.163866 0.051733 -1.237741 0.303513 0.593030 0.377508 -0.905971 0.150061 -0.902406 1.293353 1.036347 0.014966 0.575361 -0.905484 -0.273684 -0.312742 1.274678 0.650479
哦 0.366205 1.492757 1.478486 0.049076 0.811717 -0.056689 -0.104095 0.111025 0.361818 -1.706513 -0.441369 0.299241 -0.417555 0.257047 0.020719 0.123735 -0.414115 0.268808 0.463812 0.720630 -0.226028 0.301313 0.221914 0.233918 0.120963 -0.422623 0.128009 -0.850671 -0.870172 0.732745 1.486792 1.247306 -0.060723 -0.785703 0.007119 1.454069 -0.715457 0.295623 -0.931087 0.636154 0.678728 1.304297 -0.504062 0.158623 -0.309437 -0.806683 -0.728695 -0.446542 0.835316 1.702034
在 1.015562 1.024539 1.203492 -2.254988 0.756945 -0.460560 0.438618 -0.593611 0.617860 -1.540510 -0.614545 -0.279451 -1.367191 -0.462931 -0.890845 -0.569473 0.650894 -0.161941 -0.159234 1.511311 -0.129208 0.460363 -2.223993 -0.502574 0.120514 0.724326 0.161976 0.219316 -0.686867 -0.086764 -0.128210 -1.732491 0.530658 0.761877 -0.665970 0.001354 -0.342658 0.408540 -2.631025 0.513016 0.846232 0.280063 0.602613 0.102007 -0.064044 -0.504036 -0.607972 0.529467 1.348862 -0.114606
吗 -0.038686 0.573832 1.147176 -1.296588 0.340876 1.018581 -1.236613 0.668542 -0.555780 -1.919543 -0.161918 0.802515 -0.871400 0.066916 0.323542 -0.372556 1.172656 0.527633 0.933374 1.001559 -0.101898 -0.472656 -0.858593 0.083201 -0.439038 -0.012328 0.513477 -0.189549 0.437294 0.549448 0.012052 0.765569 0.304319 0.962725 0.812123 -0.452419 0.033057 1.592337 -0.209632 0.240911 0.453873 0.986912 0.355163 0.994594 -0.163464 -0.264710 -0.394345 1.621320 0.097946 1.444654
什么 -0.277027 -0.159281 1.486232 -1.194394 1.040774 0.808040 0.196714 -0.522841 0.712638 -1.002835 -1.234714 0.311784 -0.850723 -0.264230 0.634831 -0.581858 0.936214 1.308341 -0.759597 0.554858 0.382951 -0.318576 -0.468219 -0.436877 1.068590 -0.649537 -0.391854 0.245754 0.148629 0.581910 0.504502 0.666632 -0.056208 0.287134 0.194163 -0.119252 0.229695 0.212448 -1.340322 -0.718888 0.891442 1.110845 0.506602 0.079216 -0.905745 -0.654627 -0.193907 0.252624 -0.052344 1.469872
知道 -0.031389 1.035792 1.102444 0.270861 0.990742 0.408321 0.292428 0.229131 0.604210 -1.775751 -0.481993 0.769672 -0.313337 -0.453156 0.587375 -0.200574 0.484922 -0.313223 -0.025429 0.324454 -0.504095 0.055822 -0.385288 0.431294 0.696277 -0.884276 -0.909159 -0.746401 0.289618 -0.362695 0.180413 0.526676 -0.425976 1.122726 -0.434197 0.500376 0.209457 0.830105 -1.184823 -0.250380 0.089303 0.728756 0.902314 0.812794 -0.429920 -1.048493 -0.064829 1.139077 0.913409 0.885895
N -0.333096 -0.424351 0.866855 0.384179 0.265748 0.060532 0.514732 -0.109211 0.053817 0.199754 -0.911085 0.414502 -0.286362 -0.715639 0.646732 -0.842222 -0.961187 -1.010924 -0.217894 -0.068397 -0.271607 0.504090 -0.860556 0.640794 -0.198218 0.328602 -0.038597 0.337401 -0.426502 -0.244128 -0.706359 0.013913 -0.137900 -0.439903 0.793536 -0.970537 0.279116 -0.826991 0.160489 0.327340 0.272764 0.563782 -0.291111 -0.272718 0.756500 0.127944 -1.210349 -0.647311 0.266238 0.408699
吧 0.078770 0.310786 0.637271 -1.026598 -0.002955 -0.295858 0.171429 0.420345 0.098290 -1.822293 -0.890897 1.251712 0.722811 1.015104 -1.021699 -0.824694 0.397663 -0.877352 0.410142 1.440792 0.040629 0.429576 1.228830 -0.308887 0.006587 -0.413323 -0.855401 -0.839009 0.146450 0.318478 0.030273 0.424973 -0.509213 -0.108599 -0.154146 0.961954 0.087745 0.897789 -0.390196 -0.710379 1.495851 0.972888 0.474631 1.239563 -0.066949 0.066369 -0.589821 0.022667 0.429950 1.649911
我们 0.754226 0.196532 0.976872 -0.701173 0.981052 0.271107 0.271542 0.891979 0.427004 -1.638355 -0.399799 1.043478 0.914818 0.071452 -1.099433 -0.442555 0.402812 -1.307309 0.378541 0.132456 -0.313353 0.554327 -0.378988 -0.365102 0.344788 -0.713783 -0.484250 -0.955635 -0.028852 0.449310 0.992139 0.017552 0.901942 1.335989 -0.358760 0.531698 0.279203 0.574096 -1.025322 -0.076680 0.646030 -0.179252 0.594587 1.101916 0.792561 -0.134725 -0.492173 0.708357 1.448013 0.405367
嗯 0.324057 0.915283 0.853247 -0.294162 0.881547 -0.487047 -0.358335 -0.914582 -0.087863 -2.021606 -0.286119 0.144609 -0.749423 0.291178 -0.054846 -0.214063 0.122368 -0.382003 0.135532 -0.041957 0.172843 -0.546304 0.437485 0.275966 0.073314 -0.748931 -1.022158 -0.857767 -0.327439 0.294103 -0.248588 0.015782 -0.109238 0.004349 -0.495450 1.304392 -0.104629 0.325007 -0.963378 -0.190440 -0.006635 0.567727 1.165858 0.949353 0.077012 -0.628198 -0.059477 0.579894 1.467386 1.343568
他 0.654359 1.471204 0.478949 -0.155960 0.815602 -0.657271 0.934381 -0.839522 0.681026 0.051101 -0.848431 0.430557 -0.218459 0.051078 0.898330 0.026870 0.034668 0.302646 1.194337 0.816459 0.009158 0.641238 -0.350062 -0.629483 -0.135762 0.047474 0.249454 -0.620689 0.792439 -1.621303 -0.681474 0.691418 -0.016103 0.171179 -0.202460 0.613488 0.352153 1.130529 -1.219710 0.469341 0.171517 0.382416 0.604519 0.555927 0.135544 -0.405143 -0.805531 0.542926 0.214327 1.505443
啊 -0.253720 1.036068 0.640271 0.183374 0.743801 -0.376165 0.340444 -0.251604 0.156838 -1.816627 -0.550140 0.510237 0.033664 0.231279 -0.301886 -0.325281 -0.487083 -0.169379 -0.599362 0.475964 -0.393361 0.002709 0.623967 0.221008 0.062907 -0.879067 -0.046326 -0.191112 -0.316082 0.117257 1.111007 0.040897 0.124560 -0.583649 0.381421 1.366541 -0.147784 -0.069753 -0.760040 0.316502 1.047806 0.908894 -0.087627 0.624833 -0.498155 -0.664808 -0.532194 -0.086598 0.903047 1.021752
她 0.491725 1.391539 -0.589873 -0.368569 1.002231 -0.273274 0.590821 0.088242 0.168973 -1.499287 -0.809192 0.213423 0.648885 -0.358583 0.502643 0.276973 0.409370 0.842369 0.905530 1.047037 -0.296206 1.083695 -0.418203 0.370316 -0.843176 -0.744092 0.251046 0.600065 1.189433 -0.112543 -0.670344 0.484084 0.391606 0.203166 -0.370567 0.879892 0.776922 0.593806 -0.595066 -0.090760 -0.205696 0.789925 0.013950 0.443174 -0.463776 -0.788740 -0.486723 0.540051 0.873320 1.129919
和 0.581473 2.076674 -0.115533 -0.542785 0.401743 -0.300276 0.370516 0.418303 -0.579552 -1.203950 -0.179917 0.197031 0.241024 0.129787 0.337638 0.805847 1.072972 -0.079842 0.317912 0.404455 -1.304720 -0.693982 -0.688690 -0.083457 -0.768472 0.337771 0.563293 -0.808644 -0.375885 0.209641 -0.090119 -0.250880 0.508992 0.983917 -0.288288 -0.348732 0.248132 0.884870 -0.734035 0.581121 0.679502 1.096035 0.849100 1.796749 0.107482 -0.863873 -0.760550 1.273993 0.813357 0.105768
想 -0.625745 0.280061 -0.502819 -0.196313 0.051574 0.304062 0.597138 -0.369288 0.457350 -1.554482 -0.406564 0.224240 0.490568 0.500559 0.249156 -0.678071 -0.244629 0.427750 0.418398 0.667169 -0.206419 0.069662 -1.330908 0.663123 -0.150684 -0.107277 -1.527145 -0.664442 -0.023435 -0.244849 0.152282 0.175016 -0.310408 0.709734 0.031349 0.972901 0.319440 0.721009 -1.166843 0.197254 1.057284 0.507587 0.517517 0.504561 0.026071 -0.334994 -0.247288 1.531640 0.806194 1.016881
很 0.448262 0.100303 0.518109 0.216161 0.885093 -0.451780 -1.401267 0.206499 0.349885 -2.062018 -0.832705 -0.024458 -0.574067 0.991331 -0.849105 0.519341 0.146134 0.091716 1.146006 0.191391 0.371135 0.179684 0.105454 0.137665 -2.253938 0.199694 -0.292330 -0.171720 -0.004415 -0.424837 0.405316 0.125466 -0.246835 0.731014 0.700678 0.282393 0.192370 1.668876 -1.425188 0.776908 -1.360273 -0.728964 -0.587974 0.819496 -0.475260 -0.809451 -0.127876 0.590906 0.951767 1.555007
. 0.033030 0.110216 0.238535 0.406739 0.685228 -0.771871 -0.605144 -0.286718 -0.278981 -0.927954 -1.356501 -0.142308 -0.031841 1.228522 0.409092 -0.406006 0.601361 -0.133049 -0.173543 -0.369117 0.226144 0.186149 0.435209 -0.750183 -0.505013 0.180746 -0.035985 -0.792349 -0.139674 0.081759 0.170316 -0.298638 -0.210672 0.048731 -1.007000 0.122361 0.022047 0.437009 0.006697 0.753121 0.464142 1.260764 1.306704 0.551219 -0.425102 -0.984266 -0.197693 0.862727 0.490207 1.728043
有 -1.084001 0.350719 1.143109 -0.447692 0.813287 -0.059899 0.531229 0.369728 0.891047 -0.646895 -0.799576 0.240937 -0.668699 -0.123843 0.714509 0.278192 0.478500 -1.188595 0.352305 0.107720 0.242958 -0.144444 -0.329812 0.068341 -0.859462 -1.352421 -0.757069 0.740325 -0.534056 0.389631 -0.480672 0.150756 -0.532633 0.692682 -0.326754 0.091804 -1.090287 0.513759 -1.627510 0.319110 0.027870 0.944793 0.232431 0.167603 0.112903 -0.610203 -1.178737 1.093387 -0.250203 0.694003
说 -0.314766 1.468320 0.859880 -0.306906 1.113439 0.487144 0.225769 -0.858038 -0.158541 -1.029645 -1.079495 0.972129 0.206120 0.244395 0.942504 -0.644838 -0.233276 0.206622 0.258096 1.086122 -0.187208 0.697232 0.212601 -0.522989 0.308378 -1.839302 -0.273773 0.130924 -0.368218 0.367830 -1.002715 0.149183 -0.615691 0.174581 0.289141 0.550439 0.363311 1.037165 -0.742787 -0.835746 0.035849 0.565183 -0.522514 0.759352 1.009123 -0.401828 -0.138745 0.190371 0.707332 0.990300
这 -0.704814 0.625138 0.623318 0.585080 0.432715 -0.337345 -0.510256 0.005230 0.658182 -2.614121 -0.309294 0.423255 -0.241957 0.781429 0.499516 -1.102162 0.535561 -0.215252 0.432853 -0.153017 -0.049379 -0.292472 -0.175018 -0.692310 -1.045995 -0.394051 -0.242458 -0.776100 0.221249 -0.507526 -0.284275 0.347249 -0.684456 -0.059401 0.149222 0.755938 0.225188 0.680314 -1.199427 -0.866213 0.060622 0.228891 0.123597 0.153176 -0.582643 -0.282378 -1.841923 -0.421058 -0.062389 0.324230
嘿 0.317491 1.848323 1.463361 -0.393709 -0.574711 0.521595 -0.252776 0.336095 -0.259924 -1.548965 -0.244735 0.512116 -0.095889 -0.231058 0.321393 -0.204043 -0.507525 0.461139 -0.595960 0.680314 -0.271211 -0.425290 0.224633 0.048513 0.478935 0.080290 -0.950197 -0.875355 -0.292757 0.883587 0.157545 0.218865 -0.300121 0.368848 -0.051761 0.458965 0.263863 0.232484 -0.781803 -0.135949 -0.102019 1.370595 -0.110636 0.598434 0.342962 -0.533909 -0.612490 0.150868 0.240197 0.235843
一个 -0.076368 0.892597 0.633844 -0.167520 0.096991 -0.834671 1.307004 0.428192 0.356651 -0.580164 -0.368155 -0.139784 -0.673791 0.720817 1.112733 -0.411418 -0.080636 -1.410368 -0.646773 -0.012832 -0.108881 0.210850 -0.549624 -0.940820 -0.193431 -0.213941 -0.048961 0.570908 0.689151 -0.113900 -0.394765 0.812428 0.230551 1.682428 0.345685 -0.936923 -0.976204 -0.130555 -0.751540 -0.099910 0.576466 0.854362 0.800410 0.681956 -0.057353 0.165362 0.082133 -0.201256 2.304869 1.897336
做 -0.345158 0.443441 0.096841 -0.886879 0.223761 -0.062770 -0.042316 -0.137419 1.499542 -0.322818 -0.418634 0.743690 -0.163910 -0.188922 -0.423242 -0.611909 0.162929 -0.052204 0.495911 0.785854 0.054472 0.562608 -0.286712 -0.386578 0.557534 -0.290302 -0.436073 0.111982 -0.036868 0.305569 0.371048 0.760899 -0.891137 0.334330 -0.716012 0.440768 0.824201 1.494377 -1.586012 0.049201 1.566295 0.159642 0.559560 -0.139624 0.573336 -1.368625 -0.646871 0.164073 0.357065 1.146754
那 -1.066713 0.030257 0.936926 0.029426 1.214412 -0.531868 0.396975 0.023874 0.368834 -1.494464 -0.430760 1.111580 -0.628108 0.637249 -0.620411 -0.128709 1.186246 0.402276 0.054201 0.361360 0.088953 -0.060824 0.014880 -0.353695 -0.649205 -0.274986 0.419721 -0.672346 -0.121955 -0.302879 1.200672 0.561276 0.232479 -0.447064 0.080170 0.728113 0.631511 -0.030582 -1.426073 -0.038469 0.265838 0.670614 0.080435 0.365783 -0.880393 -0.206092 0.167413 0.147986 0.557799 0.951214
它 0.885250 -0.102184 1.032903 -0.220283 1.247753 -0.015307 0.524413 0.069363 0.098931 -0.809298 -0.627446 0.441967 -0.573723 0.659227 0.857779 -1.313419 -0.483724 -0.799246 1.327492 -0.713872 0.325354 1.383666 -0.299530 0.263336 0.056297 -0.712550 -0.590270 -0.313627 0.687727 0.059155 -0.127604 0.178005 0.759040 -0.095543 -0.201616 1.261677 0.629971 -0.146127 -1.631426 0.544092 0.584238 0.211405 0.227786 0.287331 -1.204065 0.657217 -0.120621 0.212591 -0.060071 0.971876
… 0.367893 0.881936 0.164756 -0.104148 1.124943 0.399920 0.652143 -1.550943 -0.675281 -0.502658 -0.298073 0.005216 0.407603 -0.462161 -0.030675 -0.093180 1.488192 -0.134260 -0.308266 0.638291 -0.820278 -0.233747 -0.222766 -0.484973 -0.937405 -0.716420 -1.807371 -0.446124 -0.483852 0.445941 1.279612 -0.345297 0.076202 0.063122 -0.035201 0.701611 -0.878587 -0.557570 -0.993715 -0.249295 -1.161692 -0.211695 0.092008 0.230379 -0.774745 -0.898113 0.240607 0.034605 0.759286 1.293066
就 -0.246194 0.908449 0.452498 0.501169 0.766697 0.561683 1.278976 0.595062 0.851936 -0.341997 -0.660415 0.045695 -0.618036 -0.242458 -0.624526 -1.034841 0.185595 -0.625140 1.219817 0.778445 0.081090 0.896728 -0.403025 -0.345355 -0.047076 0.159310 0.453335 -0.382542 -0.293051 0.396711 -0.599327 0.159674 -0.069785 -0.296232 -0.542055 0.836270 1.282854 -0.025847 -1.926007 -0.917763 1.380359 0.435175 0.433190 1.088434 0.156359 0.045743 0.968462 0.946634 0.644103 1.397974
没有 0.880649 0.059121 1.323261 -0.964907 1.350604 -0.123469 -0.512358 -0.526274 0.386188 -0.573627 -0.981010 -0.269269 -0.601098 -0.140803 0.968427 0.162836 0.014939 -0.246786 0.630424 0.865020 -0.485685 0.770148 -0.514919 -0.366955 -0.456491 -1.231094 0.208867 0.093300 -0.585845 -0.255571 -0.689210 0.880343 0.315270 0.568521 -1.148213 0.400841 -0.332784 0.549769 0.096460 -0.771141 0.390173 -0.516216 0.848127 0.413865 0.045926 -0.701149 -0.274118 -0.569990 0.888296 0.188523
但 0.354557 0.845375 0.148053 -0.359662 0.784188 -0.127812 0.262747 -0.169569 0.101300 -1.594191 0.402070 0.355988 -0.225386 0.455892 0.671538 -0.180828 0.101474 -0.555090 0.394586 0.123594 -0.009863 0.291666 0.052553 -0.253345 -0.744895 -0.615003 -0.506479 -0.683921 -0.194957 -0.353489 -0.324629 0.408576 -0.302030 0.929124 -0.143586 1.297538 -0.155640 0.879038 -0.873146 -0.035425 0.487404 -0.033955 0.579213 0.569639 -0.295065 -0.428364 -0.755394 -0.163252 0.854763 0.477536
不是 -0.323603 0.233996 0.238473 -0.564028 1.433823 -0.496386 0.360447 -0.040694 0.297599 -1.960226 -0.071481 0.205285 -0.286060 0.894691 0.689275 -0.464330 0.865051 -0.117220 -0.889744 -0.159126 0.222390 -0.243436 -0.029388 -0.930367 -0.722603 -0.499083 0.308775 -0.019194 0.004068 -0.074218 0.051056 0.653970 0.212416 0.874104 0.028707 0.321080 0.211423 1.104639 -0.785995 -0.516589 0.249145 0.151465 -0.036002 0.201401 -0.361859 -0.113076 -0.792989 -0.620219 0.789548 0.303669
去 0.803230 0.269974 -0.652343 -1.014083 -0.259028 -0.012629 0.366048 0.135268 0.794024 -0.539618 0.033295 0.309002 0.235006 0.416166 -0.309727 -0.565103 -0.630746 0.419351 0.739759 1.049261 0.099154 -0.280104 -0.408411 -0.172759 -0.527854 0.879179 -0.447623 -0.330801 0.433477 0.224976 0.387862 -0.496292 0.067310 1.056818 0.028468 0.297149 0.469371 -0.284549 -1.017385 1.438602 1.422515 0.947718 0.579670 0.260050 -0.063935 0.164778 -0.424595 -0.294994 0.939362 1.761990
.. 0.406548 0.363558 0.573944 -0.513211 1.394081 0.326380 0.190367 -1.078105 0.146170 -1.685700 -0.116198 -0.456278 -0.254083 0.658408 0.242473 -0.023455 0.118012 -0.708579 -0.713312 0.077839 0.640188 -0.975900 -0.409736 0.683273 0.791512 0.100829 -0.225406 -0.164457 -0.768777 0.313500 -0.126075 0.879906 -0.316208 -0.967850 0.608445 0.781272 -1.079808 0.456438 -0.407222 -0.069087 0.599677 0.481491 0.534832 0.323980 0.265860 0.057662 0.126839 0.189689 1.104237 1.023017
只是 -0.012790 0.281674 0.043789 0.388023 0.958519 0.034653 0.498223 -0.948499 -0.095996 -1.492868 0.298421 0.835703 -0.177063 0.630380 0.601896 -0.257127 0.223243 -0.152795 0.212457 0.255653 0.204120 0.043862 -0.839070 0.127732 -0.312149 -0.330517 -0.995038 -1.325900 -0.098761 -0.174531 -0.078804 0.593301 0.095184 0.456074 -0.286289 0.907062 0.164384 0.027546 -0.846098 0.219109 -0.433375 0.426070 0.180657 -0.146837 -0.037020 0.052740 -0.015237 0.580329 1.100572 1.008022
把 0.521265 0.270078 0.166364 0.362798 0.542075 0.037638 0.333665 -0.085836 -0.315634 0.075343 -1.109305 1.075470 0.286605 0.873076 0.796616 -1.618207 -0.111804 -0.410371 1.184575 0.040112 -0.246847 0.820785 -0.791108 0.126082 0.151954 -0.040947 -0.299284 -0.476172 0.585141 -0.433141 -0.134268 0.176747 0.651413 -0.240723 -0.067257 0.874466 0.367220 -0.187505 -1.046114 0.474373 0.742149 0.427986 0.280782 0.053981 -0.742875 0.527964 -0.615479 0.707836 0.423695 0.510961
让 -0.184010 -0.050444 0.261796 -0.825385 0.355388 -0.169948 0.615320 -0.418729 0.232912 -1.250826 -0.853605 0.425966 0.314512 0.419873 0.455327 -0.530125 -0.047295 0.135453 0.231104 -0.114696 -0.044607 0.703961 -0.020483 0.756698 0.277882 0.126450 -1.514507 -0.847077 0.223261 -0.396481 0.019630 0.740232 -0.153167 0.640123 0.176152 0.317290 0.700603 1.011381 -0.370223 -0.290246 0.781303 0.037671 0.490294 1.336591 0.025914 -0.316733 -0.026415 0.977226 0.210955 0.150327
会 -0.450383 0.250672 0.594576 -0.120506 0.208985 -0.668975 -0.000845 0.348772 0.702164 -0.331531 -1.098347 0.300804 0.574424 -0.206474 0.201542 0.041771 -0.096536 0.625940 0.626094 -0.043975 0.047216 1.118781 0.046264 0.448041 -0.371043 -0.473943 -0.284202 0.472836 0.899835 0.290917 -0.682610 0.379722 0.288075 0.528910 0.054461 0.205820 1.294057 0.537882 -1.816773 -0.408366 0.242535 0.346086 0.101005 0.791781 -0.281938 -1.025458 -0.265248 0.593942 0.938129 0.452812
他们 0.054214 -0.069185 0.857944 -0.749113 1.161570 -0.324522 -0.104612 -0.076620 0.175090 -0.490906 -0.357870 0.592901 0.273456 0.629856 0.291467 -0.359946 -0.726149 -0.027622 0.127291 -0.056921 0.036300 1.010270 -0.258716 0.435816 -0.156576 -0.822684 -0.330566 0.271385 0.062019 0.179696 -0.068747 0.192430 0.624787 0.652973 -0.299570 0.791570 0.508464 0.420250 -1.428810 0.247128 1.233061 0.354382 -0.050774 0.723953 -0.392487 -0.352874 -0.480157 0.140362 1.352049 -0.450243
着 0.726398 0.862197 0.402788 -0.208968 -0.568907 0.394853 -0.559052 0.016263 -0.207646 -1.505833 -0.219409 0.776112 0.592443 0.341511 -0.430241 -1.013843 0.020327 0.058743 0.047825 1.609974 0.002932 -0.184571 -0.401356 0.534659 -0.085414 0.522650 -1.999400 -0.462691 0.669193 -0.397168 -0.764114 -0.258262 -0.541110 -0.387053 0.445444 0.268868 0.192293 -0.317994 -0.666767 -0.303769 -0.497719 0.861598 0.808523 0.471207 -0.937434 0.200359 0.046163 -0.175902 1.118727 0.967008
给 0.477702 0.574245 -0.245480 -0.526083 0.552252 0.122141 0.050131 -0.924553 0.458309 -0.115553 -0.819043 0.781568 0.820365 0.736205 0.801307 -0.584375 -0.024220 0.203976 0.778502 0.872721 -0.474478 0.364161 -0.001839 0.202981 -0.001077 -0.460697 -0.258771 -0.230724 1.187521 -0.376495 -0.345670 0.806863 -0.192593 0.002832 -0.564259 -0.094365 -0.263221 -0.143562 0.068005 0.646448 0.765269 1.315089 0.375693 0.130452 -0.104006 -0.330092 -1.208152 0.607927 0.858728 0.590846
听 -0.051973 0.921062 0.867109 0.412000 -0.322182 -0.193557 -0.355471 -0.218709 0.169381 -1.626819 -0.547756 0.049459 0.468225 0.971101 -0.206334 -0.714550 -0.383959 -0.191196 0.301679 1.105999 0.160045 -0.370387 -0.033722 0.386706 -0.166459 0.405916 -1.604713 -0.677112 0.364251 -0.518332 -0.820163 -0.080954 -0.908175 -0.595412 0.302263 0.175052 0.073906 0.472751 -0.874125 -0.532550 -0.552261 0.771715 0.806502 0.917581 0.315821 -0.250129 -0.146714 -0.005242 0.856838 0.959394
真的 -0.252439 -0.164105 0.524675 -0.015984 0.824455 0.057741 -0.849876 0.193043 0.216044 -2.187486 -0.142163 0.837711 -0.090155 0.487680 -0.120202 -0.358994 0.281566 0.488431 0.170860 0.058202 0.242165 0.081853 -0.314061 -0.211597 -0.537658 -0.246769 -0.018135 -0.623065 0.372860 -0.122276 0.056115 0.548434 -0.010434 0.675076 0.567672 0.327246 0.655921 1.023021 -0.779447 -0.367580 -0.467945 0.002440 -0.298096 0.438718 -0.055860 -0.141968 -0.149427 -0.032227 0.744388 0.737874
对 -0.250107 0.374093 0.262663 -0.801336 0.554881 -0.087953 -0.633027 0.110149 0.426078 -1.589107 -0.270812 0.865238 -0.482254 0.115002 0.030300 -0.183853 0.688338 -0.399170 0.517431 0.384525 0.250309 0.285446 0.242338 -0.199457 -0.407467 -0.798560 -0.098086 0.049307 -0.612022 -0.191133 -0.341062 0.744553 -0.680221 -0.256412 -0.108806 0.909811 -0.127734 1.729629 -0.418303 -0.516843 0.144060 -0.379818 -0.132914 0.384846 -0.326048 -0.380109 -1.008782 -0.182535 -0.554652 0.349456
来 0.568284 0.419282 0.147643 -0.892672 0.364790 0.061891 0.112870 -0.186539 -0.087193 -0.532810 -0.649237 0.430257 0.528759 0.891040 -0.494235 -0.161760 -0.050006 0.589333 0.122462 1.191338 0.028156 0.971001 0.622511 0.004289 0.239689 -0.243931 -0.439542 -0.610544 0.573442 0.806966 -0.074536 0.356628 0.390579 0.556224 -1.034130 0.101418 0.316503 -0.146616 -0.009043 -0.157823 1.138221 1.249038 -0.129970 0.158280 0.177917 -0.049159 -0.308465 0.474703 1.247514 0.787227
都 -0.391795 -0.530970 1.450292 0.149460 0.348104 0.018583 -1.008097 0.193512 1.404891 -0.337036 -1.482029 -0.091743 0.589010 0.361850 0.130546 -0.408490 -1.024008 1.344766 -0.350637 0.932188 -0.371114 0.420295 -0.588974 -0.498338 -0.246139 -0.470270 -0.631416 -0.084278 0.368414 -0.784996 -0.485926 -0.607563 -0.598283 1.145538 -0.547952 0.580627 -0.208241 0.260215 -0.909305 -0.917219 1.070917 0.003974 0.651494 0.454798 -0.448997 -0.865073 -0.955560 -0.070224 1.070884 -0.101952
告诉 0.426661 0.986778 -0.136631 -1.254268 0.854139 -0.033001 -0.189107 -1.080092 0.561663 -0.733929 0.112989 1.159049 -0.206837 -0.232450 0.520652 0.119616 -0.235724 0.253561 0.311093 0.548370 0.003592 0.338021 0.526044 0.135282 0.012804 -0.208081 -0.226713 -0.222501 0.053421 -0.561105 -0.135065 0.960049 -0.972788 -0.016788 -0.396615 0.220574 0.960586 1.106532 0.013724 0.393063 0.935247 0.975420 0.703904 0.662358 -0.115907 -1.013132 -0.550190 -0.105622 0.251164 -0.006817
- 0.554590 0.993851 1.376886 -0.311233 0.834277 0.170360 -0.152050 -0.058504 0.014517 -1.273615 1.264266 -0.173439 -0.003560 0.122816 0.387040 0.384283 -0.857822 0.333574 -0.618164 -0.010242 0.583208 -0.125131 0.567993 0.509745 0.561292 -0.413528 -0.766657 -0.528059 -0.196632 0.804252 0.223285 -0.025377 0.187344 -0.352240 -0.378212 1.722184 -0.344700 -0.165044 -1.557598 1.474622 -0.200625 1.617440 0.024028 -0.324171 -0.886798 -0.290514 -0.159945 -0.620084 0.285276 0.445060
这个 0.458179 0.568820 0.311376 -0.201414 -0.319201 0.107563 -0.225079 0.865619 -0.427682 -0.934373 -0.901067 -0.121150 0.033879 -0.009627 0.948180 -1.598841 0.260041 -0.623409 0.488888 -0.179706 -0.659274 0.346840 -1.336190 0.020834 0.298839 0.226546 -0.379324 -0.312482 -0.049239 -0.062419 0.657877 1.406239 0.837459 0.126350 0.798262 0.206715 -0.197955 0.600515 0.595132 -0.590681 0.300128 -0.274546 0.671290 0.313731 0.396703 -0.259222 -0.652355 -0.288311 0.782819 1.176493
为什么 -0.099578 0.554403 0.737182 -0.321066 1.259715 0.094034 -0.416692 -0.192931 1.141447 -0.859780 -0.134510 1.095359 1.150632 -0.036407 0.323817 -0.865192 -0.004787 0.653418 0.380108 0.330709 -0.143412 -0.244166 -0.569727 -0.296480 0.862441 0.051979 0.428915 -0.684174 0.942400 -0.333958 -0.035922 0.868337 0.114919 -0.175271 0.220964 -0.084040 1.078527 -0.157104 -0.728557 0.154302 0.233175 0.844349 0.145448 -0.058060 0.539681 -0.393628 -0.971188 -0.784550 1.092090 -0.379993
可以 -0.352899 0.396015 -0.043458 0.086889 0.268545 0.216636 0.627364 0.832248 -0.258091 -0.436114 -0.305771 0.262728 0.219038 0.610174 0.138107 -0.851415 0.272575 -1.108435 0.656534 0.228905 -0.660688 0.586004 -0.898013 -0.094047 -0.445858 -0.790018 -0.422714 0.073437 -0.417490 0.382719 0.108762 0.245847 0.342171 0.814906 -0.081241 0.426764 0.053120 0.062099 -0.776589 -0.299554 1.209199 -0.064932 0.873447 0.650598 -0.065581 -0.041309 -0.066943 0.358013 1.170985 0.501608
人 0.052942 0.380274 0.905045 -0.326280 -0.101848 -0.443385 -0.351081 0.198815 0.565019 -0.462195 -1.406624 -0.407377 0.052926 0.343013 0.570558 -0.557147 -0.181131 0.227042 -0.268370 0.462459 -0.306378 -0.119421 -0.726969 -0.244226 0.188017 0.209511 -0.046811 0.519310 0.546798 -0.733849 -0.799261 0.396720 -0.277646 0.950117 0.078150 -0.502587 -0.315888 0.495005 -0.297112 -0.478726 0.443058 0.138271 1.426661 0.772188 -0.081581 -0.602513 -0.470823 -0.184521 1.601598 0.287669
要 -0.207753 0.367838 -0.272992 -0.430862 0.847379 0.614309 0.099613 -0.535387 0.878532 -0.646563 -0.301508 0.796656 0.828186 0.149858 -0.036242 -0.668791 0.152845 0.690687 0.080616 0.533486 -0.201972 -0.399927 -0.426170 -0.945597 -0.276042 0.027899 0.475919 -0.470604 0.353586 0.332201 0.572631 0.143254 0.632392 1.087415 0.345042 -0.174136 0.721390 0.111428 -0.579757 0.457710 0.729058 0.241241 -0.571707 0.728560 0.947108 -0.333541 -0.671925 -0.080564 0.948055 0.660354
如果 -0.266715 0.751437 0.463624 -0.573657 0.207129 0.174048 -0.261621 -0.061746 -0.133581 -0.978930 0.275786 0.976452 0.028953 0.024980 0.532260 -0.644981 -0.197684 -0.828861 -0.009816 0.173592 0.302347 -0.224565 0.146878 -0.363348 0.064717 -1.037979 -0.612882 -0.402548 -0.366773 0.411111 -0.928985 0.218846 -0.536232 0.820104 0.189738 0.847417 0.479545 0.635158 -1.060964 -0.111139 0.983968 0.810355 0.805672 1.115879 0.233342 -0.401803 -0.267875 0.357580 0.859433 0.034730
现在 0.556931 0.094882 0.062581 -0.277226 0.753749 0.179867 0.547819 -0.034763 0.400848 -1.313845 0.174383 0.354257 -0.347211 0.040419 0.117543 -0.257369 0.026426 -0.513958 0.491932 0.126361 0.078664 0.635109 -0.084892 -0.458387 -0.595995 -0.254493 -0.254518 -0.600606 0.097445 -0.042654 -0.069961 0.248652 0.090611 0.664382 -0.372384 0.887271 0.368191 0.501845 -0.837372 -0.031687 1.023252 0.177587 0.538018 0.578949 -0.496470 0.051302 -0.144745 0.203665 0.225930 0.972704
这里 0.100352 0.163106 0.912053 -0.879810 0.508478 0.328428 -0.143012 -0.007563 0.569999 -0.215821 -0.155141 0.145560 -0.434213 -0.027401 -0.341741 -0.431054 -0.180019 0.365900 0.477063 0.851920 0.230991 0.879777 -0.505444 -0.120826 -0.163211 -0.026148 -0.277673 0.057055 -0.211675 0.799331 -0.217873 0.256094 0.161128 0.231532 -0.676578 0.545921 0.692754 0.279907 -1.641965 -0.296111 0.945033 0.331326 -0.036355 -0.038060 -0.131371 -0.557234 0.442613 -0.117093 0.820437 0.591435
因为 0.408055 0.554747 0.137855 0.063461 1.057353 -0.306159 0.135896 0.088127 0.383656 -1.162531 -0.019129 0.715377 -0.255561 0.292083 0.312368 -0.461745 0.383622 -0.315243 0.616357 0.370432 0.006987 0.159038 -0.121997 -0.225517 -0.486847 -0.104690 0.093746 -0.393755 -0.109354 -0.522599 -0.429994 0.313575 0.098875 0.340679 -0.462272 0.920002 0.573453 0.691353 -0.804738 0.211082 0.393412 0.181621 0.286196 0.226303 -0.778614 0.072556 -0.513830 -0.434675 0.465467 0.429252
这是 -0.009362 0.029675 0.906817 -0.199644 0.392291 -0.291630 0.313945 -0.062175 -0.352753 -1.605017 -0.418901 0.348294 -0.165588 0.455806 0.482820 0.059844 0.721566 -0.359960 -1.607009 0.002831 -0.289178 -0.702056 0.713458 -0.027883 0.525467 -1.281870 -0.313486 -0.296015 0.159247 0.017293 0.498207 0.231703 -0.413057 0.596301 0.125973 -0.073133 -0.986385 -0.041438 0.267164 -0.683438 -0.137522 0.793743 0.399402 0.249332 -0.569296 -0.057711 -0.256499 -0.472000 0.736532 0.452857
罗斯 0.435743 1.147476 0.669256 0.021221 0.072753 -0.107417 0.187576 -0.139188 -0.201350 -1.117159 -0.264237 0.674901 0.013213 0.433598 0.311026 -0.058664 0.380536 0.126290 -0.290039 0.601265 -0.064293 -0.229742 0.283432 0.329257 0.315334 0.043783 -0.412160 -0.461061 0.075631 0.034055 -0.218915 0.079605 -0.481924 -0.065047 -0.490786 0.300429 0.383718 0.144202 -0.339066 0.089153 0.312545 1.482124 0.640869 0.429167 -0.474078 -0.194361 -0.235052 0.542351 0.212116 0.320390
所以 0.602953 0.400541 0.265283 -0.718332 0.676530 -0.052888 0.359832 -0.724136 -0.335723 -0.946897 -0.850119 0.421583 0.218144 0.233300 0.128359 -0.727953 0.125158 -0.174540 0.109187 0.425117 -0.371458 0.496822 0.204405 -0.123689 -0.295627 -0.553480 -1.132909 -0.261358 -0.359853 0.475130 0.384927 0.002783 0.165283 0.339415 -0.102578 0.946727 -0.163184 -0.029134 -0.670586 -0.079500 0.253505 0.039547 0.150080 0.636363 -0.423742 -0.353808 -0.049334 -0.118598 0.990867 0.735494
菲比 0.211122 1.355293 0.584575 0.088592 0.057397 -0.289959 0.202656 -0.593755 -0.088840 -1.584612 -0.524655 0.276677 -0.029200 0.196992 0.442359 0.498250 0.033342 0.369220 -0.851081 -0.070894 0.341208 -0.161825 0.300671 0.151668 0.220061 0.115031 -0.290317 -0.819293 -0.177182 0.233888 0.094859 0.344863 -0.356246 -0.194676 0.226528 0.114860 0.388282 0.242881 -0.625708 -0.028759 -0.369524 1.026095 -0.176272 0.724336 0.359493 -0.490797 -0.161251 0.618956 0.505061 0.259677
呃 0.713286 1.144592 0.719997 -0.364193 0.353425 0.187803 0.186454 -0.551727 -0.421830 -1.487309 -0.183744 0.327364 -0.095391 0.288286 -0.145182 -0.137599 0.324406 -0.255487 -0.397884 0.600824 0.176043 -0.555384 0.388296 0.664049 0.484067 -0.455295 -0.941964 -0.728951 -0.235738 0.843271 0.016655 0.363471 0.022396 -0.125361 -0.032386 0.952102 -0.137551 0.029855 -0.827337 -0.056838 -0.088352 0.897372 0.604474 0.442475 -0.051096 -0.074129 -0.086987 0.113379 1.063154 0.900736
上 1.056753 -0.020245 0.595407 -0.138062 0.495671 -0.060277 0.365653 0.109083 -0.261793 -0.432333 -1.422461 0.185609 0.260384 -0.068529 0.397038 -0.597383 0.555219 -0.694603 0.139952 1.252798 -0.661508 0.650673 -0.841456 -0.342717 -0.254109 -0.828449 0.627650 0.760015 0.168231 -0.884342 -0.101404 -0.685083 0.455471 0.637394 -0.216554 -0.007536 -1.377502 -0.476723 0.183042 0.176527 0.288448 0.206322 0.146722 -0.032833 -1.018056 0.260877 -0.751654 0.131763 0.382092 0.052205
那个 1.003265 1.042689 0.716046 -0.397840 -0.330437 -0.205519 -0.138201 0.199520 -0.393996 -0.887381 -0.884587 -0.278483 -0.071160 -0.420483 0.560589 -0.366947 -0.129884 0.276489 0.077159 -0.176436 -0.752092 -0.180787 -0.963951 0.522689 -0.028801 0.521086 -0.272268 0.313243 0.346314 -0.494536 0.118793 0.916951 0.734549 -0.125885 0.847234 -0.183912 -0.181294 0.125943 -0.115373 0.038886 -0.411408 -0.025248 0.745610 0.171928 -1.098684 -0.504633 -0.686104 -0.607503 1.086761 0.755166
看 0.402564 0.609475 0.434492 -0.168681 -0.379787 -0.289875 0.474450 -0.102907 0.207976 -0.619570 -0.350665 0.240374 -0.481508 0.521868 0.274443 -0.803685 -0.897513 0.264250 -0.056175 0.272283 -0.654111 -0.455290 -0.494515 0.179186 0.260851 0.626537 -0.643896 -0.657549 -0.004992 -0.219127 0.976858 -0.131322 0.109948 -0.135435 0.354353 0.504466 0.000128 -0.620449 -0.632720 1.065499 0.550322 1.078615 0.327911 0.040850 -0.129914 -0.028516 -0.463118 -0.272001 0.436306 1.091926
不能 0.285587 1.218005 -0.338641 -0.464074 0.763853 0.548109 0.498574 -0.208975 0.594351 -0.528712 0.051129 0.813012 0.336982 -0.386579 -0.006125 -1.002991 0.127708 -0.615368 1.065880 0.636726 0.047001 0.923719 0.080211 -0.484215 0.363561 -0.281643 0.102041 -0.210735 0.320324 -0.079422 -0.271148 0.762107 -0.577363 -0.402747 -0.626089 0.724508 1.184157 0.160587 -0.367495 -0.231550 0.768301 0.170989 0.413601 0.299382 0.403504 -0.323390 -0.415201 -0.248932 0.193190 0.208448
哇 -0.051443 0.595427 1.606250 0.018861 0.264587 0.381931 -0.109899 0.151172 0.000248 -1.068649 -0.479094 0.100913 -0.511688 0.090607 0.123189 -0.504570 -0.600172 0.186233 -0.568982 0.044759 -0.224559 -0.114493 0.161402 0.021580 0.317752 -0.090403 -0.955268 -0.518734 -0.831710 0.746726 1.277062 0.509178 -0.177415 -0.577990 0.405031 0.806384 -0.718284 -0.299287 -0.723274 0.192722 -0.524120 0.906796 -0.758647 0.034289 -0.369813 -0.460019 0.248500 -0.514474 -0.121943 0.968099
嗨 0.236513 1.458161 1.177196 -0.246485 -0.347492 -0.067336 -0.003743 0.233552 -0.340811 -1.604210 0.297653 0.073548 -0.625209 0.337958 -0.748286 0.575865 -0.798057 0.403783 -0.516287 0.608281 -0.261680 -0.558027 0.677950 0.641640 0.205062 0.309210 -0.346966 -0.519883 -0.651948 0.453578 0.524590 0.132702 -0.564440 -0.896507 0.087665 -0.079451 -0.013491 0.221720 -0.041856 0.257265 -0.140829 1.044139 -0.370681 0.879914 0.451839 -0.291340 0.154936 -0.057381 -0.062819 -0.236379
个 -1.163375 0.214050 0.378715 0.296779 0.484287 -0.622813 1.061917 -0.090564 0.453118 -0.839615 -1.050448 -0.137014 -0.056694 0.423243 0.284078 0.381532 1.049172 -0.344659 -0.614626 0.305717 0.447807 -0.386549 -0.337103 -0.653890 -1.016359 0.225683 0.899075 0.047258 0.121710 -0.844400 -0.048339 0.385020 -0.147281 -0.741007 0.844766 -0.621295 -0.950774 0.511158 -0.098567 -0.513624 -0.086441 0.639963 -0.299484 0.380837 -0.039176 0.087120 -0.396914 0.941423 -0.182461 1.142961
不会 -0.376527 0.866110 0.157782 0.329642 0.212970 -0.127202 0.533942 0.077889 0.220043 -0.409853 -0.484868 0.130496 0.422402 -0.357325 0.388547 -0.391493 0.053143 0.410343 0.517093 -0.419935 -0.651734 0.864876 -0.098006 0.160448 0.137662 -0.343980 -0.662788 -0.885451 -0.022499 0.131773 -0.314858 0.139633 0.144213 0.414527 -0.522498 0.647935 1.309095 0.602599 -0.624192 -0.360651 0.810289 0.018500 0.405519 1.208371 0.338164 -0.666480 -0.121610 1.307217 0.088309 -0.085286
得 0.661591 -0.281814 -0.557782 -0.388527 -0.088136 0.442506 -0.687006 -0.093253 0.432744 -0.575025 -0.375958 1.119306 0.026600 0.315598 -0.997145 -0.214429 -0.549891 -0.384440 1.150291 0.518278 0.131375 0.312533 0.194926 -0.107381 -0.367995 0.390568 -0.425305 -0.359602 -0.508003 -0.085241 0.549652 0.283026 -0.667781 0.781144 0.073906 0.270286 0.179569 1.034027 0.143075 0.755821 0.674749 -0.009100 -0.274586 0.526949 0.414077 -0.484689 0.246996 0.468050 0.466410 1.591369
怎么 -0.242455 0.530621 0.998308 -0.329806 -0.027985 0.909319 -0.766520 -0.021858 0.603490 -0.634061 -0.058958 1.309184 0.501076 -1.236455 0.414907 -0.582852 -0.053906 0.998001 0.130506 0.256570 0.092876 0.337841 0.135254 0.300983 1.064736 -0.813994 -0.233765 -0.181544 0.861280 0.339315 0.137256 0.500160 -0.109567 -0.220510 0.626531 0.586972 0.846549 0.305098 -0.967315 -0.389717 0.273654 0.364166 -0.356529 0.124933 -0.300920 -0.951841 -0.423942 0.088426 -0.435860 -0.221954
乔伊 0.458363 0.678037 0.690910 0.047387 0.379261 -0.026225 0.320559 -0.148719 -0.091539 -1.094508 -0.371721 0.490366 0.067222 0.214196 -0.026652 0.285886 -0.022584 0.437461 -0.943773 0.388263 0.087821 -0.321368 0.670606 0.107339 0.355709 0.554270 -0.017053 -1.002605 -0.398761 -0.087492 0.086085 -0.007154 -0.541153 0.003988 -0.224891 -0.110036 0.250554 0.596657 0.014419 0.164336 0.830519 1.357035 -0.156266 0.690150 -0.225282 -0.412387 -0.316508 0.477631 -0.162291 -0.054893
能 -0.268392 0.688758 0.496122 -0.502501 0.527391 1.458207 -0.505665 0.184446 -0.013016 -0.661862 0.530387 1.372833 0.181945 -0.731477 0.415784 -0.949481 0.152402 -0.071290 0.808212 1.070580 -0.117907 0.644330 -0.217377 0.124880 0.630345 -0.580763 -0.510986 -0.227511 0.821939 0.166687 -0.481694 0.937918 -0.099343 -0.020853 0.135989 0.527988 1.040788 0.348015 -0.245482 -0.343250 0.299881 0.733529 0.325425 0.468178 0.064470 -0.315475 0.465376 0.692581 -0.054966 0.088885
东西 -0.790761 -0.119000 0.347664 0.425394 -0.056905 0.210353 -0.245327 0.114657 0.676140 -0.072300 -1.063700 0.231617 -0.208255 0.261506 0.586516 -0.620065 0.929907 0.918120 0.560075 0.574794 -0.952868 -0.026612 -1.128281 -0.146734 -0.583564 -0.454271 -0.104282 -0.201121 0.352367 0.121828 0.405180 0.590763 0.123776 0.363529 -0.949994 0.136696 0.198411 -0.628092 -0.561040 -0.547732 0.700960 0.582851 0.499305 -0.494673 -0.580982 -0.298312 -0.742552 1.024646 -0.073273 0.629882
· 0.220083 1.281559 -0.576243 0.005605 0.449140 -0.816752 1.103032 -0.457349 -0.548668 -0.502213 0.300932 -0.361719 -0.240158 0.800514 0.189514 1.082057 0.794799 0.375058 -1.440397 -0.206913 0.109610 -0.821482 1.071537 0.059555 -0.083617 0.686598 0.891128 -0.893966 -0.357824 -0.053639 0.052826 -0.168830 -0.135251 -0.399107 -0.042656 -0.510288 0.126479 0.805220 0.525571 0.064125 0.489896 1.255685 -0.073458 0.476204 0.400093 0.014559 -0.046641 0.752131 -0.116864 0.152957
也 -0.430912 0.020674 0.495156 0.063415 0.988012 -0.690993 -0.112481 -0.020670 0.803084 -1.096725 -0.570465 0.120625 -0.267526 0.420317 -0.158868 0.401675 -0.604963 -0.139309 0.353482 -0.192840 0.421021 0.705328 0.187578 -0.012066 -0.783041 -0.490460 0.139996 0.177994 -0.251774 -0.387498 -0.185039 0.230449 -0.342953 -0.066279 -0.095428 0.577002 0.345589 0.884164 -0.833345 -0.068770 0.015474 -0.386182 0.049610 0.480409 0.086518 -0.409235 -0.062604 -0.244374 0.501761 0.140305
谢谢 0.459629 1.227347 0.803985 0.313089 0.400446 -0.498926 0.191226 -0.486014 0.087430 -1.082851 -0.239275 0.292319 -0.372619 0.774153 -0.139368 0.366275 -1.019949 -0.198101 0.750274 0.183351 -0.189257 -0.100275 0.957287 0.784471 -0.289763 -0.191497 -0.523173 -0.610190 -0.416049 0.051877 0.855806 0.620936 -0.923842 -1.011496 -0.482750 0.363844 -0.054053 -0.163949 0.203467 0.552251 -0.288566 0.694695 -0.029707 0.581954 0.363491 -0.283140 -0.216943 -0.299138 -0.097652 0.288430
时候 0.556449 0.577897 0.224621 -0.760901 0.499701 0.262218 0.467162 -0.649345 0.176044 -0.048142 -0.863592 0.620796 -0.073890 -0.809093 -0.114746 -0.052563 0.746731 0.817351 -0.075460 0.518282 -0.279409 0.454224 -0.303450 -0.120544 -0.016230 -0.665695 -0.475769 0.322945 0.151123 0.259840 0.486393 0.028469 0.328919 0.991812 -0.450043 -0.036508 0.723949 0.066089 -1.158184 -0.872790 0.384311 -0.046213 0.083544 0.128835 -0.530402 -0.840933 -0.497929 0.407367 0.626705 0.509204
瑞秋 0.817603 1.317238 0.444635 -0.320618 -0.005529 0.074427 -0.168614 -0.341040 -0.196024 -1.303525 -0.108651 0.398718 0.300019 0.185657 0.005184 0.373230 -0.050263 0.548633 -0.334032 0.794757 -0.306067 -0.342414 0.295746 0.240920 0.082454 0.029493 -0.031119 -0.790428 0.017594 0.157246 -0.296827 0.228048 -0.365341 0.074790 -0.319274 -0.093699 0.375289 0.242316 0.051264 -0.136618 0.216165 0.994483 0.259319 0.388385 0.343169 -0.326173 -0.452182 -0.061439 0.915189 -0.323868
一起 0.569566 1.126118 -0.239788 -0.811311 -0.149405 0.060962 -0.212453 1.049754 0.230892 -0.357072 0.254437 0.090041 0.278756 -0.253518 -0.534354 0.559598 0.340570 0.129708 0.682789 0.776585 -0.500478 -0.522967 -0.786820 -0.294837 -0.777339 0.413005 0.649506 -0.036877 -0.240026 0.301064 0.243277 -0.453329 0.701649 1.310905 -0.077065 -0.144223 0.355706 0.348019 -1.134946 1.031880 0.145909 0.494003 0.479772 0.532237 0.503833 -0.328535 -0.472659 0.242460 1.250533 0.492050
喜欢 -0.667832 0.502110 0.392667 0.346891 0.573947 -0.575178 0.173247 0.236662 0.509124 -1.123544 -0.925261 -0.102801 -0.071143 -0.013512 0.840580 -0.020816 0.242594 0.059298 0.158318 -0.400965 -0.780870 0.126477 -0.913019 0.592207 -0.491597 -0.581957 0.489342 0.591446 0.216381 -0.634044 0.007200 0.570577 0.260382 0.254887 0.488199 0.041406 0.088479 0.839630 -0.812947 -0.079750 -0.358459 -0.065744 0.085109 0.598078 -0.303523 -0.703302 -0.130358 0.361337 1.149443 0.447468
天 -0.010124 1.151545 0.677967 -0.221413 -0.150758 -0.153263 0.123784 -0.073543 0.016027 -0.817886 -0.241518 0.217015 -0.703869 0.093731 -0.297519 0.114498 -0.769137 0.782043 -0.300229 0.372811 -0.299081 -0.389991 0.273918 0.354336 0.484966 0.134025 0.453068 -0.138479 -0.596283 0.591581 1.790964 0.065014 -0.091364 -0.673391 0.792297 0.954111 -0.018750 -0.415937 -0.745678 0.645796 1.100291 1.235548 -0.520753 0.172850 -0.328518 -0.550866 -0.460067 -0.291574 0.554579 1.070860
应该 -0.272430 -0.339350 0.436426 -0.249948 1.398911 0.175363 0.847151 0.519723 0.662299 -0.687267 0.662106 0.305054 0.249718 0.050504 -0.129057 0.112550 0.296781 -0.056769 0.404979 0.214874 -0.030050 -0.260691 -0.526546 0.143417 0.051789 -0.700900 0.018638 -0.636146 0.289160 -0.135584 0.133032 -0.544896 0.375124 1.265504 -0.495850 0.575127 0.430776 -0.149810 -0.974316 0.541665 0.810806 0.613286 0.710863 0.603745 0.082511 0.441614 0.208138 0.466495 0.513070 -0.164962
事 -0.347628 -0.347119 0.468380 -1.109769 0.276117 0.289560 -0.418846 -0.535448 0.692002 -0.363448 -0.239120 0.024502 -0.859051 -0.729317 0.217653 -0.472121 1.115135 0.848488 0.219829 -0.351797 -0.242185 -0.347072 0.258870 0.177196 0.432835 -0.116005 -1.150489 -0.339998 -0.213662 0.348987 0.510044 0.589198 -0.812701 0.642525 -0.526832 0.042629 0.320836 0.838191 -0.676275 -0.131486 0.739871 0.068261 0.760144 0.206231 -0.703482 -1.232576 -0.508450 0.997316 -1.293177 0.357171
还 0.678062 0.121523 1.047391 -1.307262 0.344467 0.592830 -0.588126 -0.071126 -0.050528 -0.949329 0.241369 0.625034 -0.142775 -0.603301 0.174698 -0.136925 -0.202649 0.612814 0.945020 1.121644 -0.185932 0.679921 -0.701205 0.269883 -0.177480 -0.042189 -0.528026 -0.223469 0.023811 -0.418410 -0.569575 0.352618 0.151937 0.028949 -0.011975 0.304761 0.212823 0.752572 -0.170437 0.032639 0.100255 -0.073848 0.033093 0.175396 -0.465167 -0.520795 -0.404062 -0.526931 -0.022124 -0.490681
像 -0.543006 1.019107 0.589034 1.107008 0.860459 0.095083 0.729122 0.581378 0.427335 -0.509406 -1.184850 -0.457453 -0.240187 -0.116130 0.416447 -0.527492 0.273010 -0.653734 0.239864 0.154493 0.298768 0.258391 -0.592438 -0.359268 0.237987 0.623013 1.354052 0.083387 -0.241516 -0.081424 -1.117164 0.609191 -0.097297 -1.067800 0.341797 -0.297580 0.317339 0.671274 -0.925808 -0.760167 -0.019480 0.114524 0.162723 0.330637 0.679287 -0.221079 0.910327 0.351120 0.597020 0.960564
对不起 0.523878 0.575861 0.909452 0.329042 0.607529 0.074619 -0.052956 -0.403788 -0.024030 -1.582951 -0.021956 0.248987 -0.699824 0.270587 -0.220059 0.113093 -0.185089 0.293717 0.077898 -0.058670 0.108597 0.008569 0.247569 0.281125 0.411100 -0.446790 -0.401536 -1.243851 -0.535107 0.341666 0.782207 0.434533 -0.115976 -0.156313 -0.242200 0.974722 -0.019433 -0.065689 -0.467848 -0.191736 -0.404785 0.292411 -0.461506 -0.110472 0.328559 -0.104859 0.004745 -0.018445 0.342104 0.696034
就是 -0.461366 0.859630 -0.270444 0.085354 0.084404 -0.571215 -0.294663 0.148542 0.753714 -1.346772 -0.140453 0.337564 -0.026408 0.349364 0.067483 -1.359910 0.857453 0.122879 -0.006559 -0.410625 -0.605798 -0.472556 -0.651605 -0.482221 0.032192 0.490495 0.626164 -0.216992 -0.040730 -0.270414 0.950532 0.877771 -0.081396 -0.940963 0.467026 0.230983 0.832246 0.275696 -0.536326 -0.369221 0.826648 -0.242255 0.305596 -0.318095 -0.419294 -0.418686 -1.530352 -0.933476 0.232122 0.223022
里 0.246972 0.084307 0.586644 -0.219704 0.228316 -0.471374 0.455704 0.013515 0.222677 0.608967 -1.332728 -0.558990 -0.635745 -0.184802 0.256895 -0.534955 0.428177 -0.395897 -0.192803 -0.060748 -0.134332 0.452672 -1.168444 -0.198462 0.372278 0.072626 0.209474 0.599243 -0.177884 -0.225116 0.372368 -0.783409 0.619786 -0.329440 -0.368932 0.126237 -0.520837 -0.630666 -0.775587 0.078747 0.179396 0.141056 0.644232 -0.666100 -0.293086 0.098162 -0.648209 0.583030 0.172866 0.616626
意思 -0.373927 0.370142 0.415425 -0.004455 0.493049 -0.165177 -0.181634 -0.267553 0.188702 -1.228174 -0.429901 0.668777 -0.219567 0.081528 0.357894 0.086816 0.352081 0.004465 -0.692406 -0.145922 0.305569 -0.280622 0.028130 0.120709 0.425775 -1.245315 -0.119039 -0.290572 -0.228893 0.108221 0.122096 0.347825 -0.092961 0.483315 0.157520 0.666530 0.258731 0.312500 -0.557046 -0.731780 0.312358 0.313376 0.512086 0.166696 -0.167278 -0.485138 -0.538191 -0.000125 1.181664 0.594479
莫妮卡 0.782674 1.187538 0.105989 -0.558670 0.040978 0.083466 0.494572 -0.341266 -0.272449 -0.907839 -0.254529 0.527961 -0.043652 0.069775 0.114776 0.555151 -0.016753 0.660052 -0.121906 0.603379 -0.437797 0.364424 0.417280 0.682496 0.072257 -0.336048 -0.227762 -0.258729 -0.118292 0.182732 0.412382 0.170380 -0.251496 0.221016 -0.015232 0.143418 0.090565 0.659525 -0.046098 0.254033 0.442723 0.664409 -0.179103 0.744178 0.035392 -0.590672 -0.437543 0.269323 0.246427 0.093624
这样 -0.807591 0.869713 -0.102408 -0.040569 0.449535 -0.166820 0.462619 0.620017 0.847816 -0.297962 -0.242761 0.374856 0.160869 -0.022605 0.118959 -1.431589 0.261435 -0.889489 0.457470 -0.080414 -0.429598 0.606693 -0.213295 -0.530783 0.140032 -0.034716 0.086091 0.215816 -0.215224 0.581251 0.232290 1.311176 -0.089150 -0.512923 0.178179 0.520759 0.852145 1.088724 -0.901315 -0.449419 1.209034 -0.132134 0.111915 0.546398 0.515305 -0.584397 -0.132392 -0.339228 0.263100 0.588441
这么 -0.795384 -0.072639 -0.020428 -0.100263 0.597127 -0.296937 -0.231836 -0.283445 1.704353 -0.534056 -0.420688 0.695415 0.734366 -0.399440 -0.282638 -0.374999 -0.277551 -0.119445 0.253159 0.229162 0.254781 0.614828 -0.190096 -0.436717 0.700829 -0.364080 0.009776 0.111070 0.355568 -0.508055 -0.143567 0.411393 -0.694123 -0.215494 0.101407 0.295085 0.992608 1.175146 -0.814542 0.013168 0.824367 -0.122203 -0.193798 0.303716 0.838733 -0.947067 -0.284647 -0.337433 0.302451 0.257874
你们 -0.607963 0.825315 0.880557 -0.108074 -0.623641 0.446457 -0.954091 0.851760 0.243293 -0.873169 0.182273 0.596888 0.219453 -0.628406 -0.303122 0.308216 -0.165237 -0.085898 -0.313370 0.770342 -0.005985 -0.301826 -0.227506 -0.622957 -0.023260 -0.880388 0.370279 -0.368818 -0.199135 0.055669 -0.291636 -0.438835 -0.330399 0.588536 0.119414 0.401928 0.160214 0.463357 -0.564754 -0.638235 0.493431 0.429810 0.291529 0.609379 0.333812 -0.340709 -0.560319 0.161276 0.609497 -0.519470
我会 0.348852 0.623376 -0.401382 -0.629158 -0.427842 -0.417645 0.052225 -0.252255 0.161592 -0.220316 0.460364 0.436686 0.187563 0.354385 -0.242120 -0.160637 -0.690543 -0.601293 1.452432 0.815021 -0.050604 0.676680 -0.375072 0.903570 0.073747 -0.013491 -1.236696 0.182317 0.183559 -0.212410 -0.172656 0.338472 -0.310723 -0.261530 -0.556580 0.729187 0.068714 0.279608 -0.239151 1.042575 0.240787 0.537729 0.743288 -0.038234 0.316292 -0.199589 -0.200196 0.115812 0.240531 0.808441
可能 -0.665455 -0.034442 0.635647 -0.069973 0.881068 -0.530021 0.333042 -0.112118 0.725963 -0.893024 -0.108588 0.082220 0.288238 -0.311479 0.764252 0.125049 0.244036 0.319216 0.026602 -0.200292 0.305601 0.275111 -0.053404 0.195366 -0.310132 -0.586402 -0.806269 -0.311178 0.315778 -0.587468 -0.698853 0.132983 -0.319802 0.224337 -0.105458 0.579552 0.281573 0.595524 -1.157709 -0.221415 -0.069466 0.231956 0.292835 0.165044 -0.650086 -0.546215 -0.147617 0.302347 0.213312 0.124962
需要 -0.623825 -0.465239 0.628940 -0.051592 0.611493 -0.337053 0.111941 0.373898 0.022213 -0.898391 0.780204 0.288409 -0.222507 0.719982 0.105763 0.031328 0.425212 -0.255850 0.331087 0.180432 -0.184811 -0.087642 -0.837886 0.077891 -0.131349 -0.113234 -0.544723 -0.951661 0.264925 -0.360860 -0.007901 0.478803 0.259462 0.470037 -0.390777 -0.475186 -0.023182 0.208586 -0.066011 -0.003400 0.006862 0.522371 0.957122 0.004132 0.071276 0.331742 0.287204 0.202243 0.445505 0.204114
觉得 -0.103572 0.036964 0.255612 -0.074165 0.304981 -0.315651 -0.157235 -0.591712 -0.118405 -1.367495 -0.835593 1.334383 -0.080176 0.246018 0.395696 -0.060242 0.165227 -0.050287 0.215401 -0.642701 0.599062 0.578392 -0.127407 -0.289989 -0.237720 -0.196108 -0.192055 -0.714513 0.422930 -0.375651 -0.075586 0.729321 0.084475 -0.057668 0.778536 0.026757 0.662105 0.666674 -0.625279 -0.235706 -0.971150 -0.051096 -0.545576 0.601593 0.004256 -0.048894 0.014403 0.748894 0.169258 0.431525
那么 -0.038572 0.219318 1.030686 0.278799 0.004485 -0.371629 -0.724885 0.070590 0.360332 -0.717856 -0.746011 0.312237 -0.265499 0.188359 0.091402 -0.226285 0.267234 -0.601729 0.138229 -0.171558 0.409934 -0.396423 0.582001 -0.112353 0.274137 -0.184730 -0.143911 -0.354493 -0.147705 -0.336031 -0.435240 0.391625 -0.585800 -0.277905 0.153698 0.017316 -0.379826 0.759263 -0.109788 -0.419616 -0.789917 -0.021002 0.417874 0.660532 0.397458 -0.148130 -0.138918 -0.131404 -0.126111 0.800554
但是 1.068959 1.145773 0.623405 -0.415196 0.719642 0.024889 0.088290 -0.982764 -0.251448 -1.071584 -0.265714 0.213444 -0.306611 -0.003860 -0.005504 0.347566 -0.064049 -0.123618 0.119817 0.494077 -0.235763 -0.288409 0.490850 0.623341 -0.186570 -0.426211 -1.100396 -0.438500 -0.426916 0.234608 0.356377 0.168653 -0.327599 -0.111890 -0.233350 0.777574 -0.223146 -0.024888 -0.366095 0.291651 -0.780862 0.277535 0.454863 0.638672 -0.119802 -0.559535 0.055455 -0.143752 0.554340 0.503935
呢 -0.236305 0.073983 0.716998 -0.351489 0.598245 -0.017765 -0.560983 -0.188696 0.095285 -0.623533 -0.398094 1.173406 0.325649 -0.283805 0.407842 -0.331695 0.239407 0.481333 0.124659 -0.046967 0.320428 0.154371 -0.280553 -0.224045 0.900822 -0.091936 0.661312 -0.834187 0.706900 -0.230039 0.049365 0.501296 0.616966 -0.350359 0.727427 0.003168 0.855373 -0.150871 -0.210585 0.016491 -0.470466 0.422558 -0.057165 0.204796 0.015455 -0.048291 0.053769 -0.021575 0.432851 -0.170863
走 0.402304 -0.696868 -0.286924 0.208411 -0.032793 1.036845 -0.147924 0.749645 0.188732 -0.724323 0.084227 0.858080 0.687061 0.195052 -1.304675 -0.719111 -0.484458 -0.889995 0.209244 0.360216 0.104114 0.715175 0.278772 -0.465865 0.394847 -0.192308 -0.881663 -0.511465 -0.375515 0.625491 0.868068 -0.027767 -0.242692 0.789040 -0.327650 0.535780 -0.018350 0.250232 0.317604 -0.177024 1.009480 0.048099 -0.459031 0.524232 0.097948 0.126898 0.218064 0.253925 0.080403 1.057936
认为 -0.578873 -0.002667 0.234209 0.253788 0.835722 -0.551649 -0.216014 -0.063760 0.703259 -1.205879 -0.081897 0.312109 0.158950 -0.095348 0.290458 0.083792 0.381832 0.063113 0.032511 -0.587298 0.301456 0.135723 -0.309255 -0.141480 0.176073 -0.419192 0.173145 -0.674856 0.493921 -0.426418 -0.181860 0.113784 -0.162883 -0.071710 0.005845 0.179986 0.692497 0.706351 -0.639501 -0.089072 -0.150751 0.157584 0.495534 0.241191 0.283525 -0.565537 -0.118871 0.128456 0.625795 0.142967
也许 -0.678619 -0.087586 0.239166 -0.446244 0.671274 -0.377476 0.377649 0.067265 0.184269 -1.359378 0.625189 0.624932 0.667622 0.531280 -0.740137 0.248894 0.503552 -0.307926 0.001550 0.413733 -0.111849 -0.124566 0.156275 0.800918 0.038373 -0.579425 -0.934940 -0.496936 -0.054865 0.123156 0.197618 -0.109322 0.274972 0.011571 -0.347261 0.814234 0.238543 0.278514 -0.501994 0.243483 0.678065 0.650824 0.875829 0.766667 0.082990 0.030266 0.194063 0.558372 0.674045 0.137541
我要 0.989536 0.577740 -0.689769 -0.088818 0.181287 0.135385 0.540802 -0.034112 0.696332 -0.485885 -0.007830 0.448631 0.640587 0.297553 -0.569644 -0.367921 -0.771606 -0.131503 0.814017 0.657086 -0.049124 0.270377 0.373828 -0.517920 -0.242348 0.438219 0.008178 -0.257158 0.230291 -0.188178 0.336928 -0.003805 -0.225502 0.203817 -0.314971 0.564268 0.443441 0.228935 0.209187 0.966153 1.126093 0.530135 -0.235009 0.628495 -0.019129 0.231557 -0.642139 -0.401000 0.030580 1.218614
过 0.661867 0.436716 0.008808 -0.612386 0.233960 0.485497 -0.358007 -0.715605 -0.039519 0.016217 -0.289182 0.351525 -0.187569 -0.228674 0.038846 -0.491015 -0.378727 0.208721 0.838868 1.331065 -0.107543 0.723345 -0.237631 -0.147578 -0.016486 -0.638903 -0.350549 0.254982 0.319276 -0.516089 -0.686343 -0.020909 -0.148207 0.284844 -0.272127 0.065817 0.191604 0.406221 0.445264 -0.138037 0.756981 -0.159098 0.519740 0.356056 0.198757 -0.370343 -0.160020 -0.004172 0.381737 0.381636
到 -0.126212 -0.264873 0.195462 0.148023 0.485866 1.112151 -0.247296 0.011454 -0.073364 0.344324 0.103848 0.441740 0.303185 -0.221028 -0.270050 -0.277145 -0.084811 0.021662 0.673563 0.976564 0.237723 0.495581 -0.420784 -0.883913 -0.609923 -1.193220 -0.008575 0.113009 -0.163758 0.525439 -0.493749 0.017421 0.237939 0.913716 -0.490815 0.555706 0.132661 -0.565105 -0.758183 -0.671296 0.311434 -0.376129 -0.356635 -0.701125 -0.253839 0.087284 -0.069108 -0.613980 0.816820 0.884007
谁 -0.749022 0.436060 0.791706 -0.347032 0.437226 0.265983 -0.338314 0.029884 -0.352998 -0.552792 -0.140612 1.015554 0.375004 -0.133123 0.375315 -0.261706 0.572829 0.200711 -0.281442 0.427983 0.124779 -0.185409 0.288175 -0.203842 0.486507 -0.737264 0.406419 -0.094669 0.643249 -0.067547 -0.223303 0.167741 0.161184 -0.103267 0.597354 0.234668 0.083128 0.446541 -0.304434 -0.292133 0.189332 0.755115 0.071925 0.547303 -0.366774 -0.147542 -0.180856 0.591670 0.048924 0.188613
看看 -0.007284 0.281859 -0.394026 -0.593856 -0.226057 0.547711 0.584299 -0.265183 -0.458885 -0.727239 -0.025853 0.012804 0.376915 0.063443 0.421375 -0.744065 0.060653 0.297011 0.384612 0.049245 -0.452571 0.320869 -0.547399 0.620791 0.351468 0.198167 -1.341261 -0.674075 -0.262353 0.249990 0.963614 0.706997 0.422062 0.489638 0.330733 0.613391 0.128572 0.433999 0.276489 -0.050615 0.864416 0.132803 0.298644 0.381603 0.320364 -0.212871 -0.039755 0.362815 0.353845 0.542353
上帝 0.739267 0.735174 0.642388 -0.103798 0.505903 -0.282654 0.051192 -0.310875 0.279258 -0.805242 -0.146204 -0.149408 -0.921231 0.348405 -0.151758 0.305382 -0.380671 -0.101688 -0.022425 -0.008037 0.123822 0.018677 0.162847 0.693116 0.519191 -0.024922 0.162633 -0.413534 -0.572502 0.295593 1.047822 0.938055 -0.092775 -1.019989 -0.233020 0.972433 -0.331420 0.005307 -0.358920 0.301963 0.486386 0.596083 -0.126168 -0.230699 -0.148034 -0.157757 -0.568240 -0.309926 0.223620 0.794252
没 -0.102808 -0.078201 1.298911 -0.862356 -0.156484 0.018296 -0.738865 -0.545432 0.339833 -0.189260 -0.533574 0.113351 -0.243235 -0.366356 0.093746 -0.075384 -0.399075 0.439856 0.087502 1.111131 -0.010281 -0.368998 -0.052028 -0.024297 0.275162 -0.406045 -0.470798 0.098375 -0.317382 -0.690879 -0.701928 0.385471 -0.827278 -0.071714 0.330282 0.058493 -0.625098 0.453686 -0.017178 -0.719347 0.144316 -0.187037 0.505521 0.450698 0.133380 -0.690195 0.019049 -0.586562 0.517070 0.070333
看到 0.485013 0.764726 0.354433 -0.787912 -0.296405 -0.040302 0.107707 0.173695 -0.356613 -0.012829 -0.241014 -0.087973 -0.692992 -0.376580 0.151310 0.286285 0.145582 -0.132430 0.981664 0.538747 -0.677309 0.447669 -0.744846 0.390933 -0.370137 -0.172504 0.129429 0.218047 -0.442706 -0.081050 -0.092534 0.222334 0.259048 0.348750 0.353817 0.008925 -0.257980 0.540125 -0.406782 0.020566 0.533606 -0.295137 0.440764 0.637105 -0.098614 -0.391836 -0.008324 0.269792 0.518546 0.263579
孩子 0.000316 0.453815 0.365420 -0.051330 -0.168949 0.324728 0.619276 -0.159786 0.181685 -0.506443 -0.475958 0.151436 0.417913 -0.572774 -0.044955 0.457812 -0.088562 -0.358232 -0.494542 0.214156 0.477064 0.141520 -0.093729 0.140088 -0.263659 -0.568617 -0.401699 -0.050053 -0.257711 0.137071 -0.059271 0.231584 0.130746 0.622407 0.524619 0.260136 -0.382539 -0.189046 -0.794961 -0.702716 -0.102847 -0.006598 -0.171360 -0.001081 0.263866 -0.136508 -0.372154 0.226896 0.926350 0.418551
朋友 0.191892 0.898214 -0.245503 -0.583361 -0.471261 -0.436563 0.052492 -0.029367 -0.055875 -0.548771 -0.344502 0.268534 0.163660 0.064299 0.581126 0.362708 0.498337 -0.556268 -0.462613 -0.319387 -0.165705 0.039444 -0.345718 0.000696 -0.009506 -0.266156 0.248717 0.204327 0.144602 0.118597 0.202327 0.379185 -0.008015 0.219496 0.133007 -0.321165 0.085644 0.609922 0.033803 0.056557 0.050815 0.418945 0.637077 0.555949 0.395338 -0.356092 -0.581275 0.593036 0.576626 0.121581
那里 0.960833 0.349185 0.190975 -0.321100 -0.000538 0.141757 0.721335 0.094955 0.087187 -0.085927 -0.429602 -0.112119 -0.253557 -0.071795 0.407160 -0.264012 -0.275890 0.150571 0.379194 0.439224 -0.218672 0.544365 -0.500114 0.252774 0.280647 0.003152 -0.511518 0.308324 0.355758 0.274536 0.065819 -0.012384 0.367828 0.449781 -0.474638 0.401595 0.207083 -0.388795 -0.650394 0.411772 0.398363 0.493655 0.597130 -0.076510 -0.584329 0.099767 0.291342 0.263352 0.403602 1.022078
" -0.231263 0.832222 0.671904 0.376671 0.327704 -0.119743 -0.358308 -0.506092 -0.468894 -0.448909 -0.342954 0.224837 -0.683847 0.145974 -0.338759 0.780637 -0.646963 0.185479 -0.003700 0.269034 0.677678 -0.348323 0.582243 0.068744 0.171584 0.875836 0.447868 -0.724129 -0.888519 -0.250196 -0.505838 0.260795 -0.481748 -1.312479 0.645616 -0.409424 -0.058837 0.414229 0.694137 0.026652 -0.610139 0.712328 -0.534036 0.291509 0.685918 -0.397096 0.959495 0.480299 -0.118875 0.686617
当 0.148966 1.041697 -0.615423 -0.521047 0.139474 -0.109676 0.533025 -0.692023 -0.166286 -0.223515 -0.536351 0.641488 -0.273214 -0.513781 0.107398 0.279986 0.404682 -0.101640 -0.068911 0.248946 -0.255394 0.120000 0.041204 0.298238 -0.039912 -1.089116 -0.506860 0.551266 0.024294 0.042974 0.225533 0.351277 -0.050409 1.062268 -0.392198 0.451949 0.673756 0.210174 -0.647729 -0.549318 -0.032391 -0.347552 0.588172 0.303732 -0.066540 -0.629272 -0.236912 0.452878 0.842172 0.179676
当然 -0.136627 0.744843 0.786049 0.006437 0.521549 -0.458716 0.090591 0.026809 0.023057 -1.118360 -0.013724 0.018034 -0.134100 0.437675 -0.124885 0.434162 -0.448540 -0.089817 -0.335105 -0.348853 0.029535 0.144568 0.480298 0.470364 -0.023414 -0.637395 -0.186717 -0.158370 -0.551049 0.482875 0.290622 0.146033 0.216867 -0.476352 0.015239 0.779944 0.100044 0.254442 -0.649297 0.154286 0.074228 0.425012 0.016411 0.608547 0.261563 -0.421844 -0.070645 -0.096460 0.821547 0.006451
问题 -1.015937 -0.140498 0.972934 -0.646645 0.150128 -0.084385 -0.081816 -0.047838 0.475082 -0.505700 -0.772548 -0.323947 -0.730161 0.052332 0.690292 -0.400659 0.290309 -0.362616 -0.116506 0.327786 -0.205834 -0.522709 -0.110122 -0.600880 -0.134839 -0.517079 -0.097974 0.139930 -0.525853 -0.090368 -0.110789 1.114655 -0.416230 0.458042 0.408711 -0.208044 -1.171992 0.651306 0.323311 -0.844399 0.643001 -0.063535 0.392390 0.423604 0.451386 -0.429287 -0.347867 -0.160994 0.235669 0.796454
伙计 0.261122 0.968513 1.224960 0.052597 -0.645594 0.147910 -0.421184 0.274926 0.253043 -1.189790 -0.404855 0.430052 -0.378609 -0.178181 -0.733821 0.043270 -0.511818 0.394365 -0.278885 0.506509 0.154278 -0.417089 0.967885 -0.032315 0.125575 0.222668 -0.581089 -1.293638 -0.639243 0.443783 0.714369 0.105998 -0.731027 -0.215694 0.113947 0.296444 0.228807 -0.087206 -0.488019 -0.647546 -0.282254 0.615213 -0.478126 0.251794 0.984166 -0.447212 -0.395152 -0.365234 -0.072117 0.167202
亲爱 0.460323 1.006234 0.732047 0.057974 -0.220452 -0.265323 -0.461517 0.085616 -0.231995 -1.139924 -0.070066 0.373930 -0.461954 0.481375 -0.501808 -0.243122 -0.342965 -0.145620 0.127530 0.282878 -0.004152 -0.318504 0.389241 0.493022 0.142851 0.001313 -0.761123 -0.551527 -0.266305 0.483620 0.720206 0.321887 -0.395102 -0.432423 -0.131151 0.396186 0.153788 -0.237613 -0.323084 0.261319 -0.311476 0.702364 0.395977 0.347728 0.184348 -0.355317 -0.265051 -0.325735 0.547963 0.723641
太 0.247885 -0.008452 0.556233 1.560112 0.273560 0.133256 -0.497425 0.608167 0.665109 -0.388312 -0.191370 0.305304 -0.181566 -0.367740 0.054568 0.297870 -0.441541 -0.461168 0.595492 -0.701804 0.409361 -0.118134 0.776507 -0.151013 -0.262120 -0.364726 0.368734 -0.598136 -0.255958 -0.490301 0.158105 0.290084 -0.616977 -0.093306 -0.173833 0.715767 -0.719251 0.635242 0.104270 0.374098 -0.924642 -0.042837 -1.218563 -0.113380 -0.311623 -0.118457 -0.442346 -0.284899 -0.863682 0.961921
这些 -0.545779 0.030267 0.688887 0.246847 -0.297189 0.238859 -0.638302 0.508699 0.349591 -0.395749 -0.926484 -0.036677 -0.084211 0.096887 0.442464 -0.980110 0.492900 0.500319 -0.006588 0.365239 -0.835297 -0.241274 -0.965051 -0.098619 0.226387 -0.311943 0.235630 0.182363 0.386043 0.020391 0.380676 0.602112 0.193467 -0.104193 -0.049068 -0.142429 -0.009050 -0.353632 -0.183745 -0.796033 0.755377 0.180111 0.793136 -0.107516 -0.461355 -0.183613 -0.962345 0.258118 0.313641 0.174457
一些 -0.026121 -0.382561 0.058537 -0.009771 0.073320 -0.037129 -0.129405 -0.051355 0.462043 0.290772 -0.384330 0.132146 -0.040445 0.278073 0.783574 -0.160835 0.469372 -0.232180 0.720816 -0.056609 -0.586288 0.024294 -0.872266 -0.217426 -0.365778 -0.438692 -0.517289 -0.151869 0.425778 -0.085912 0.413206 0.644531 0.077884 0.597639 -0.859426 -0.226846 -0.464708 -0.282889 0.125840 0.264234 0.369346 0.314660 0.958561 -0.583721 -0.095477 -0.214657 -0.729960 0.449888 0.017623 0.820371
得到 0.749360 -0.181682 0.336892 -0.109160 0.186027 0.391176 0.238623 0.165872 -0.205743 0.063046 -0.636590 -0.022919 -0.247480 -0.445865 0.589117 -0.576580 0.007388 0.171070 0.292425 -0.057264 -0.495890 0.647860 -0.726189 0.118897 0.625976 -0.218952 -0.372599 0.187510 0.086959 0.539895 0.661848 0.365269 0.917771 0.483253 -0.290893 0.446130 -0.027741 -0.590659 0.027984 -0.084632 0.249553 0.081450 0.398252 -0.262415 -0.354797 -0.066676 0.128717 0.163320 0.525682 0.765293
怎么样 0.658224 0.203579 -0.005270 -0.339450 -0.395677 0.258978 -0.415022 0.000982 -0.503762 -0.386559 -0.282565 0.455072 0.131571 0.113165 0.029328 -0.314868 0.018869 0.000159 0.118194 -0.236887 0.169582 0.182933 0.699747 -0.316071 0.270075 0.404710 -0.160105 -0.706057 0.163185 0.723031 0.322249 0.173303 0.437179 0.070124 0.432304 0.028660 0.023395 0.180850 0.129084 0.426514 -0.266289 0.512707 -0.413311 0.561303 0.227271 0.237429 0.157773 0.421661 -0.201723 0.831836
再 -0.238647 0.762730 -0.679439 -0.232495 0.333554 0.254541 0.565489 0.083971 0.180646 0.193166 0.410363 0.767679 0.852572 0.279941 -0.425988 -0.043840 -0.423719 -0.622365 0.341817 0.554619 -0.283020 0.656917 0.660951 -0.080832 0.187100 0.031313 -0.385612 -0.636569 0.200323 0.284772 0.036123 0.705883 -0.189016 0.430685 -0.780753 0.016755 0.628315 0.783388 0.349735 0.403335 1.147405 0.645452 -0.027469 0.679189 0.982472 -0.443615 0.387725 0.661727 0.290003 -0.056981
还有 0.450049 0.741826 0.997087 0.479333 -0.040013 0.023078 0.773242 0.352398 0.042464 -0.699506 -0.530176 -0.337206 -0.549724 0.050778 0.507623 0.426736 -0.030466 -0.163931 -0.804940 -0.017103 -0.200083 -1.101039 0.744117 0.046667 0.617935 -0.114838 0.307986 0.243438 -0.232804 0.160621 -0.088468 0.267886 -0.172881 0.369968 0.255034 -0.135156 -1.122452 0.168566 0.188072 0.181953 -0.014163 1.048801 0.136121 0.402712 -0.313079 -0.149307 -0.037824 0.273680 -0.178666 0.779595
从 0.529505 0.326320 -0.030712 -0.275780 0.038706 0.739176 0.385017 -0.000265 -0.531901 -0.143654 -0.606436 0.246266 0.199790 -0.359994 -0.405123 -0.953448 0.426705 0.128349 0.420695 1.061494 -0.330422 0.707400 -0.633586 -0.083945 0.532729 -0.134201 -0.397837 0.144605 0.433886 0.733182 0.263649 -0.454237 0.785672 -0.058873 -0.591411 0.416694 0.513186 -1.037570 -0.299000 -0.557864 0.584313 0.208222 0.572898 -0.314283 -0.151731 0.205872 0.239851 0.608460 0.618905 0.696254
已经 0.465250 -0.139495 0.266022 0.292914 0.158422 0.448136 0.110326 -0.117987 0.150170 -0.448015 0.197721 0.328357 -0.405206 -0.358472 -0.258460 0.165333 0.097282 -0.357875 0.407876 0.101912 0.115844 -0.019563 0.482527 -0.391856 -0.474645 -0.588582 -0.274310 -0.310031 -0.075096 -0.110802 -0.116995 -0.297370 -0.329268 1.129729 -0.343365 0.397059 -0.308242 0.204199 -0.314462 0.237561 0.234142 -0.134321 -0.247161 0.480514 -0.408431 -0.109715 -0.039746 0.567917 -0.220820 0.606795
开始 -0.075544 0.042489 -0.240332 -0.249199 0.103114 0.216878 0.569617 0.248283 0.024113 -0.558229 -0.217578 0.493911 0.447177 0.057595 -0.837944 -0.412334 0.360883 -0.063848 0.251339 0.568970 0.176100 1.058804 0.234318 -0.523039 -0.004577 -0.274403 -0.066903 -0.246165 0.506748 0.137605 0.092760 -0.017239 0.329806 0.243816 -0.433977 0.300380 0.779612 0.269901 -0.084600 -0.751437 0.853502 -0.139320 0.234335 0.454962 0.221181 0.224661 -0.093426 0.268917 0.174224 0.561793
发生 -0.144156 0.156482 0.838843 -0.325321 0.072667 0.405361 -0.015744 -0.487193 0.849492 -0.015955 -0.630163 -0.081593 -0.992289 -0.988081 0.095419 -0.555408 0.429986 1.030057 0.029666 -0.287412 -0.299385 0.349416 -0.309930 0.129037 0.682136 -0.197056 -0.430615 0.197537 -0.250222 0.293556 0.720072 0.130381 -0.356465 -0.226227 -0.596633 0.109401 0.424079 -0.250479 -1.134436 -0.534043 0.857557 -0.109680 0.240381 -0.400152 -0.604037 -0.874124 -0.698644 0.229251 -0.600616 0.116704
工作 0.463973 -0.211534 -0.065143 -0.462506 -0.115046 0.103472 0.109129 0.565804 0.362543 0.002703 -0.527066 -0.076235 -0.607157 -0.114275 -0.391308 0.213067 -0.165757 -0.078084 0.378220 0.282848 -0.077304 0.039915 -0.624881 -0.327732 -0.665160 0.025027 0.250774 0.649571 -0.282018 0.533405 0.507108 -0.080757 0.622956 1.213919 -0.037462 -0.004633 -0.309913 0.009427 -0.470862 0.260206 0.425374 0.084617 -0.419639 0.051183 -0.107548 -0.053133 -0.324846 0.372488 0.733946 1.428203
约会 -0.199581 1.072289 -0.726810 -0.080791 -0.385212 -0.078419 0.840223 0.072951 -0.011995 -0.198233 -0.537770 -0.092203 0.351428 -0.397610 0.202286 0.403004 0.860833 0.291209 -0.088112 0.709047 -0.365763 -0.157427 -0.225926 -0.546054 -0.795161 0.083269 0.847376 0.103939 0.167155 -0.200562 0.153437 -0.110707 0.208304 0.574837 -0.156025 -0.337278 -0.002194 0.352115 -0.055643 -0.077422 0.670509 0.366595 0.295772 0.450393 -0.098967 -0.323691 -0.563537 0.641942 0.225234 0.657165
必须 0.203582 -0.322239 -0.141634 -0.382877 0.581454 -0.069911 0.367676 -0.179401 0.610163 -0.551275 0.507339 0.484975 -0.253174 0.142102 -0.057187 -0.186104 -0.852257 -0.546368 0.726834 -0.162854 0.431687 0.844064 -0.232072 -0.057568 -0.463471 -0.391632 -0.362494 0.073051 0.092740 0.126308 -0.094384 -0.210746 -0.309969 0.128671 -0.501152 0.696592 0.715730 0.031608 -0.859777 0.613139 0.744183 0.083172 0.169744 0.097809 -0.260474 0.018240 0.038314 -0.252788 0.191382 -0.111280
多 -0.409895 0.159951 0.558479 0.514577 0.116648 -0.403956 -0.353144 0.452353 1.185958 -0.603816 -0.422407 0.234436 -0.580683 -0.088273 0.310529 0.358963 -0.563229 -1.078852 0.565259 -0.528570 0.305541 -0.467283 -0.269406 0.164424 -0.027760 -0.513820 0.148636 0.375440 -0.232228 -0.540362 -0.211725 0.424875 -0.771697 -0.103694 0.468397 -0.145553 -0.592293 1.272961 -0.351786 0.835966 -0.604479 0.354060 -0.693253 0.279011 0.637960 -0.356881 -0.241712 0.433869 -0.255113 1.317217
一直 -0.166993 0.165935 0.126224 -0.104976 -0.131533 -0.073665 -0.420608 -0.599057 0.286842 -1.252069 -0.034693 0.018261 0.131632 0.102296 -0.690717 -0.164208 -0.463479 0.476985 -0.073370 0.534814 0.261446 -0.108140 -0.647945 0.453206 -0.115314 -0.053689 -1.024641 -0.270731 -0.073154 -0.277318 -0.383289 -0.788551 -0.337529 0.188798 0.325214 0.567934 0.389145 0.062792 -1.349728 -0.233008 0.059694 -0.315794 0.538552 0.381211 0.011921 -0.315315 0.126879 0.224435 1.366999 -0.028483
吃 -0.344060 -0.215143 -0.370569 -0.331918 -0.480983 0.554097 0.093867 0.292083 0.014705 -0.134766 -0.020516 -0.069290 -0.051398 -0.269055 -0.161614 -0.430144 0.534087 0.670036 0.191794 0.903047 -0.598891 -0.107990 -0.852242 -0.134853 -0.165550 0.204844 -0.459639 -0.280528 0.097885 0.162266 0.578474 -0.352088 0.242924 0.519816 -0.303257 0.064280 -0.029018 -0.402561 0.098354 -0.093314 0.880122 0.574798 0.465130 -0.090306 -0.466605 -0.082837 0.098987 0.680507 -0.063282 0.580458
不想 0.258613 0.483875 -0.343087 -0.267431 0.198095 0.169922 0.374913 0.127124 0.147730 -0.486614 0.014611 0.156994 0.497837 -0.181964 0.589025 -0.216439 0.145662 0.300258 0.718827 0.138347 -0.335467 0.835443 -0.479958 0.257213 0.188142 -0.031777 -0.380200 -0.795773 0.531232 -0.513315 -0.329008 0.844835 0.375925 0.726843 -0.248483 0.173179 0.642947 1.024394 0.101439 -0.138362 0.522213 -0.334019 0.591292 0.485159 0.280609 -0.309964 -0.182171 0.559183 0.462278 0.274182
抱歉 0.310080 0.467862 0.342491 0.266417 -0.069300 -0.150753 -0.531613 -0.101225 0.134779 -1.534338 -0.026179 0.080713 -0.581865 0.527000 -0.912056 0.579400 -0.639197 -0.045639 0.117933 0.029354 0.545366 -0.284438 0.051262 0.445418 -0.630925 0.439251 -0.057736 -0.329658 -0.504142 -0.228830 0.380982 0.309547 -0.537726 -0.430501 0.713208 -0.050118 -0.094282 0.606838 -0.294788 0.127066 -0.911594 -0.196798 -0.778518 0.251849 0.381344 -0.223501 0.110715 0.090429 0.596859 0.670609
然后 0.182727 0.691508 -0.132556 0.325324 0.416568 -0.039293 0.791477 -0.080095 -0.085718 0.551083 -0.389825 0.312907 0.154359 0.210598 -0.103079 -0.509477 0.279459 -0.373724 1.065144 0.385552 -0.294232 0.387638 -0.041979 -0.373053 -0.239499 -0.057387 -0.090207 -0.508382 0.241146 -0.056078 0.077141 -0.296747 0.435690 0.256968 -0.075962 0.523130 0.209552 -0.518631 -0.826615 0.276259 0.190633 0.178869 0.371559 0.382570 0.029350 0.350811 0.002611 0.355681 0.592788 0.853042
一下 -0.232032 0.060816 0.915856 -0.299872 0.113736 0.990871 -0.698883 -0.017661 -0.966348 -0.591118 0.795886 0.674542 -0.971539 0.558186 -0.796083 -0.821019 -0.022530 -0.223110 0.260438 1.144712 0.340673 -0.050108 -0.130167 -0.186779 0.147482 0.012944 -0.705397 -0.538350 -0.333416 0.644747 0.241009 -0.220638 -0.392874 -0.333635 0.166535 -0.068346 0.420653 -0.208428 0.253417 -0.420455 0.055485 0.514849 -0.147487 0.155230 0.290753 0.531128 0.897768 0.383815 -0.220376 0.323838
哪 0.008820 0.690794 0.407778 -0.320818 -0.440824 -0.198686 0.211004 0.244423 0.137529 -0.275499 0.094902 -0.003677 -0.706275 0.225465 -0.409490 0.258384 -0.726119 0.550304 -0.453868 0.205801 -0.087508 -0.409492 0.464015 -0.033222 0.326935 0.243971 0.575036 0.110934 -0.636073 0.724365 1.753063 0.089077 0.184840 -0.158483 0.672162 0.486468 -0.093925 -0.808897 -0.560889 0.912167 0.676289 1.203691 -0.426295 -0.036989 -0.295971 -0.060864 -0.438896 -0.804706 0.668102 1.003488
起来 -0.187895 0.373244 0.305272 1.047556 -0.239796 -0.414794 -0.419899 0.224760 0.171544 -0.880755 -0.364531 -0.677231 0.226074 1.034883 -0.323881 -0.885398 -0.615377 -0.282825 0.715978 0.383770 0.432135 -0.203043 -0.402853 0.395405 -0.375692 1.356965 -0.942117 -0.267236 0.579569 -0.846829 -0.828212 -0.060875 -0.521684 -1.376819 0.666764 0.158359 -0.056997 0.292956 -0.824561 -0.275125 -1.204697 -0.180343 0.134259 0.379909 0.189685 0.433632 0.480205 -0.040684 0.359910 1.011121
你好 0.065908 0.605980 0.731473 -0.377010 -0.206955 0.130561 -0.384778 0.453665 -0.476781 -0.830871 0.013073 -0.011749 -0.530196 0.061248 -0.452831 0.052135 0.277064 0.428054 -0.269775 0.404124 -0.232093 -0.597265 0.379633 -0.102439 0.274213 0.159606 0.243401 -0.522562 -0.342338 0.678576 0.587817 0.079488 0.140856 -0.275312 0.335633 0.072440 -0.205745 0.193008 0.124726 -0.091625 0.101617 0.707325 -0.186665 0.439502 0.226784 -0.015607 -0.005440 0.059083 -0.134334 0.341566
— 0.689131 0.220241 -0.792688 0.300525 0.825063 -0.159216 0.287196 -0.771987 -0.040895 -1.612657 0.945717 0.324567 0.315888 -0.272791 -0.120111 0.461396 -0.153214 -0.530596 -0.007082 -0.131458 0.446239 -0.294517 0.717316 0.412315 -0.466906 -0.144050 -0.377329 -0.405791 -0.015108 -0.043417 -1.117442 -0.215630 -0.430347 -0.039235 -0.268602 1.223741 0.284146 0.091794 -0.209862 0.494697 -0.508715 0.112203 0.235409 0.382857 -0.738839 -0.166176 0.936611 0.044803 0.835448 0.053150
两个 -0.496097 0.189331 0.850336 0.419113 -0.597875 0.318458 -0.755652 0.910951 0.180229 -0.249442 -0.267213 0.017600 0.423744 -0.443099 -0.047931 0.200208 -0.027650 -0.264432 -0.502916 0.358719 0.094764 -0.228135 -0.046085 -0.911179 -0.078217 -0.747554 0.573753 -0.279986 0.146388 -0.092756 -0.944902 -0.878577 -0.251991 1.023575 -0.039847 -0.106009 -0.324833 0.248045 -0.392278 -0.994783 0.460295 0.026483 0.604294 0.958479 0.353646 -0.145072 -0.514804 0.562967 0.564640 -0.411559
等 -0.095362 0.390874 1.203272 -0.382357 -0.001542 1.398869 -0.585230 0.057192 -0.971100 -1.150261 1.095856 0.521322 -0.815436 0.179627 -1.212944 -0.870817 -0.242298 -0.226367 0.512057 1.477496 0.393961 0.073386 -0.334173 0.048365 -0.173441 0.359850 -1.063527 -0.395364 -0.201114 0.734033 0.068267 -0.304908 -0.672949 -0.640148 0.160772 -0.125202 0.407223 -0.137235 -0.223073 -0.338340 -0.141040 0.509156 -0.109423 0.474210 0.269770 0.128488 1.128824 0.251518 -0.120434 0.422125
今晚 -0.241002 0.514114 -0.343498 -0.644032 0.039678 0.362752 0.265420 -0.157299 0.044300 -0.390578 -0.009329 0.264299 0.511100 0.043926 -0.158589 -0.572309 0.219713 0.452819 -0.306456 0.392349 -0.182430 -0.487073 -0.353746 0.018431 0.147370 0.140549 -0.203284 0.170492 0.161910 0.866553 0.169595 0.158378 0.398292 0.453951 0.219774 -0.149603 0.996722 -0.090240 -0.871296 -0.071024 0.773398 0.476340 0.469636 0.479903 0.563054 -0.243136 -0.078484 0.180451 0.919249 0.280368
别 -0.233208 0.726275 -0.126306 0.126479 0.321821 -0.200620 0.202757 -0.205594 1.001327 -0.418039 0.166955 0.358470 0.304802 0.479018 -0.514148 -0.373851 -0.728309 -0.170611 0.291088 0.281691 0.287561 0.551942 1.101489 -0.164544 0.419575 0.658584 -0.367701 -1.206211 -0.223310 -0.453584 -0.042124 1.053694 -1.150620 -0.979495 -0.441286 0.802573 0.706932 0.999614 -0.120540 -0.239700 0.694566 0.329882 -0.147894 0.222696 0.996165 -0.508167 0.058821 -0.578626 -0.134272 0.519634
地方 -0.029164 -0.050457 0.549367 -0.411225 -0.244793 -0.321264 -0.295953 0.413988 0.311270 -0.007726 -0.687574 -0.302718 -0.327955 0.086509 0.207242 -0.337256 -0.116629 -0.202748 0.311573 -0.171576 -0.684402 0.005428 -0.555882 -0.032553 -0.045217 0.119976 -0.326721 0.290503 -0.048679 0.122972 0.299343 0.373341 0.111414 0.650251 0.072833 -0.467203 -0.227949 0.197874 -0.077931 -0.069842 0.298716 0.034382 0.626832 0.362103 0.112297 -0.331420 -0.418311 -0.186617 0.522882 0.528776
哪里 0.873578 0.102364 -0.036201 -0.692640 -0.000644 0.611609 -0.016266 -0.208857 -0.244878 -0.079575 -0.150978 0.206207 0.151199 -0.320201 0.046024 -0.666641 0.009193 0.387685 0.035062 0.441174 -0.249324 0.153202 -0.493968 -0.120594 1.022456 0.531511 -0.224723 -0.299734 0.300147 0.447551 0.513923 -0.008092 0.678025 -0.018153 -0.122633 0.143859 0.169659 -0.461167 0.009284 0.349208 0.647068 0.623544 0.354240 -0.009943 0.092049 0.026993 0.248051 0.347067 0.501638 0.622075
请 0.147954 0.368385 -0.163870 -0.314446 0.348674 0.050004 -0.162363 -0.649732 0.109278 -1.120001 0.657755 0.852079 -0.088709 0.369612 0.101670 -0.463158 -0.417891 -0.058521 0.377556 0.332759 0.165973 0.164538 -0.177506 0.354831 0.078133 0.035481 -0.299581 -0.581843 0.297709 -0.518677 0.060249 0.585060 -0.590243 -0.481305 0.015710 0.628070 0.462963 0.068116 0.414415 0.202732 0.589139 0.568271 0.071819 0.009584 -0.132858 -0.110912 -0.407075 -0.407444 0.218771 -0.212192
不要 -0.034783 0.487516 -0.005396 -0.195312 0.362383 -0.092073 0.157653 0.070775 0.070332 -1.025496 0.729001 0.951807 0.171472 0.386344 0.014214 -0.892845 -0.754292 -0.121627 0.399357 0.248705 -0.255575 0.664310 -0.789548 0.284401 0.346218 0.245432 -0.315036 -0.779720 0.401318 -0.486374 0.490031 0.589172 0.002012 -0.622249 -0.105968 0.244443 0.935060 -0.089274 0.571795 -0.070990 0.519646 0.491225 0.061471 0.037852 0.273639 0.136549 -0.233505 -0.602738 0.340298 -0.414196
我能 -0.084220 0.261519 0.136179 -0.844470 -0.362307 0.599193 -0.455548 -0.318424 -0.324569 -0.229930 0.764539 0.829678 -0.634299 -0.261641 0.014172 -0.132006 -0.086739 0.003073 0.264137 0.095882 -0.092607 -0.098823 0.068471 0.097246 0.489281 -0.332643 -0.774446 -0.164042 -0.170264 0.575723 0.110681 0.361245 -0.547552 0.439503 -0.040407 0.014171 0.684331 0.350193 -0.327505 0.239991 0.537314 0.357304 0.405071 0.450436 -0.037815 -0.311426 0.347910 0.731383 -0.241526 -0.313272
最好 -0.128098 0.257101 0.080086 0.257866 -0.035964 -0.389243 0.234027 -0.242179 -0.037072 -0.359572 -0.482972 0.649308 0.143894 0.467922 0.312089 -0.069090 0.068964 -0.774357 -0.497472 -0.358946 -0.211629 0.363474 0.047693 -0.078568 0.283015 -0.704118 0.193463 0.255707 0.020156 -0.035600 0.886222 0.566585 -0.257892 -0.435207 -0.005383 0.120750 -0.107620 0.013310 0.565704 -0.276181 0.293256 0.159109 0.270880 0.228068 -0.182886 -0.147812 -0.624372 -0.148151 0.089894 0.070989
打电话 0.505151 0.913018 -0.226769 -0.260297 0.518475 -0.092521 0.052267 -0.523913 0.071355 -0.265511 -0.330922 0.690153 0.845422 0.486491 0.434006 0.111076 -0.245138 0.814206 0.580048 0.938760 -0.033568 0.350762 0.273495 0.359194 0.185243 -0.309718 0.059668 -0.276992 1.435609 -0.294070 -0.668671 0.778516 0.116241 -0.062763 -0.648563 -0.195250 0.380225 -0.151897 0.364941 0.244048 0.150711 1.038949 -0.020223 -0.117068 0.178042 -0.107734 -0.625863 0.034314 1.006401 0.294452
等等 0.911030 1.274912 1.075518 -0.142492 0.521825 -0.050899 -0.424319 0.028275 -0.220610 -0.701647 0.236932 0.372648 -0.311009 0.130381 -0.629890 0.353281 -0.537789 0.261946 -0.358868 0.377841 -0.068819 -0.819453 0.871862 0.421732 0.715650 0.303234 -0.389542 -1.201565 -0.789935 0.587267 0.846957 0.317765 -0.238026 -0.853778 -0.319114 0.421296 -0.057102 -0.409563 0.001609 0.310565 -0.704692 0.965798 -0.221991 0.238746 0.643427 -0.302823 0.253954 -0.837504 0.353238 0.028227
钱德勒 0.343988 1.345570 -0.106216 -0.108334 -0.097044 -0.238016 0.573311 -0.135836 -0.353367 -0.551789 0.036498 0.406592 -0.085784 0.121261 -0.086847 0.383818 0.018081 0.095256 -0.527289 0.144952 -0.134084 -0.090961 0.617408 0.320500 0.389009 -0.021495 0.265356 -0.366481 -0.244058 0.135648 0.124252 -0.139348 -0.110821 -0.155980 0.231982 0.273808 0.485809 0.418342 -0.150698 0.291872 0.546003 0.916264 0.049127 0.653432 0.274298 -0.368340 -0.309726 0.440775 0.385414 0.162714
事情 -0.512457 -0.144674 0.103773 -0.100381 -0.027332 -0.219471 0.036954 0.178203 0.915857 0.047441 -0.741318 -0.016963 -0.156602 -0.066637 -0.167649 -0.820335 0.825283 0.075621 0.487564 -0.404210 -0.711898 0.134103 -0.266139 -0.200082 -0.172969 -0.361650 -0.658148 0.261326 0.002037 0.531374 0.895063 0.521033 -0.218653 0.236963 -0.381919 0.256275 0.093882 0.081776 -0.864157 -0.444105 0.902088 -0.553501 0.416138 -0.088662 -0.338539 -0.609187 -0.713609 0.012445 -0.214949 0.502876
女人 -0.250419 0.911003 0.212530 0.089762 -0.143725 0.066273 0.381227 0.652290 -0.250754 -0.411099 -0.829389 -0.286813 -0.214892 -0.306626 0.523613 -0.177949 0.392609 -0.127526 -0.194707 0.116354 -0.337902 0.096131 -0.654509 -0.402062 -0.232019 0.059182 0.818634 0.663152 0.158967 -0.111508 -0.505219 0.380109 0.444240 0.426745 0.507336 -0.528521 -0.127316 0.401341 0.137203 -0.613856 0.156484 0.104584 0.212595 0.644865 -0.141247 -0.189639 0.129702 0.330871 0.730302 0.514800
最 0.186909 0.091823 0.484595 0.905121 -0.047129 -0.657853 -0.037750 0.242592 0.217036 -1.054872 -1.050482 -0.139825 -0.316026 0.138106 0.286740 0.261732 -0.025978 -0.558699 -0.129770 -0.165784 -0.533248 -0.157201 -0.533544 0.384105 -0.500137 -0.926060 0.584311 0.996939 -0.252026 -0.969027 0.592473 -0.090778 -0.151394 0.027875 0.245013 -0.168461 -1.092108 0.055239 0.503255 0.071615 -0.470394 -0.332724 -0.461133 0.090437 -0.496292 -0.251113 -0.880671 -0.134422 0.327814 0.065018
' 0.351608 0.590220 0.116932 -0.236698 0.496545 0.080900 -0.292931 -0.796888 -1.053785 -0.551604 -0.559329 0.095599 -0.447683 0.047902 0.065382 0.280223 0.245945 0.145447 -0.074224 0.090663 -0.069713 0.200957 0.748290 -0.201452 -0.745374 -0.890006 -0.339158 0.242557 -0.959304 0.382956 0.182703 -0.362812 -0.218305 -0.030540 0.339096 0.073417 -0.363975 0.341936 0.431773 -0.599474 -1.200107 -0.682186 -0.776260 0.531586 0.344060 -0.393258 0.144999 -0.205485 -0.011086 0.301976
为 0.026394 0.372820 -0.157182 -0.407337 -0.126020 -0.064571 0.388944 -0.172367 0.073175 -0.464333 0.307446 0.431302 -0.077886 0.028633 -0.311725 0.474021 -0.522705 -0.174107 -0.074367 -0.056904 0.287345 0.583816 -0.310678 0.400161 -0.204387 -0.428335 -0.265752 0.210713 0.159449 0.126904 0.193355 0.012188 0.136501 0.591195 -0.241346 0.071933 0.554417 0.094535 -0.364794 0.402415 0.221498 0.113593 -0.111351 0.229601 0.216461 -0.110281 -0.055744 0.499014 0.458263 -0.162640
爱 0.168201 0.971291 0.688566 0.357398 0.231151 -0.422202 -0.035762 0.264143 0.105465 -0.780416 -0.625333 -0.084597 -0.073963 -0.325771 0.390316 0.705595 -0.337330 0.029983 0.283716 0.702858 -0.147604 0.433624 -0.524250 0.193773 -0.654810 -0.416686 0.727686 0.640345 -0.057773 -1.075484 -0.861429 0.051535 -0.293168 -0.542159 0.101640 -0.048003 -0.135883 0.758293 -0.047494 -0.251687 -0.682136 -0.009628 -0.049762 0.258639 -0.226034 -0.422070 -0.419966 -0.310569 0.230867 -0.172362
拿 0.678098 0.043642 -0.074372 0.353165 -0.689474 0.411229 -0.173882 -0.032878 -0.123519 0.345419 -0.335748 0.656031 0.032794 0.359366 -0.085887 -0.853604 -0.295564 0.427208 0.960682 0.665867 0.113374 -0.162554 -0.455159 0.489106 0.365778 0.595410 -0.809305 -0.589799 0.726808 -0.137415 0.249560 -0.176074 0.017552 -0.167593 -0.130975 -0.043162 0.589193 -1.100815 -0.183359 0.273906 0.172184 0.548691 0.585436 -0.132182 -0.484833 0.463860 -0.121887 0.347395 0.180161 1.059906
今天 -0.076171 0.075632 -0.114795 -0.165036 0.239828 0.258443 0.305331 -0.312532 0.390738 -0.318864 -0.479689 0.579128 -0.007274 -0.160776 -0.664830 -0.062101 0.170977 0.092140 0.049846 0.452382 0.198665 0.269570 0.055683 -0.381272 0.101592 -0.222134 0.437254 -0.300295 0.146901 -0.147572 0.570428 -0.034295 0.142176 0.090303 0.168538 0.121264 0.329312 -0.003307 -0.301166 -0.042486 0.489490 0.023548 -0.134089 0.038853 0.184583 0.045474 -0.335643 0.262600 0.102423 0.441051
想要 -0.333015 0.073207 0.707404 -0.146021 0.394434 0.164200 0.015896 -0.069823 0.324256 0.050159 -0.310607 0.049696 -0.414740 -0.205661 0.921401 0.002682 0.026457 0.171407 0.046256 -0.136485 0.107855 -0.030132 -0.521575 -0.220881 0.182376 -0.375329 -0.033601 -0.040806 0.101159 -0.075555 -0.537616 0.694121 -0.034758 0.326782 0.182847 -0.118257 -0.023361 0.238727 -0.425235 -0.268283 0.218153 0.468800 0.604971 0.122842 0.177642 -0.339173 -0.067833 0.347908 0.121726 0.478138
被 0.508325 -0.006327 -0.233685 0.373421 0.350458 -0.055323 0.206109 -0.249997 0.321466 0.557955 -0.391050 -0.010888 0.132043 -0.307748 0.396259 0.034612 -0.272138 0.171162 0.764723 -0.334840 -0.193747 0.829262 0.042685 -0.065830 -0.166480 -0.326398 0.125425 -0.154354 0.302224 -0.563572 -0.433567 0.335931 0.147262 0.609129 -0.589784 0.413214 0.796501 0.260448 -0.139683 0.275733 0.452424 -0.424886 0.606521 0.391413 -0.298467 -0.314660 -0.050699 0.325445 0.191273 0.203238
钱德 0.571867 0.778662 0.100300 0.039240 -0.409087 0.117518 0.119135 0.133904 -0.327654 -0.542146 0.055942 0.413772 0.052515 -0.315249 0.022828 0.237943 -0.111737 0.346585 0.047276 0.349214 -0.104659 0.098986 0.331757 0.048788 -0.167188 0.051759 0.115589 -0.377188 0.127031 -0.168401 -0.119141 0.034535 -0.128195 0.021205 0.143835 0.068580 0.053703 0.340759 0.016786 0.115858 -0.113902 0.340224 -0.271321 0.384818 -0.259779 -0.123302 -0.338733 0.125918 -0.228496 -0.065271
看起来 -0.410688 0.211857 0.897733 0.064469 0.323894 -0.624449 -0.007396 0.572313 0.182780 -0.965162 -0.698201 -0.573308 -0.825127 0.774676 0.211993 -0.298247 -0.785568 -0.302973 0.224121 -0.410364 0.226505 0.428800 -0.378970 0.308790 -0.763186 0.579220 0.081918 0.666124 -0.026928 -0.186212 -0.509708 0.449755 0.045404 -0.835826 0.700417 -0.104223 0.354787 0.721320 -1.034568 -0.238390 -0.399555 -0.178307 -0.277427 0.687025 -0.036608 0.032804 0.565629 -0.308139 0.456346 0.132372
一样 -0.417962 0.592100 0.724875 0.688997 0.748190 -0.129843 0.613495 1.051526 0.487088 -0.152284 -0.554645 -0.465661 -0.157885 -0.286443 0.084011 0.278651 0.417123 -0.429600 0.216612 0.093944 -0.037723 0.397595 -0.943818 -0.058981 -0.290406 0.432565 1.502537 0.387762 -0.160644 -0.173896 -0.514605 0.471887 0.463442 -0.907843 -0.129244 -0.746900 0.248185 0.215779 -0.241378 -0.547805 -0.152060 0.086817 0.049704 0.270737 0.457218 0.011732 0.533818 0.294380 0.392382 0.058160
一次 -0.312523 0.109589 -0.507712 -0.008683 0.440911 0.194440 0.549923 -0.284782 0.250647 0.119012 -0.062279 0.748678 0.789373 0.316057 -0.491526 0.054235 -0.351219 -0.533421 -0.192318 0.408344 -0.093407 0.632677 0.341101 -0.487052 0.083310 -0.471054 -0.349069 -0.252006 0.182422 -0.065153 0.433087 0.386067 0.328076 0.734930 -0.655934 -0.363337 -0.091620 0.287568 0.777826 0.189789 0.911310 0.500663 -0.198376 -0.107200 0.746797 -0.254442 -0.230698 0.673782 0.422840 0.077903
中 0.377305 -0.561763 0.214249 -0.601076 0.434798 -0.086406 -0.245792 -0.000084 0.182628 0.023850 -0.466670 -0.062456 0.172711 -0.005947 0.176738 -0.122349 0.248417 -0.638521 -0.574378 -0.377196 0.129172 0.175994 -0.604814 0.151260 0.604020 -0.404129 0.116161 0.870559 -0.083993 0.379507 0.122014 0.116567 0.703205 0.643724 -0.012953 -0.081584 -0.444003 -0.074824 -0.178853 -0.058992 0.341412 -0.383889 0.429608 0.069360 0.159040 -0.042903 -0.295144 0.000582 1.090141 -0.023588
以为 -0.115684 0.240845 0.328373 -0.517126 -0.054272 0.224645 -0.591798 -0.484072 0.013977 -0.913440 0.151681 0.499633 -0.510984 -0.446012 -0.267831 0.490734 -0.270018 0.563335 0.066417 0.460907 -0.056343 0.026499 -0.732872 0.192437 -0.125233 -0.415692 0.197943 -0.200903 -0.335209 -0.406603 -0.142994 -0.109092 -0.218905 0.034021 0.521355 0.300038 0.347205 0.402235 -0.430790 0.026846 0.187884 -0.223240 0.019755 0.173291 -0.286308 -0.428354 -0.086334 0.032237 0.548333 -0.388285
太好了 -0.567844 0.101171 0.633339 0.593632 0.514298 -0.351222 0.335047 0.175749 0.253366 -0.848842 -0.221468 0.182337 -0.439481 0.565557 -0.517252 0.017054 0.116207 0.027210 -0.215812 0.033671 0.208272 -0.131692 0.571827 -0.367208 -0.197021 0.304273 0.521521 -0.881781 -0.496972 0.094590 1.071380 0.413667 -0.216483 -1.029757 0.136351 0.877687 0.155587 -0.182458 -0.499056 -0.097526 0.039912 0.503576 -0.595250 0.155185 -0.314893 0.010542 0.357563 -0.192271 0.043097 0.761893
还是 0.379422 0.530283 0.425100 0.217638 0.363035 -0.116940 -0.227762 -0.445816 -0.096897 -0.058850 -0.346627 0.232246 -0.105780 -0.296070 0.316296 0.126067 0.426861 -0.091395 -0.296804 -0.131767 0.121801 -0.393082 0.517620 -0.278766 0.294019 -0.256080 0.418218 -0.260340 -0.185880 -0.125444 -0.201934 0.387938 -0.151181 -0.371389 0.225571 0.042384 0.019484 0.388608 -0.188498 -0.397776 -0.655097 -0.057259 -0.083806 0.165663 0.145309 -0.251055 0.235252 -0.243520 -0.005071 0.149722
大 -0.416526 0.253118 0.576748 0.731698 0.151457 -0.381895 0.569547 0.380399 -0.005903 -0.409361 -0.473548 0.090895 -0.241610 0.082368 0.199286 0.295894 0.273563 -0.846990 -0.449656 -0.402319 0.286977 -0.438780 0.343490 -0.445156 -0.143638 -0.118504 0.669808 -0.028920 -0.199572 -0.296817 -0.061958 0.420510 -0.087866 -0.283960 0.447464 -0.486472 -0.673180 0.468184 0.421840 -0.123852 -0.296965 0.400500 -0.162201 0.377079 0.281869 0.172286 -0.128903 0.400921 -0.156371 0.657164
一定 -0.530361 0.157555 0.176850 -0.042223 0.759624 -0.075266 -0.020760 0.102927 0.514462 -0.782494 -0.127059 0.644124 0.151318 0.038768 -0.174107 -0.022487 -0.076917 0.327647 -0.002888 -0.065037 0.198808 -0.275309 0.256802 -0.102237 -0.206131 -0.126219 0.308255 0.033517 -0.004778 0.083933 0.220392 0.360602 -0.096079 -0.210868 0.502349 0.036827 0.618147 0.345154 -0.691581 0.136894 -0.151856 0.131344 -0.691717 0.276765 0.149710 -0.263912 -0.260857 -0.385699 0.220538 -0.017696
又 -0.092115 0.025591 -0.559329 0.165692 1.120203 -0.313429 0.934836 -0.278351 -0.151835 -0.458869 -0.191698 0.517101 0.643297 0.861555 -0.740662 -0.269977 0.420948 0.086283 -0.709098 0.070121 0.392754 0.358794 0.604764 -0.603889 -0.248882 0.398452 0.669353 -0.215924 0.252907 0.040686 0.832604 0.146682 1.159118 0.017513 -0.181694 0.029013 0.457483 -0.037348 0.076877 0.478669 0.050201 0.486229 -1.045812 -0.343254 -0.104572 0.350110 -0.085906 0.171929 0.432048 0.585904
很棒 -0.683018 -0.004305 0.348071 -0.047837 0.004348 -0.783614 -0.029626 0.405331 0.244336 -0.787664 -0.660174 0.028225 -0.529441 0.595012 0.202130 0.124972 -0.138803 -0.004572 0.367737 -0.228378 0.461683 0.485187 -0.252347 0.119541 -1.157291 0.271789 0.097493 0.581261 0.196696 -0.099543 -0.264750 0.257449 0.012569 -0.236266 0.624335 -0.257264 0.125894 0.658245 -0.770981 -0.288339 -1.073501 -0.140085 -0.645195 0.344886 -0.213511 0.015158 0.296227 0.242039 0.051003 0.473192
更 -0.660654 -0.105485 0.278804 0.398403 -0.011585 -0.263752 -0.107633 0.203025 0.585664 -0.835779 -0.271042 -0.010613 -0.516114 0.368595 0.906540 0.037975 -0.470807 -0.757872 0.325879 -0.763284 0.314434 -0.396118 -0.696740 0.372807 -0.183700 -0.155853 0.010674 0.456693 0.089895 -0.578163 -0.534621 0.733848 -0.535975 -0.055295 0.829872 -0.533146 -0.360519 1.053706 -0.212133 0.648284 -0.588220 0.038179 -0.122191 0.512633 0.277862 -0.048160 0.455206 0.557205 -0.031919 0.668727
只 -0.471903 -0.247846 0.133752 0.474894 0.064306 -0.089497 0.452945 0.129481 0.165196 -0.472774 0.676395 0.511881 -0.063601 0.330312 -0.293558 0.134179 0.252704 -0.086430 -0.092759 0.071063 -0.016823 -0.314218 -0.733879 0.041796 -0.152896 0.280954 -0.425004 -0.976595 0.090967 -0.671247 0.533685 0.236659 0.178128 0.535069 0.124970 0.010096 0.207207 0.298718 -0.469767 0.205534 0.141098 0.283750 0.321673 0.240825 0.025104 0.089032 0.359467 0.629430 0.443241 0.345559
啊哈 -0.015375 0.050610 0.616798 -0.346059 0.232002 0.422484 -0.246631 0.225964 0.102139 -0.908962 0.222057 -0.099786 -0.203456 0.087848 -0.409433 0.105170 -0.101775 0.194310 -0.363790 0.224627 0.281708 -0.073077 0.087690 -0.021304 0.558586 0.201053 0.540587 -0.231058 0.204612 0.387500 0.211648 0.156817 0.140538 -0.453409 0.465933 -0.505590 -0.122059 0.292155 0.466862 -0.379264 0.360323 0.590727 -0.408312 0.128995 0.710397 0.333068 -0.259660 0.147523 -0.354426 0.085310
有点 0.214608 -0.602169 0.252395 0.735231 0.434169 -0.017507 -0.305056 -0.605076 0.246695 -0.853733 0.077193 -0.328201 -0.433025 0.117350 0.147579 -0.044152 0.224842 -0.242313 -0.002941 -0.765643 0.592756 -0.360365 0.470690 0.313981 -0.072993 -0.418432 -0.594288 -0.437909 -0.109460 -0.067417 -0.446417 -0.018453 -0.376516 -0.179660 -0.299453 0.885005 -0.310871 -0.048984 -0.456638 -0.322194 -0.490133 -0.449744 0.302148 0.029929 -0.958983 -0.083262 -0.191922 0.143273 -0.172527 0.630727
用 0.046726 0.045331 0.046985 -0.063231 0.201634 0.531448 0.220916 -0.180636 0.055031 -0.013757 -0.139613 0.331918 -0.492930 0.004527 -0.149622 -0.838359 0.368007 -0.051946 0.509355 0.067987 -0.060350 0.256827 -0.209020 -0.373531 0.221908 -0.337805 -0.138880 -0.334296 0.151507 0.217176 0.297476 0.143465 0.044804 0.272741 -0.195535 0.415685 0.532011 -0.181968 -0.649644 -0.579774 0.952340 -0.253360 0.676645 0.022580 -0.152845 0.116836 -0.262966 0.332871 0.002555 0.633493
找 0.198322 0.167689 0.022749 -0.122560 -0.534885 -0.111941 0.140835 0.011676 0.650197 0.288773 -0.311085 -0.171490 0.267254 0.069647 -0.118924 0.366412 -0.933757 0.522552 -0.013861 0.617365 -0.176779 0.344591 -0.169236 -0.296603 0.028087 -0.017616 -0.026159 0.136379 0.213945 -0.142090 0.112181 -0.170940 -0.091260 0.629196 -0.483064 -0.230275 -0.050858 -0.077118 0.078447 0.400319 0.882295 0.542932 0.138266 0.020142 0.445213 -0.142189 -0.365642 0.190891 0.655047 0.293403
有趣 -0.120466 0.251592 0.259976 0.441660 0.096992 -0.608437 -0.420751 0.216819 0.160011 -1.267639 -0.187756 0.100614 -0.528020 0.652358 -0.573761 0.288558 0.021960 -0.359989 0.318813 -0.261747 0.336153 -0.211089 0.076108 -0.041847 -1.050075 0.080689 0.074709 -0.232821 -0.129562 -0.345167 0.264256 -0.106079 -0.257683 -0.167395 0.361107 0.128671 -0.007463 0.633907 -0.572897 0.265825 -0.747068 -0.165983 -0.264965 0.410229 -0.225790 -0.163672 -0.427491 0.185014 0.222176 0.800218
家伙 0.308425 1.101167 0.493477 0.157298 -0.829508 -0.193260 -0.149894 0.252851 -0.336608 -0.817910 -0.714743 -0.347388 -0.370340 -0.111210 0.499187 -0.359500 0.331111 0.492992 -0.136167 -0.049876 -0.671702 -0.176544 -0.600981 -0.053688 -0.159266 0.296669 0.292882 0.079460 0.114888 -0.176285 -0.186769 0.246974 0.038960 -0.114132 0.696016 -0.386179 -0.166940 0.182809 -0.065178 -0.627005 -0.107078 0.030534 0.267961 0.336314 -0.435757 -0.173836 -0.854301 0.023571 0.330059 0.204003
电话 0.880574 -0.056000 0.134872 0.234338 -0.026389 0.430493 -0.057199 -0.359522 -0.218721 0.394353 -0.665727 0.323770 -0.181050 0.438378 0.392566 -0.282138 -0.181312 0.023695 0.854477 0.847740 -0.260237 0.225066 -0.637195 0.235318 0.327082 -0.158483 -0.273080 -0.200439 0.641672 -0.386236 -0.238007 0.154372 0.017342 0.251041 -0.575144 -0.333022 -0.833258 -0.762662 0.730268 0.240118 0.107161 0.581629 0.134427 -0.365879 -0.333481 0.456926 -0.149331 0.867802 0.343638 0.389867
一切 -0.304807 -0.850906 0.185152 0.605845 -0.104712 0.096236 -1.060238 -0.077046 0.600526 -0.401044 -0.378405 -0.060872 0.038345 0.274410 0.033914 -0.579058 -0.009343 0.236867 0.420046 0.030561 0.069471 0.369515 -0.083942 -0.817649 -0.908341 -0.123178 -0.241780 -0.159217 0.820666 -0.556780 -0.285478 -0.137234 -0.509814 0.183391 -0.432062 0.071046 -0.004403 0.089527 -0.430998 -0.699355 0.471747 -0.501705 0.378300 0.164497 -0.620065 -0.206420 -1.053643 0.051882 -0.350391 0.067335
时 0.106413 0.603776 -0.783174 -0.427658 -0.240053 -0.020335 0.043153 -0.417842 -0.135293 0.432772 -0.498626 -0.019763 -0.146513 -0.839095 0.123531 0.126533 0.585606 0.291829 0.504711 0.377498 -0.263547 0.179627 -0.149637 0.209019 -0.335733 -0.680993 0.041822 0.829963 0.083172 0.349994 -0.307693 -0.018365 0.058315 0.825506 -0.638835 0.113085 0.603946 -0.135376 -0.313072 -0.255337 -0.038524 -0.443428 0.477083 0.039780 -0.062027 -0.439087 -0.231514 0.404191 0.124716 0.053927
记得 0.407392 0.400852 0.910975 -0.947880 0.115851 0.347344 -0.752258 -0.077697 -0.181278 -0.575971 0.016394 0.558555 -0.074012 -0.859508 0.406688 0.096117 0.048449 0.510642 0.387644 0.539445 -0.538656 0.232882 -0.911476 0.144940 0.219387 -0.621335 -0.421223 -0.223888 -0.080179 -0.171570 -0.421550 0.308085 0.431667 0.450914 0.040130 0.013662 0.140737 0.392040 0.097736 -0.116356 -0.396086 -0.095650 0.308569 -0.009554 -0.203568 -0.646985 -0.410493 0.159714 0.313520 -0.760592
完全 0.221059 -0.005949 0.320592 1.328923 0.494315 -0.137397 0.424885 0.235137 0.595104 -0.523631 0.248419 0.251602 0.627307 -0.106923 -0.173193 0.061166 -0.225352 -0.421262 0.051235 -0.355557 0.214403 0.369210 0.122750 -0.342964 -0.041318 -0.151990 0.251772 -0.927388 0.259097 -1.024254 0.026847 0.000029 -0.167726 -0.028919 -0.421433 0.161794 0.037884 -0.129864 0.147338 -0.170336 -0.176661 -0.045655 -0.158665 0.056192 -0.255882 0.205843 -0.563054 -0.288362 -0.061045 -0.149768
一点 -0.418117 -0.725712 0.301614 0.261013 0.559957 -0.020582 -0.779501 0.003764 0.721924 -0.767006 0.153943 0.003519 0.154465 0.261979 -0.065804 0.041939 -0.210139 -0.039745 0.282982 -0.330989 0.331262 0.101174 -0.126691 -0.451538 -0.369529 -0.211886 -0.091899 -0.387062 0.248911 -0.274519 -0.068696 0.085279 -0.319030 0.307555 -0.219296 -0.137375 0.048597 0.360845 -0.318978 -0.330730 -0.143173 -0.304098 0.067597 0.118255 0.201812 -0.118995 -0.276960 0.103416 -0.038290 -0.094741
妈妈 0.274041 0.914084 -0.265858 -0.405330 0.076239 0.372746 -0.102191 -0.598534 -0.379797 -0.033163 0.081565 0.472504 0.041335 -0.111753 0.095095 0.369019 0.003969 0.523093 0.135315 0.586563 -0.087758 -0.129627 0.118385 0.106318 0.069256 -0.529133 0.362407 -0.077939 0.032983 0.501758 -0.062933 0.316577 -0.044035 -0.009282 -0.079757 0.208601 0.283834 -0.177304 -0.161505 0.206919 0.279923 0.564791 -0.140083 -0.174340 -0.050411 -0.312857 -0.173731 0.153216 0.633775 0.143664
它们 0.044710 -0.234089 0.461336 0.532157 0.168224 -0.181074 -0.166413 -0.127035 0.116240 0.069828 -0.440397 0.320259 -0.214008 0.534983 0.359523 -0.733579 -0.537780 -0.055751 0.669358 0.121408 -0.045548 0.698027 -0.731219 0.225727 0.032870 -0.213538 -0.275945 -0.114177 0.361658 -0.655171 -0.371763 -0.327465 0.126229 -0.307428 -0.243004 0.387880 0.347987 -0.403169 -0.401664 -0.017893 0.270934 -0.133515 0.495647 -0.101031 -0.388676 0.314444 -0.136109 0.304537 0.298931 -0.257039
高兴 0.281393 0.025236 0.122669 0.230340 0.468454 -0.022723 -0.763172 0.295157 0.080444 -0.698481 -0.049457 0.326883 -0.124343 0.266112 -0.468755 0.409905 -0.683323 0.021906 1.155761 0.027984 0.120203 0.654275 -0.044819 0.348906 -0.682598 0.105044 -0.265640 -0.196007 0.151569 -0.216102 -0.229842 0.277479 -0.254238 0.286060 -0.295814 -0.002720 0.469997 0.662816 -0.230046 0.754270 -0.983655 -0.375346 -0.395241 0.417377 0.137560 -0.449675 0.632930 0.448193 0.437114 0.000190
不敢相信 0.245606 0.174137 0.269026 0.005146 0.039703 0.207989 0.217743 -0.309722 0.382400 -0.287019 -0.078663 0.916142 -0.009937 -0.205825 -0.148736 0.094402 -1.307219 0.213324 0.215455 0.417054 -0.307050 1.366720 -0.504681 0.321290 0.547015 0.033361 0.079938 -0.496327 -0.616838 -0.520850 0.495930 1.020652 -0.266554 -0.630965 -0.005099 0.370385 0.619866 0.334424 0.613797 0.248082 0.576095 0.143808 -1.166685 -0.185134 0.158640 -0.374985 0.699425 -0.531151 0.409398 -0.658845
