I -1.291410 -1.154206 -0.706505 -0.759575 0.270126 -0.764817 -0.531146 -0.339129 0.998403 0.050209 0.390806 1.583209 -0.084376 -2.991556 0.262581 0.435919 2.114871 -0.554953 0.937777 -0.554725 -1.335309 -1.025057 0.733996 -1.294006 -1.253709 -0.182237 0.416183 1.460377 1.095293 1.394414 -0.682405 0.785370 -0.815541 -0.131719 0.578678 -1.254258 -0.490866 1.331945 -1.573667 -0.561987 0.534404 -0.810883 -1.241194 0.608585 -1.827131 -0.073082 1.309117 0.128022 -0.035833 0.289700
you -1.305683 -1.148635 -1.085727 -0.578301 -0.399703 0.282885 -0.771847 -0.629002 -0.681004 -0.783659 1.204727 -0.424860 -0.176205 -1.739857 -0.972556 -0.045799 0.291331 -1.423686 -0.233342 -0.275978 0.928965 -1.082665 -1.269701 -0.365463 -0.404724 0.506922 0.262012 -0.223560 0.947269 0.621277 -0.961646 -0.498564 -1.892570 -0.487455 0.354084 -1.052190 0.703643 0.067726 -0.951070 0.455452 1.089361 -0.750303 -0.729916 1.019301 -0.715935 -1.161063 2.186080 1.191655 1.612267 -0.400059
the -2.105122 -0.307200 -1.872420 -1.322967 -0.593963 -0.149736 0.487969 -0.298564 0.886565 -0.462945 1.629167 -0.814053 -0.937981 0.137294 0.171887 -0.919810 0.144375 -0.566592 0.747533 -1.551927 0.040470 -0.527078 -0.924618 -0.267019 -0.883463 0.283112 -0.704301 0.282983 -0.107036 -0.524377 0.844193 1.271324 -0.803440 -0.180982 -1.044890 0.726192 -0.391663 1.040678 -1.385828 -0.554243 1.362907 0.323353 -1.571234 -0.333939 -0.693259 0.440449 2.368196 -0.348056 1.394107 -0.010070
to -1.137895 -1.426868 -0.597427 -1.406623 -0.900842 0.474572 -1.014613 0.305660 0.652041 0.152236 -0.696161 0.397329 -1.202694 -0.853892 0.385873 -1.588363 0.541866 0.163227 1.546881 -0.472579 0.403146 -0.896545 1.191912 1.175566 -0.931254 -0.361712 0.508546 0.572294 0.152297 0.300235 -0.283921 -0.367148 -0.219991 -0.463368 0.393365 -1.086485 -0.578963 -0.029519 -0.535618 1.658928 0.890386 -0.157504 -0.150113 0.565814 -1.291924 -1.252058 2.585743 -1.485554 1.302540 0.660314
a -0.569278 -0.641536 -0.282285 -0.287251 -1.025907 -0.487467 -1.294746 0.449284 0.269920 0.688605 1.110517 -0.845744 -0.540600 0.045348 0.025871 -0.309709 1.047025 0.806113 -0.410951 1.543037 -0.475403 -1.010553 -0.313936 -0.300769 -0.560639 -1.069939 0.303822 1.327573 -0.019867 1.505783 0.704074 0.375100 -1.354671 -1.311692 -1.641478 -0.893431 -0.152249 0.558382 -2.451085 -0.471279 -0.872226 0.307924 0.558429 0.305358 -1.782489 -0.826395 0.659406 0.711683 1.632236 -0.590184
s -1.066404 0.576655 -0.742770 -0.865322 0.511573 -0.533539 -0.881074 -1.526897 1.198201 0.896523 0.719350 0.409639 -1.054521 0.002187 0.977572 1.180956 0.643756 0.442119 0.398765 -0.209066 1.018270 -0.896594 -1.336176 0.503526 0.098166 -0.540749 0.878293 -0.318928 -0.323788 1.710118 0.519997 0.691135 -0.833703 -0.852368 -0.610226 -1.035322 -0.726730 0.090144 -1.162361 0.131141 0.783464 0.215653 0.637756 0.315328 -0.088620 -0.074843 0.873275 0.328967 1.065428 -0.409010
that -0.521675 0.179590 -1.087788 -0.922563 0.488087 -0.070465 -0.333025 -0.289683 0.089299 0.758202 0.558600 0.100646 -1.506830 -0.173991 -1.202448 -0.206509 0.913881 -0.412282 0.497672 -1.355574 0.490683 0.067910 -0.202388 -0.267861 0.644744 0.118478 0.299694 1.027946 0.606715 0.007139 -0.110467 0.329603 -0.580829 -1.326167 -0.048033 -1.690484 -0.730628 0.976308 -1.272972 -0.021381 0.058214 0.135204 0.205837 0.097907 -1.113486 0.140313 1.374681 -0.628971 -0.018069 -0.493482
it -0.057250 -0.277958 -0.526815 0.146394 1.172387 -0.708645 -0.490261 -0.668536 1.173913 -0.478602 -0.224158 -0.067878 -0.640288 -0.882742 -0.775710 0.205079 0.272851 -0.140687 -0.081063 -1.260085 0.000209 -1.139128 -0.097924 0.883827 0.332368 -0.611915 0.797254 -0.080791 0.713219 -0.522794 0.483336 0.554214 -1.209861 -1.654508 -0.356523 -0.696002 -0.690080 1.159860 -1.186759 0.662779 0.160854 0.135548 0.324156 1.052933 -0.541528 -0.627765 1.564724 0.023043 0.563454 -0.513475
and -1.078272 -0.248535 -1.122364 -0.529317 -0.860215 0.132037 -1.194164 -0.188466 0.139696 0.909828 0.834608 1.033476 -1.039062 -0.877557 0.038280 -0.675678 1.294410 -0.161322 1.354407 -1.278032 -0.592777 -0.402257 -0.789731 -0.426972 -0.624326 -1.481958 -0.680749 0.578639 0.353159 -0.225767 0.593814 -0.060880 -1.863370 -0.063166 0.093163 -0.549437 -0.103793 -0.596687 -0.264602 -0.802422 0.473610 0.498864 0.799464 -0.090097 -0.145990 -0.648754 0.833113 0.098686 0.652237 -0.578644
is -1.235470 0.655630 -1.170803 -1.043700 -0.737000 -0.896217 0.661324 0.019379 -0.182320 0.318883 0.788720 -0.084353 -0.513934 0.665503 0.338108 0.808044 1.100923 0.621563 0.106213 -0.306957 0.092319 -0.511215 -0.452550 1.211939 -0.090017 -0.663319 -0.299054 -0.173646 -0.757226 1.306558 -0.863728 0.428307 -0.427545 -1.179431 -0.178500 -1.175971 -0.215254 0.372883 -0.361238 -0.617999 -0.899660 0.288786 -0.388648 -0.116344 -0.676150 0.190915 0.765849 -1.035067 0.963566 0.229925
my -0.692290 0.730156 -0.968078 -0.718764 -0.050853 -0.790912 0.372444 -0.133477 1.197325 0.991438 0.085991 0.222341 -0.278635 -0.690485 0.219751 -0.339542 0.519149 0.520067 -0.272473 -0.888958 -0.850836 0.772242 -0.092774 -0.493047 0.446846 0.417454 0.150274 -0.052924 0.669703 0.221737 -0.000713 -1.254520 -1.325407 -0.755366 -0.583509 0.966113 0.010373 -0.721492 -1.278470 -0.916703 0.141786 0.758788 -0.449273 0.015881 -0.031315 -0.597212 2.199882 -1.230167 0.619780 0.395579
just -0.368841 -0.961209 -0.316327 -0.488556 0.026115 0.245606 -0.842780 -0.218495 0.646410 0.506344 0.162550 0.631182 -0.915548 -0.894070 0.198677 -0.964771 0.767736 -0.463790 0.241098 -0.570622 0.231994 -0.397651 -0.082362 0.447673 -0.082420 -0.687665 -0.111355 0.530396 0.539274 0.554014 -0.491039 0.008352 -1.375564 -0.532892 -0.233777 -0.212573 -0.232353 0.065277 -0.904452 0.433677 0.855257 -0.646741 -0.130243 0.414754 -1.396562 -0.450615 1.111860 0.219686 0.726112 -0.202062
of -0.681169 -1.482680 -1.814781 -1.252120 0.209116 -0.857102 0.100831 -0.062174 0.466602 0.606171 0.823674 -0.402818 -0.419318 0.992179 -0.352129 -0.662270 -0.132106 0.354785 -0.270149 0.090936 -1.009797 -0.473144 -0.146491 -0.292296 0.220988 -1.043048 -0.546629 0.830023 0.492060 -0.491676 -0.205585 0.569492 -0.838794 -1.717862 -1.211574 -0.541858 0.789522 -0.029324 -0.635799 -0.447731 0.597976 -0.178078 1.237548 0.559506 -1.323882 0.639610 1.302604 0.080913 1.299750 0.381135
in -1.149445 0.657543 -0.669229 -0.363105 -0.887206 0.475398 0.135739 0.448445 0.448290 0.338614 1.632066 -0.524080 -0.838247 0.377748 -0.184068 -0.200732 0.762501 0.052497 0.031057 -0.962040 0.247479 -0.654780 -0.455645 0.471971 -0.405028 -0.262880 -1.423836 0.165590 0.477165 0.468583 0.041707 0.207546 -1.002304 -0.646709 -0.132039 -0.018837 -0.987731 0.303237 -0.538761 -0.037141 0.074479 -0.029434 -0.058476 0.244570 -0.486492 -1.176331 1.279131 0.209788 0.477863 0.042504
t -1.694674 0.014229 -1.410362 -0.467772 0.106753 0.267192 -0.428348 -1.028659 0.621802 0.784424 0.361964 -0.125421 0.199931 -1.130861 0.946582 -1.042415 0.908076 0.379609 -0.986180 0.163231 0.515557 -0.570960 0.151645 -0.404683 0.370800 0.133502 0.706369 0.653221 1.983863 1.406460 -0.099436 1.389095 -1.035904 -1.315997 -0.079036 -1.316920 0.304491 -0.331969 0.285160 1.106550 0.850519 -0.235985 -0.120213 0.039885 -0.812586 -0.587015 0.493374 -0.504554 -1.010705 -0.063460
have -1.533180 -0.872015 -1.111537 0.291574 -0.764495 0.194250 -0.563117 -0.212765 0.159978 -0.200421 0.069344 0.006196 -0.137837 -0.473752 -0.002219 -0.308812 0.157748 0.183916 -0.171718 0.435387 0.879024 -0.926652 0.673491 -0.871070 -0.390289 -0.325122 0.011827 0.983486 0.204690 0.828236 0.043999 0.311189 -0.909631 -1.175488 -0.833009 -0.363092 -0.204231 -0.292958 -0.525856 0.128957 0.014082 -0.513780 0.318249 0.595048 -1.537715 -0.881309 1.165926 0.074096 0.119783 0.367274
You -1.461317 -0.110370 -0.561224 0.010256 0.228162 0.622867 -0.117167 0.091822 0.967211 0.142633 -0.236717 -0.053137 0.201528 -1.205007 0.941717 -0.148166 0.489036 0.105959 -0.060137 -0.039820 0.769651 0.303944 0.394549 -1.073135 0.000032 1.145783 0.130682 -0.463929 0.900009 0.362930 -1.140237 -0.143856 -0.372479 -1.029358 -0.851768 -0.590380 -0.572973 -0.149008 -0.073728 -0.678694 -0.202012 -0.975289 -0.370404 0.587207 -0.191915 -1.020270 1.194459 0.302541 0.079615 -0.171839
was 0.920253 0.528349 -0.972443 -0.907679 0.210702 -0.902945 -0.337617 -0.152601 1.002077 0.373299 0.669365 0.190800 -1.259183 -0.624158 -0.432487 0.161957 0.559730 0.574916 0.354309 -1.109326 -0.245172 -0.199547 0.082152 -0.348308 -0.185845 -0.273397 -0.107383 0.204913 0.023840 0.703875 -0.059218 0.307042 -0.928750 -0.608964 0.516287 -0.305932 -0.476197 0.657393 -1.417644 0.338624 0.734204 -0.362791 1.228431 0.425259 -0.452522 0.523419 1.204034 0.666503 0.750042 -0.770961
we -1.421999 -0.386878 -1.480516 0.646283 0.035904 0.747942 -0.804488 0.412490 -0.812159 -0.173629 -0.035425 0.285407 -0.859818 -0.886709 -0.712710 -0.049735 0.607745 -1.602555 0.877822 0.153214 0.339293 -0.147319 0.974781 0.335523 0.836048 -0.171757 0.304344 0.627807 0.806308 -0.012051 0.242765 0.790332 -1.229923 -1.169609 0.187151 0.322527 0.153722 0.788485 -0.495116 0.218147 0.990534 -0.268250 -0.451770 -0.182534 -0.925336 -0.651073 0.589387 0.412117 0.604770 -1.010053
not -0.746510 -0.143442 0.112973 -0.262012 0.071443 0.564553 -0.267537 -0.224710 0.474643 0.611574 0.152228 0.392557 -0.867754 -0.369522 -0.326434 0.294929 0.226196 0.548968 -0.259474 -0.104539 0.980229 0.216242 -0.144525 0.683860 0.408173 -0.979405 0.207086 -0.357496 -0.703072 1.734687 -0.287950 1.000973 -0.256551 -0.733674 -0.677928 -0.184378 0.155110 -0.027472 -0.805109 -0.232265 0.108953 -0.520979 -0.449451 1.446298 -0.927773 0.159416 1.078550 -0.336377 1.572768 0.262755
with -0.880503 0.390531 -0.686241 -0.659435 -0.179418 0.650619 -0.115641 0.831427 0.335685 0.427020 1.151318 0.050220 0.133945 -0.545964 -0.626676 -0.850333 -0.055176 0.881721 0.123793 -1.132072 -0.362779 -0.920613 0.637917 -0.235662 -0.789427 0.465965 -1.078192 0.626887 0.818000 0.760350 -0.047160 0.094410 -0.415871 -0.923663 0.396784 -1.152364 -0.679195 -0.203697 -0.759569 0.067663 -0.235544 0.146557 0.727684 0.355436 0.424078 -0.658080 1.122840 -0.109482 1.100785 0.448899
this -0.775173 0.143016 -1.163888 0.383528 -0.545075 -0.942866 0.349367 -0.099128 0.010585 0.135463 0.755206 -0.485187 -0.824110 0.434177 -0.893332 -0.276979 0.924009 -0.248018 0.157664 -0.477458 0.431185 -0.485102 -0.056838 0.575808 -0.750630 -0.672034 -0.165209 0.915805 -0.046799 -0.321693 -0.559508 -0.035109 -0.521982 -1.145658 -0.408032 -0.903112 -0.162833 0.375327 -0.576531 -0.502514 -1.052445 0.157382 -1.119751 0.172401 -0.599810 -0.221357 0.825013 -1.001219 0.399915 0.078745
do -1.248336 -0.239430 -1.266158 0.433766 -0.235852 -0.736252 0.004835 -0.566246 -0.026483 -0.991225 0.066887 -0.259382 -0.378198 -0.667566 0.098749 1.047905 -0.167782 -0.011502 0.557278 -0.161232 0.470089 -0.638240 0.668740 0.303425 -0.517465 -0.724455 -0.608778 -0.241252 1.256399 0.573178 -1.471954 0.254554 -0.761749 -1.438021 0.540395 -1.480384 0.564629 0.451824 -0.045642 0.133073 0.081703 -0.059317 -0.933181 1.190918 -0.322746 -0.574407 0.716001 -0.139787 0.323341 0.094038
I'm -0.150173 0.352659 -0.114566 0.539315 0.746863 0.463449 0.183243 -0.117468 0.550487 0.539829 0.938346 1.002069 -0.603975 -0.648986 -0.641259 -0.388350 -0.692682 0.352718 -0.543492 -1.811156 0.032039 -0.019484 0.135299 0.488055 0.165685 -0.916822 -0.264282 -0.207902 -0.098401 1.478773 -0.792458 0.993847 -0.321257 -0.122628 0.227568 0.547184 0.155836 0.085196 -0.552074 0.043530 -0.379482 -0.786907 -0.024996 1.287508 -1.385914 -0.058878 0.413727 -0.773948 1.168132 0.479742
for -0.132223 -0.682812 -0.074031 -0.197789 -0.479224 0.413259 -0.160002 0.081684 0.659137 1.440965 0.675424 0.429321 -0.572115 -0.690946 -0.461771 -0.701524 1.094277 -0.102495 0.957930 -0.171306 0.021307 -1.224506 -0.292224 0.198541 -0.498172 -0.020576 0.076786 0.199021 0.240722 0.354728 -0.410578 -0.049284 -0.052764 -1.057217 -0.513809 -0.365804 -0.499986 -0.234917 -0.424040 0.102971 0.529496 -1.045615 0.516083 -0.158778 0.056704 -0.292950 1.207716 -0.455788 1.592467 0.982067
"Oh, -0.556265 0.295958 -0.824665 0.108305 0.045649 -0.598399 -0.226853 -0.609179 -0.130409 0.115964 0.471865 0.546520 -0.310452 -0.660321 -0.024863 0.098439 0.559392 -0.600548 0.067965 -1.043448 0.116602 -0.371801 -0.492277 0.179624 -0.228810 0.047518 1.369069 -0.093595 0.073612 0.801339 -0.466354 0.029606 -0.702383 -0.487372 0.587885 0.340409 -0.056305 0.119151 -0.167269 -0.229935 -0.100000 0.259204 -0.688060 -0.166195 -1.476932 -0.549555 0.298738 -0.896581 0.313074 0.231923
be -1.171683 -0.667953 0.072628 -0.255873 -0.704417 1.111410 0.272813 0.235718 0.649996 0.476959 0.328276 1.134720 0.228820 -0.644145 -0.691977 0.194064 1.054121 0.238415 0.381878 -0.654991 0.425834 -0.596877 0.427285 1.266420 0.193936 -0.133576 0.677281 0.183096 -0.248059 0.330657 0.576823 -0.015592 -0.734876 -1.035747 -1.564638 -0.891152 -0.727031 0.968946 -0.543554 0.431855 -0.006913 -0.592031 -0.377963 1.099311 -0.023564 -0.268605 1.009730 0.720400 -0.154302 -0.220228
me -1.220201 -0.532028 0.188340 -0.324288 0.125389 -0.537045 -0.421229 -0.538377 0.537301 0.955930 0.175203 -0.076765 -0.118200 0.345649 -1.167578 -1.045065 0.283216 -0.107197 -0.265536 -0.444455 0.284617 -0.486103 -1.110046 -0.284359 -0.013547 -0.269462 0.318875 0.046106 1.120485 0.439277 -0.287028 -0.529557 -0.318866 -1.015361 0.339451 -0.952826 0.319050 -0.567661 -0.103456 0.724009 0.076020 0.282382 -0.051390 1.493397 -0.095257 -1.586390 1.666350 -0.502017 0.727404 -0.158531
are -0.911146 0.158207 -0.960988 -1.369770 -0.693908 0.308346 -0.298413 0.163463 -0.817914 -0.393813 0.905719 0.116197 -0.312619 -0.451437 0.005962 0.150416 -0.088111 -0.354428 0.410334 0.045167 0.892864 0.902134 0.393665 0.416952 0.106858 0.585677 -0.117486 -0.445489 -0.489049 0.876176 -1.122884 -0.898353 -1.318553 -1.339341 0.129330 -0.453295 0.162253 -0.205095 -0.170508 -0.941490 0.774471 -0.100564 0.359287 0.526655 0.306085 -0.053453 0.950356 0.577344 1.438737 -0.315443
your -0.615312 0.121026 -0.769738 -1.054281 -0.035906 0.328470 0.041573 0.677722 0.603356 0.697464 0.830147 -0.058143 0.300416 0.920529 -0.124038 -0.465710 -0.233041 0.330625 0.150812 -0.417958 -0.901484 -0.271893 -0.732842 0.355299 0.005132 -0.096441 -0.459103 0.027114 0.683644 0.427491 0.026983 0.340926 -0.358818 -0.458481 -0.701848 -1.005224 0.000945 0.613093 -0.931168 -0.353110 0.205946 0.482228 -0.119097 0.303459 -0.260885 -0.197455 0.943911 -0.229571 0.615832 0.258737
m -0.208863 0.479316 -0.092885 -0.155675 0.588422 0.569986 0.016822 0.265524 0.803230 0.673724 0.499631 1.526066 -0.267887 -0.981614 -0.073404 -0.376211 0.121232 0.204810 0.113588 -0.790309 0.020384 0.019259 0.430276 0.481068 -0.060860 -0.638963 -0.114176 0.010344 0.185085 2.005783 -1.001401 0.725798 -0.971888 0.180478 0.054865 0.034406 0.066568 0.340965 -0.961148 -0.410234 0.467836 -0.727460 -0.466758 1.177616 -1.464278 0.129251 0.279973 0.238927 0.900764 0.432178
what -0.985204 0.520858 -0.392068 -0.817138 0.402434 -0.616595 -0.644345 -0.389684 -0.130643 -0.539059 0.129466 0.292916 -0.362430 -0.274011 0.125846 0.578918 -0.173827 -0.549250 0.331760 -0.581761 -0.349442 -0.054751 -0.019221 0.448977 -0.201690 -0.292509 0.088091 -0.614490 0.266218 0.804839 -0.804952 -0.129440 -0.535962 -0.781503 1.136306 -0.982026 0.059316 0.472580 -0.582003 -0.364809 -0.118184 0.291437 0.124290 0.364666 -0.436093 -0.416585 1.463694 -0.461316 1.040474 -0.609475
so -0.650799 0.592109 -0.116184 -0.323529 -0.010680 -0.066071 0.065447 -0.268451 0.021188 1.240631 0.846971 1.147261 -0.641176 -0.558967 -0.888990 0.143237 1.107473 -0.193177 0.474282 -0.553024 0.086548 -0.130237 -0.189212 0.090868 0.544469 -0.274703 0.164563 -0.185499 -0.224746 0.885091 -0.940707 0.185765 -0.432074 -1.157744 -0.119235 -0.357649 0.195083 0.129867 -0.250252 -0.656408 -0.223418 -0.326939 0.039932 0.431051 -0.458920 0.149935 0.125314 -0.077850 0.995508 -0.248024
like -0.098916 0.642945 -0.328260 0.501904 -1.310735 0.002846 0.082745 0.243034 1.025562 0.205812 0.721160 -0.381183 -0.756552 -0.577058 -0.652708 -0.396043 0.537534 0.776171 -0.077207 -0.589043 1.150173 -0.645077 -0.456378 -0.272325 0.367135 -0.398224 -0.105025 0.149165 0.937126 0.146040 -0.795782 0.306634 -0.572113 -0.218193 -1.265223 -1.207673 -0.429597 0.436156 -0.878256 -0.187167 -0.495819 -0.531976 -0.538195 -0.068633 -0.937643 -0.142595 0.744950 -0.300184 0.648940 0.133271
gonna -1.273768 0.077778 -0.410645 0.026152 0.187454 0.889287 -0.477100 0.282471 0.484169 0.700384 0.094529 0.751611 -0.756875 -0.087681 0.153027 -0.181579 -0.022149 0.661094 0.256057 -0.630275 1.087360 0.442523 0.246884 0.671048 0.117944 -0.988142 -0.447027 -0.225117 0.310747 1.471686 -0.181699 -0.072275 -0.989498 -0.304048 -0.184017 -0.668997 -0.174648 -0.421155 0.018263 0.200103 0.348503 -0.029669 -0.226278 1.438795 -0.282018 -0.973825 1.009272 -0.074753 0.740030 -0.016472
on -0.641011 -0.169980 -0.910626 -0.337919 -0.292634 0.251003 0.495072 0.939133 0.137192 0.666596 0.895509 -0.009543 -0.072491 0.510206 -0.213951 0.047004 0.232356 0.281837 0.253594 -0.255306 -0.379652 -1.016761 -0.212435 0.551628 0.155182 0.347945 0.144906 0.376684 0.482034 0.557423 0.412023 -0.079561 -1.101390 -1.073096 -1.007179 -0.104621 0.054057 0.365842 -0.459471 0.205405 0.615369 0.208114 -0.251319 0.217545 0.303708 -0.695959 0.978946 -0.302237 0.590869 0.521315
"Well, -0.577157 0.076309 -0.440638 0.376527 0.340044 -0.090370 -0.741269 -0.168066 0.328928 -0.216935 0.303444 0.236378 -0.618722 -0.410651 -0.265623 0.079984 -0.006359 -0.601808 0.147863 -1.077025 -0.066448 -0.115774 -0.623350 -0.193701 -0.249892 -0.530700 0.611792 0.172759 0.562797 0.820421 -0.048155 0.590764 -0.894870 -0.023419 0.408290 0.000837 -0.120526 0.877050 -0.567267 0.156301 0.013537 -0.320262 0.268558 0.187380 -1.679963 -0.620451 0.767254 -0.381958 0.634103 -0.806001
can -1.297532 -0.498580 -0.962825 0.051448 0.400226 -0.161429 -0.391279 -0.397934 -0.288572 -0.117864 0.216611 -0.251280 0.119988 -0.320331 0.042011 -0.557583 0.376737 -0.794995 0.121560 -0.014179 0.203937 -0.787067 0.120240 0.056888 0.237323 0.320421 -0.011288 0.609513 1.452841 0.583736 0.044314 0.309235 -1.035790 -1.235484 0.209023 -0.699435 0.302848 0.157885 0.004869 0.747030 0.822279 0.033913 -0.465700 -0.319768 0.009699 -0.836145 0.697072 -0.470128 0.002578 -0.429692
know -1.071409 0.044383 -0.986193 -0.703946 0.164601 0.454275 -0.802984 -0.700286 0.707511 -0.343494 -0.160931 -0.320753 -0.175803 -0.831206 0.681328 -0.180000 0.160130 0.001864 -0.269838 -0.544796 0.207195 0.420153 -0.197778 -0.065044 -0.557524 -0.326988 0.299591 -0.103171 0.833248 0.099981 -0.766502 1.001322 -0.798445 -0.609563 0.731455 -1.260976 0.424663 0.780803 -0.400708 -0.497800 -0.362783 -0.263209 0.560059 -0.084328 -0.890538 0.033715 1.232098 -0.186905 0.557681 -1.007821
think -0.629391 0.068895 -1.102442 0.212017 -0.116493 0.519510 -0.106324 -0.277270 0.749500 0.700647 0.018881 0.206229 -0.166919 -0.873010 -0.156472 -0.043423 0.682672 0.272613 0.071310 -0.314531 0.252739 0.064140 -0.288371 -0.494687 -0.027151 -0.722225 0.845686 0.313924 0.841624 0.497405 -0.180267 0.834813 -0.654055 -0.678740 -0.578732 -0.612634 0.304505 0.516015 -0.531510 -0.220700 0.168938 -0.346722 -0.154662 0.381980 -0.893019 -0.334761 0.367053 0.030364 0.020265 -0.235528
get -1.366838 -0.624742 -1.226295 0.518952 0.344604 0.205387 -0.218313 0.284012 0.564871 0.357779 -0.015218 0.090603 -0.076441 0.112301 0.245643 -0.594750 0.522460 -0.194519 0.391891 0.421718 -0.342877 -0.402823 0.377802 0.211581 -0.169136 -0.784345 -0.553443 0.302596 1.396225 0.502495 -0.520183 0.037008 -0.865179 -0.376444 -0.303551 -0.337107 0.211611 0.033583 0.057982 0.138232 0.331993 0.007669 -0.947251 0.487153 -0.648860 -0.777354 0.640575 0.320196 0.857051 0.257443
but -0.474822 -0.112717 -0.706718 0.072772 -0.326402 -0.464066 -0.420029 -0.562978 0.169777 0.222994 0.595478 0.929810 -0.392639 -0.546762 -1.058754 -0.261252 1.069707 0.129629 -0.418440 -0.752525 -0.030657 -0.735587 -0.288165 0.277011 0.137847 -0.748891 0.694468 0.357857 0.545481 0.904443 0.243167 0.914751 -0.899786 -0.236030 0.336052 -0.429902 0.347621 0.531048 -0.227219 -0.249584 -0.049503 -0.306977 -0.242239 0.328766 -0.917325 0.191144 0.815024 -0.749269 0.221389 -0.230227
"Yeah, -0.301655 0.101630 -0.516450 0.482065 0.160934 -0.142261 -0.359618 -0.683388 0.051752 0.499542 0.526425 0.770881 -0.443088 -0.715174 -0.898210 -0.121510 0.525548 -0.867022 0.043869 -1.040703 -0.113220 -0.196923 -0.590471 -0.016200 0.104490 0.082984 1.248596 0.327764 0.364198 0.498187 0.125932 0.573921 -0.480197 -0.362584 0.294223 0.687111 0.016481 0.475718 -0.341635 -0.051001 0.411853 -0.301230 -0.323909 -0.071987 -0.981135 -0.185861 0.215679 -0.799648 0.338730 -0.456712
about -0.125282 0.014422 -1.580540 -0.897430 -0.301478 -0.150677 -0.055799 -0.515372 0.624409 0.658546 0.358863 0.025143 -0.795564 -0.419377 -0.629775 -0.434714 -0.155291 0.275794 0.906728 0.094925 -0.202280 0.217623 0.938126 -0.275427 -0.027913 -0.350817 0.267058 -0.149612 0.861808 -0.288653 -1.255309 0.313499 0.549199 -0.805090 0.744296 -1.467801 0.980024 0.362976 -0.330256 -0.088853 0.848652 -0.415457 0.232157 0.614860 -0.264644 0.560622 0.941082 0.180864 1.086835 0.353129
re -1.100636 -0.418485 -0.257901 -0.132382 0.595752 1.880650 -0.264497 0.056629 0.161074 0.606306 0.027844 -0.146343 -0.498634 -0.445088 -0.050283 -0.301304 -0.135680 -0.292870 -0.000536 -0.421009 1.185377 1.500932 -0.004899 0.144610 0.425424 0.040407 0.158346 0.230801 -0.523435 0.789048 -0.447748 0.800315 -0.534923 -1.677957 -0.912840 0.553067 -0.082810 -0.159258 -0.400697 -0.403456 0.215202 -0.153524 -0.025829 1.140912 -0.377335 -0.665511 0.434893 0.356726 1.056866 -0.266467
What -0.347386 0.698000 -0.795970 -0.596969 -0.185286 -0.705946 0.038515 0.061094 -0.212296 -0.950970 0.099714 -0.722889 -0.491098 -0.214223 0.035967 0.957367 -0.584889 0.327404 0.348769 0.144145 0.444060 0.405309 0.714654 -0.028970 0.050378 0.158193 -0.293645 -0.911854 0.040278 -0.003351 -1.351679 -0.656014 -0.036293 -0.943079 0.439526 -0.943659 0.225707 0.295454 -0.319118 -0.557976 -0.013242 0.098115 0.078781 0.381816 0.479639 0.297139 0.976871 0.300689 0.929744 -0.327098
don -1.284962 0.009538 -1.246563 -0.361531 -0.005062 0.469652 -0.278240 -1.041941 0.354955 0.237917 0.005789 -0.180045 0.225324 -0.877499 0.570564 -0.857870 0.435355 -0.408875 -0.529179 -0.145634 0.713675 0.063518 -0.024183 0.005371 0.112517 0.004738 0.988846 0.473194 1.328067 1.016312 -0.218430 0.918052 -1.036121 -1.058352 0.159528 -0.416998 0.348676 0.188972 0.183737 0.583153 0.726638 0.142409 -0.541860 -0.190472 -1.400464 -0.513659 0.161959 -0.608511 -0.758001 -0.238118
Oh -0.206625 0.916790 -0.027050 -0.209221 0.031852 -0.842123 0.054015 -0.491996 0.708802 0.630059 -0.443734 0.309152 -0.068076 -0.767914 0.595313 0.721260 0.467681 0.402827 -0.409793 -0.013759 -0.020695 1.091484 0.188276 -0.505239 0.521561 0.744837 1.022950 -0.526640 0.022401 0.489520 -0.618850 -1.337696 -0.563397 -0.896884 -0.378845 0.850325 -0.252467 -0.529325 -0.578944 -0.997807 -0.621849 0.161966 -0.023434 -0.143334 0.103914 -0.448723 1.051635 -0.591835 0.074466 -0.019969
he -0.264392 -0.076024 -0.366454 -0.792691 0.156825 -0.134635 -1.027503 -0.201807 0.272893 0.054280 0.143970 0.212245 -1.132396 -0.513777 -0.148107 0.280772 1.149703 0.595996 -0.203888 -0.759255 -0.013866 -0.247435 -0.525350 0.377114 -0.205718 -0.871361 -0.071614 -0.096477 0.026833 -0.292298 0.829332 0.648233 -0.596093 0.222453 0.552259 -1.476539 -0.005427 0.457031 -0.092739 0.249394 -0.468430 0.054260 0.239236 0.258851 -0.194479 -0.252439 1.365920 -0.369902 -0.049316 -1.277483
don't -0.985688 -0.261978 -0.727329 -0.122881 -0.640889 0.756003 -0.152812 -0.334240 0.605354 -0.111062 -0.212151 -0.340192 0.520130 -1.138614 0.609636 -1.262201 0.559648 -0.181868 -0.529462 -0.217991 0.559357 0.151482 -0.077119 -0.297156 -0.772642 -0.435855 0.302412 0.441137 1.357615 0.710516 -0.991450 0.783764 -0.882892 -0.398415 0.233748 -0.758613 0.403394 0.033000 0.028360 -0.049578 -0.210103 -0.138650 -1.017590 -0.009298 -1.690652 -0.549716 0.108776 -0.466818 -0.403868 0.131155
"I -0.031528 -0.154734 -0.539636 -0.193381 0.070329 0.016895 -0.510757 -0.548155 0.932192 -0.227935 -0.004810 0.651407 -0.125975 -1.494941 0.606949 -0.835427 0.705374 -0.093359 -0.248516 -0.309988 -0.018592 -0.166493 0.026886 0.006967 -0.700483 -0.886663 0.237595 0.616358 1.137543 1.173437 -1.065807 1.483322 -1.185320 -0.048878 0.556873 -0.437721 0.283259 0.681061 -0.428062 -0.146220 0.408126 -0.631970 -0.767460 0.010356 -2.101096 0.306097 -0.044877 -0.198981 -0.152936 -0.123812
"Oh -0.818609 0.518781 -0.750105 -0.486545 0.540344 -0.688080 -0.077060 -0.657690 -0.385879 0.421668 0.329957 0.650549 0.080767 -0.909103 -0.303640 0.365527 0.361084 -0.975823 -0.420709 -0.775568 -0.420845 0.699194 -0.485466 0.259095 0.159203 0.550666 1.730056 0.181528 0.080703 0.785679 -0.080480 -0.883540 -1.361823 -1.072642 0.652279 1.144774 0.173265 -0.117609 -0.317723 -0.471911 -0.282746 0.670065 -0.406940 -0.248018 -0.725789 -0.600654 0.438776 -1.040843 0.021331 -0.301523
got -0.422414 -0.434297 -0.607574 0.773765 -0.263880 -0.634851 -0.973188 0.100342 0.594800 -0.101660 0.484931 0.446360 -1.010526 -0.046892 0.568362 0.288053 0.509062 0.040002 0.818050 -0.094794 -0.265039 -0.967417 -0.323991 -0.828450 -0.104891 -0.335638 -0.087930 -0.144748 0.732373 -0.485828 0.134829 0.160494 -0.586795 0.015054 -1.124549 -0.558843 -0.589333 0.440405 -0.017433 -0.390753 -0.088007 -0.980547 0.409295 -0.416350 -0.482097 -0.553634 1.154145 0.073167 0.275659 -0.210241
all -0.638873 -0.626701 -1.301323 -0.437512 0.462319 -0.095901 0.291983 -0.488840 0.585289 0.672858 1.373899 0.064429 -0.628024 0.072771 -0.128802 -0.374458 0.047678 -0.391816 0.655216 -0.746182 -0.084744 0.686778 -0.259425 0.287474 -0.546525 -0.367778 -0.127521 0.980248 -0.049867 -0.247189 -0.346862 0.081507 -0.383911 -1.447377 -0.854540 -0.025279 -0.206365 0.228653 -0.392913 -0.314038 0.594506 0.616887 -0.392860 0.525714 -0.036761 0.176613 0.207965 0.186445 0.437700 0.275263
at -1.119956 -0.382116 -0.213568 -0.754637 0.480586 0.215985 0.222507 0.160398 0.029814 0.333285 0.393886 0.030628 -1.019405 -1.050532 0.078114 -0.420444 1.044515 0.097807 -0.449463 0.244632 0.521262 -0.544760 0.064057 0.022324 0.356334 0.428810 -1.375037 0.983527 -0.246439 0.150767 0.393345 1.608269 -0.306847 -0.076746 -0.067243 -0.515121 0.073395 -0.544898 0.103910 -0.316443 0.228649 0.057736 -0.938766 0.564602 0.924989 0.567391 1.132995 -0.503213 0.757914 0.305235
out -0.677339 -0.248633 -0.669215 -0.816472 0.758639 0.390821 0.303293 0.784075 0.576964 1.099674 0.499243 0.636003 0.154171 0.291036 -0.317893 -0.703705 0.125360 0.501921 0.161373 -0.841635 -1.215696 -0.175953 0.380617 0.167718 0.068784 0.076983 -0.234032 0.417155 0.634780 0.662149 0.164819 0.008790 -0.413661 -0.680236 -0.035575 -0.294203 0.134523 0.003011 -0.362811 0.112410 0.533968 0.324129 0.586928 0.739817 0.430305 -0.593044 0.728968 0.062676 0.882058 -0.004543
it's 0.075310 -0.194960 -0.172977 0.144330 -0.191040 0.214815 -0.063587 -0.722345 0.307321 1.012871 0.236878 0.353358 -0.055586 -0.269525 -0.770676 -0.028626 0.563730 0.150650 -0.218650 -0.489863 0.668936 -0.119683 -1.010234 0.213369 -0.064029 -0.574496 1.254515 0.158449 -0.254489 1.030950 -0.211117 0.739220 -0.394909 -1.207685 -0.619871 -0.043376 0.382071 0.220556 -0.440393 -0.587090 -0.278662 -0.479643 -0.035935 0.266813 -0.899269 0.445449 0.149368 -1.016459 0.616082 0.230140
go -1.279798 -0.499665 -0.657691 0.086848 0.262066 0.474712 -0.057164 0.375981 0.633407 0.306253 0.260677 0.683061 0.332685 -0.073329 0.323980 -0.989538 -0.292751 -0.134547 0.439305 -0.607359 -0.672562 -0.333792 0.125092 0.331000 -0.328891 -0.376027 -0.302254 0.325535 1.078753 0.889961 0.091516 -0.281348 -1.129622 0.058484 -0.317316 0.081714 -0.193604 -0.117015 -0.512336 0.313747 0.704403 0.378426 -0.442561 0.735797 -0.432790 -1.104017 0.669661 0.058741 0.607730 0.426229
want -1.114699 -0.251750 -0.734539 -0.590991 -0.400804 0.265492 -0.198255 -0.123364 0.618939 0.007725 -0.608945 -0.452356 0.173828 -0.512357 0.246550 -0.726321 0.416594 0.180756 0.123464 -0.157214 0.411728 -0.489817 0.365829 0.092530 -0.271816 -0.277935 0.347345 0.053571 1.391198 0.260726 -0.576422 -0.058648 -0.421233 -0.597060 0.117343 -1.256440 0.032723 -0.082342 0.051856 0.750288 0.391776 0.052227 -0.487378 0.278357 -0.496924 -0.866560 1.099489 -0.558407 -0.204479 0.113356
"No, -0.762565 -0.362356 -0.568279 0.151795 -0.042156 -0.301949 -0.139341 -0.570878 0.093601 -0.065920 0.271198 0.510949 0.160548 -0.881249 -0.612621 -0.319648 0.673312 -0.531827 -0.929594 -0.386239 0.430929 0.103067 -0.109942 0.153340 -0.093780 0.049896 1.081059 0.426408 -0.089743 0.965814 0.071309 0.515564 -0.805827 -0.569519 -0.037781 0.835269 -0.005065 -0.143210 -0.235611 -0.487999 -0.027389 -0.192591 -0.778752 0.291848 -1.273790 -0.032547 0.662248 -1.107711 0.296639 0.191550
if -1.024965 0.065546 -0.424233 -0.024901 -0.102420 0.222773 -0.466897 -0.327719 0.164030 -0.215609 -0.091953 0.066062 0.063677 -0.473720 -0.858600 -0.171027 -0.111352 -0.436011 0.204159 -0.614437 -0.144549 0.086011 0.141873 -0.358466 -0.324779 -0.514932 0.487242 0.180129 0.577300 0.229687 -0.061588 0.141223 -0.593928 -0.814990 0.551908 -0.730379 0.035495 0.703692 -0.478312 -0.338720 -0.155092 -0.068639 0.149749 0.570967 -0.929866 -0.284564 0.826923 0.087329 0.553934 -1.027827
she -0.383598 0.003243 -0.777158 0.168211 0.195145 -1.045731 -0.488975 0.132173 0.234946 0.327082 -0.061839 0.240055 -0.865047 -0.074027 -0.982652 0.654761 0.864819 0.162369 0.025908 -0.907498 -0.148590 -0.947544 -0.392994 -0.222747 0.934201 -0.002865 0.645540 0.200781 0.513977 0.397430 0.580186 0.339128 -0.225738 -0.020970 0.120051 -0.541053 0.027510 0.179977 -0.083098 1.104994 0.370063 -0.229763 0.110185 0.535973 -0.271297 -0.243757 1.147002 -0.813647 0.272007 -1.217398
What? 0.221084 0.433327 0.179234 0.238622 0.353367 -0.218516 -0.219317 -0.456704 0.041449 -0.210779 0.001500 0.182092 -0.161423 -0.260989 0.224726 0.784280 -0.058896 -0.076145 -0.008045 -0.116601 0.090577 0.525963 0.154257 -0.023997 -0.081030 -0.030385 0.544613 -0.370625 -0.489283 0.021297 -0.221964 -0.007373 0.001486 -0.210997 0.112900 0.140972 -0.217328 0.247042 -0.208340 -0.484653 -0.227797 -0.033846 0.168622 0.052696 -0.191992 0.184649 -0.228457 0.284154 -0.134297 -0.361321
uh, -0.136604 -0.607166 -0.378922 0.392894 0.353899 -0.243067 -1.184137 -0.288607 -0.329601 -0.048277 0.473037 0.439462 -0.341754 -0.009822 0.532776 -0.154000 -0.260699 -1.259407 0.706130 -0.213625 -0.835977 -0.535514 -0.942828 0.643952 -0.090038 -0.944610 -0.056745 0.131510 0.946098 0.443567 -0.328242 -0.086008 -0.972648 -0.048567 0.546988 -0.104896 0.349375 0.313520 -0.044230 0.145087 0.545964 -0.474058 0.330382 -0.496533 -0.796266 -0.507010 0.207287 -0.252030 0.560973 -0.400218
up -0.143913 -0.357638 -0.442662 0.342068 0.282408 0.667418 -0.009740 0.986411 0.168937 0.785940 0.363686 -0.102359 -0.099043 -0.390335 -0.850530 -0.880390 0.277172 -0.070453 0.311569 -0.831579 -0.634271 -0.352453 0.208078 0.095087 -0.026887 -0.446663 -1.014418 0.777671 0.766420 0.080598 0.318679 0.112514 -0.730712 -0.571352 -0.227449 -0.074497 -0.267144 -0.220859 -0.547765 0.615037 -0.006666 0.385626 0.245762 0.336253 0.157932 -1.108541 0.698989 -0.118302 0.654369 0.285628
"Okay, -0.819646 0.149137 -0.234290 0.132368 0.022663 -0.303129 -0.302197 -0.824821 -0.296642 0.085099 0.553616 0.625673 -0.001219 -0.345730 -0.513241 0.027285 0.721180 -0.890372 -0.051416 -0.348192 -0.031407 -0.556352 -0.576578 0.976298 -0.121514 -0.383791 0.742519 0.147730 0.244393 0.778214 -0.050008 0.390059 -0.696924 -0.407401 0.701386 0.155338 0.171267 0.229795 -0.097915 0.043861 0.284771 0.352241 -0.798227 0.213114 -0.472566 -0.275985 0.047423 -0.444680 0.354821 -0.173261
really -0.149427 0.590205 -0.671020 -0.059841 -0.449210 0.222651 -0.144650 -0.054383 0.880864 0.619467 -0.253555 0.236867 -0.531739 -0.687164 -0.118054 -0.103914 0.859077 0.241935 0.176121 -0.110727 0.852427 0.257662 0.483493 0.032809 0.572547 -0.494864 0.764257 -0.301699 0.487121 0.631342 -0.613397 0.294837 -0.323674 -0.527306 -0.224066 -0.485041 0.032609 0.175151 -0.404591 0.169893 0.274938 -0.656420 -0.102790 0.607980 -0.729940 -0.201118 0.648009 -0.074043 -0.012219 -0.192173
one -0.383119 -0.963730 -0.558074 -0.739019 -0.156859 -0.121477 -0.019035 -0.338342 0.284783 0.406543 0.167497 -0.280661 -0.125365 0.133700 0.209812 -0.551436 0.460504 0.113972 -0.253140 0.137141 0.236940 -0.280898 -0.045464 -0.288958 0.083630 0.048495 -0.223260 0.617123 -0.295138 -0.243715 0.150892 0.484109 -0.369074 -0.909486 -0.934973 -0.161576 -0.234439 -0.102389 -0.507288 0.032298 0.321506 -0.549307 0.457794 -0.181809 -0.609614 0.375152 0.975136 -0.008379 0.328300 0.077998
know, -0.104880 -0.077306 -0.938156 -0.395050 -0.341452 0.631002 -0.679708 -0.168251 0.447531 -0.584848 0.096300 -0.372725 -0.013968 -0.410484 0.291360 -0.775970 0.354664 0.139286 -0.510433 -0.594551 0.467855 0.070807 -0.475130 0.012511 -0.983353 -0.802476 -0.088208 0.262474 0.680428 0.335441 -0.623899 1.218702 -1.345976 0.080024 0.650629 -0.969133 0.240932 0.689380 0.036579 -0.479440 -0.330923 -0.382123 0.403361 -0.484853 -1.428477 0.325415 0.119771 -0.076892 0.292866 -0.797016
It 0.490278 0.549245 0.171544 -0.387808 0.548431 -0.477481 -0.075340 -0.986123 1.485632 0.728523 0.132342 0.464972 -0.581265 -0.540657 0.758997 0.378877 0.675382 0.630261 -0.177908 -0.399066 0.171950 -0.033660 -0.422065 -0.069776 0.232689 0.155313 0.850798 -0.276649 -0.170579 0.599272 0.289730 0.415853 -0.276506 -0.378881 -0.583775 -0.057913 -0.844945 0.179215 -0.647811 0.146458 0.389597 -0.247169 0.749145 -0.043432 -0.064163 0.388627 0.376468 0.108651 -0.148460 -0.176979
see -1.103144 -0.316618 -0.185461 -0.431406 0.239702 0.104788 -0.105619 -0.308022 0.361959 -0.196560 0.412691 0.122824 0.459620 -0.288365 0.273301 -0.276255 -0.271770 -0.169050 0.178067 -0.287695 -0.175327 -0.315956 -0.411437 0.234374 -0.492845 -0.037782 -0.164974 -0.024074 0.985253 0.635279 -0.371791 -0.086461 -0.517719 -0.329701 0.401573 -0.979799 -0.064765 0.323265 -0.367595 0.256748 0.345565 0.267819 -0.571944 0.708524 -0.083757 -0.762692 0.855943 0.101323 0.278870 0.049575
tell -0.766865 -0.518689 -0.055909 -0.404484 0.416828 0.268862 -0.728868 -0.445439 0.152199 0.486984 -0.214601 0.205746 -0.236494 -0.342251 -0.086102 -0.725863 -0.355574 0.005480 0.048409 0.040329 0.409492 -0.074047 0.275630 -0.344686 -0.049314 -0.021707 -0.127871 -0.235034 1.106660 1.003144 -0.273867 -0.204723 0.005893 0.184079 1.027919 -0.873274 0.119044 -0.481647 0.102188 0.735056 0.786754 -0.274054 -0.218347 0.809463 -0.310394 -0.766168 1.116894 -0.004260 0.119231 0.296969
would -0.499239 0.128242 -0.305496 0.089090 -0.758988 0.239103 -0.036231 0.103095 0.581941 -0.179637 -0.091273 -0.008122 -0.156856 -0.806917 -0.464871 0.289148 0.457812 -0.011199 0.683153 -0.507612 0.316274 -0.369261 -0.146202 -0.343062 0.199989 0.098734 0.565592 -0.035830 0.771258 -0.062460 0.069583 -0.265739 -0.144035 -0.133452 -0.671898 -0.884465 -0.418278 0.977657 -0.660337 0.196415 -0.047157 -0.432508 -0.547036 0.338243 -0.598974 -0.471787 1.248749 -0.061548 -0.177771 -0.329021
did -0.399843 -0.078522 -0.366971 -0.503339 0.062073 -0.679533 -0.575224 -0.290778 -0.214418 -0.717641 0.201703 -0.618498 -0.464849 -0.274925 -0.186681 0.567214 -0.183180 -0.018275 0.088491 0.128737 -0.144017 -0.251858 -0.157463 0.223123 -0.107023 -0.088816 -0.166819 -0.648768 0.109551 0.064333 -0.330747 -0.291755 -0.222884 -0.314033 0.824023 -0.648670 0.467606 0.211374 -0.644787 0.045291 0.014601 0.101229 -0.223858 0.421676 -0.036022 -0.572393 1.535315 0.066809 1.116680 -0.172423
And -0.387853 -0.081444 -0.247493 -0.256453 -0.012423 -0.037506 -0.286952 -0.129575 -0.025829 0.141692 0.326398 0.326135 -0.529270 -0.144745 0.061626 0.334674 0.440230 0.125086 0.343742 -0.209818 -0.190917 -0.025093 -0.267853 0.502842 -0.193694 -0.808431 -0.107172 -0.223907 -0.316549 0.171256 -0.200132 0.496858 -0.282832 -0.411924 0.180313 -0.366468 0.194289 0.275514 -0.060160 -0.237213 -0.193086 -0.119539 -0.001987 0.128022 -0.502874 -0.075911 0.501843 -0.321717 0.552233 -0.117262
how -0.354384 0.325921 -0.640092 -0.311960 -0.135347 -0.093085 -0.463437 -0.441014 -0.278271 -0.305231 0.249880 -0.189169 -0.448838 -0.398456 -0.330719 0.198714 -0.174773 -0.428691 0.550839 -0.354919 -0.459796 0.008823 -0.076250 0.218293 -0.595294 -0.673067 -0.133444 -0.360387 0.028898 -0.232588 -0.647632 -0.015566 -0.100637 -0.419741 1.066228 -0.786121 0.831967 0.570161 -0.399497 -0.392631 -0.362603 0.077702 0.000546 0.128766 -0.443014 -0.186405 0.860407 -0.161572 0.709158 -0.483571
they -0.839468 -0.110201 -0.668812 -0.103222 0.294792 0.628270 -0.441200 -0.070133 0.125433 -0.062415 -0.359403 -0.251079 -0.103116 -0.494971 -0.176323 -0.176566 -0.152605 -0.512006 0.271105 -0.820438 0.307323 0.759055 -0.042535 -0.486077 -0.145188 0.017990 0.484180 0.299963 0.471370 0.093294 -0.066228 -0.021344 -0.851413 -1.124590 0.162905 0.471747 -0.181904 -0.239595 -0.297958 -0.169438 0.295677 0.466869 0.104941 0.563057 -0.503318 -0.855078 0.694548 0.074017 0.386992 -0.310383
had -0.368713 -0.272115 -0.820644 0.093166 -0.440331 -0.408375 -0.641562 0.438311 0.146826 0.271764 0.103745 0.045719 -0.666663 0.002882 -0.101144 -0.158862 0.474801 -0.153955 0.372675 -0.192836 -0.381867 -0.283079 0.213500 -1.035184 0.038747 0.025224 0.274627 0.571666 0.120801 -0.170140 0.182747 -0.257793 -0.540766 -0.543122 -0.426748 -0.020627 -0.393466 0.053300 -0.221015 -0.287455 -0.330947 -0.336419 0.849966 -0.135091 -0.901709 -0.522766 0.963919 -0.087588 0.312018 -0.382985
ll -0.736180 -1.001235 0.015299 0.139142 0.204883 0.400713 -0.535521 -0.198451 -0.027550 0.067570 0.047433 0.712696 -0.209066 -0.579030 -0.217769 -0.050774 0.452423 -0.475674 0.619818 -0.122952 -0.359957 -0.835784 0.653303 0.565554 -0.306886 -0.352636 0.143329 0.511246 0.588424 0.217095 0.676063 -0.091345 -0.506439 -0.299869 0.302717 -0.680290 -0.347270 0.399965 -0.201664 0.988901 0.575440 0.157832 -0.365824 0.537657 0.033842 -0.904907 0.269674 0.586015 -0.594995 -0.064390
no -0.364499 -0.376982 -0.374788 -0.251365 -0.623653 -1.283703 -0.593619 -0.665051 -0.056417 -0.510153 0.124473 0.506711 -0.084216 0.087002 0.381318 0.020189 0.253455 0.020339 -0.472487 -0.700374 0.806628 -0.432625 -0.024332 -0.252619 -0.463058 0.671971 1.234966 0.007422 -1.296880 0.229264 -0.010457 -1.035135 -0.368462 -0.644090 0.133408 0.704808 -1.314867 -0.421808 0.046689 -0.160500 -0.624149 -0.480994 0.543218 -0.139797 -1.245144 -0.489442 1.070235 -0.733183 -0.293023 0.009735
were -0.396232 -0.019815 -0.574123 -0.252498 -0.148948 0.646207 -0.348432 0.281269 -0.176204 -0.308088 0.308302 -0.309509 -0.461676 -0.386406 -0.464117 -0.056327 -0.091815 -0.457525 0.095060 -0.469732 0.269675 0.887459 0.149168 -0.185698 0.282906 0.174697 -0.322376 -0.264412 0.076140 -0.044730 -0.008184 0.148297 -0.870683 -0.559304 0.288150 0.510847 0.045707 0.217224 -0.295471 -0.262747 0.404734 -0.204677 0.437765 0.263338 -0.131318 -0.264925 0.737188 0.924111 0.614085 -0.906209
there -0.347363 -0.018715 -0.820312 -0.726485 -0.207011 -0.181366 -0.337271 -0.180655 0.146104 -0.272577 0.819737 0.667990 -0.231821 0.067001 0.010591 -0.357786 0.572838 -0.144413 0.157942 -1.146024 -0.011658 -0.578945 -0.086357 0.941260 -0.619176 0.012887 0.108298 0.085167 -0.179022 0.165951 0.256003 -0.330693 -1.354471 -0.585094 0.413186 -0.547987 -0.902159 0.379840 -0.325379 -0.031701 0.363167 0.061942 0.847379 0.016681 -0.246597 -0.317238 0.805385 0.273422 0.145846 -0.469406
That 0.182838 0.680109 0.156690 -0.402536 -0.035521 -0.710918 0.213689 -0.442747 0.693536 0.170512 0.156935 0.192391 -0.481611 0.012945 -0.005546 1.091767 0.544499 0.560162 -0.012241 -0.381585 0.194687 0.030813 -0.471059 0.104391 0.769555 -0.008945 0.728357 -0.337193 -0.607076 0.409127 0.580123 0.068637 -0.013251 -0.317789 -0.851166 -0.164448 -0.557109 0.609123 -0.856412 0.194897 -0.193623 -0.126384 0.339818 0.083644 0.091884 0.434048 0.482469 -0.012733 -0.016616 -0.556639
her -0.630206 -0.085973 -0.398125 -0.182114 -0.054483 -0.356585 -0.188867 0.139189 0.393320 0.374671 0.051797 -0.487822 -0.484680 0.526376 -0.086645 -0.653207 0.310307 0.274056 0.132199 -0.357062 0.215389 -0.726067 0.047208 0.092094 0.039219 -0.067332 -0.257873 0.305405 1.021944 0.114834 0.264459 -0.071507 -0.354855 -0.222844 0.005719 -0.744409 -0.462165 -0.160085 -0.089097 0.966182 0.354583 0.376738 0.132263 -0.053885 -0.103187 -0.684378 0.820505 -0.396770 -0.095563 0.048803
right, -1.039506 -0.852242 -0.504259 0.069347 0.681668 -0.146377 -0.004090 -1.071324 -0.216123 -0.038067 1.320806 0.598168 -0.140012 -0.024458 -0.125407 0.174964 -0.374671 -1.285836 0.674264 -0.493896 -0.307547 0.676396 -0.369863 0.645387 -0.908620 -0.354026 0.412572 0.895455 -0.361475 0.331901 -0.415005 -0.181813 -0.298922 -1.368725 -0.147521 0.256077 -0.180094 0.355293 -0.248062 0.043138 0.416779 0.668042 -0.959679 0.883068 -0.566422 -0.108270 -0.551072 0.471723 -0.416782 -0.042976
Okay. 0.266750 0.229401 0.290434 0.236626 -0.015824 -0.354756 0.056451 -0.235198 -0.049640 -0.144471 -0.133518 0.076739 0.163537 -0.197214 0.219515 0.553282 0.202582 -0.012207 -0.275036 0.230202 0.003294 0.101877 -0.321066 0.048116 -0.039790 -0.217901 0.689195 -0.112041 -0.541655 0.473542 -0.038107 0.315638 0.176768 0.115966 -0.072772 0.432090 0.106051 0.213364 -0.162535 -0.391560 -0.541911 -0.112342 -0.133986 -0.291867 -0.678898 0.289291 -0.502967 -0.327200 -0.118497 -0.027902
an 0.039701 0.288747 0.227982 0.310301 -0.400358 -0.210254 -0.049463 0.298661 0.581818 0.475523 0.388584 0.086547 -0.108607 0.410388 -0.056592 -0.498616 0.046373 0.752919 -0.583063 -0.100714 0.027800 -0.496463 -0.192672 -0.021483 0.024519 -0.436937 -0.457919 0.093066 0.063544 0.670858 0.377113 0.162160 -0.573646 -0.144074 -0.550627 0.379843 -0.332280 -0.424783 -0.353901 -0.122581 -0.373757 -0.200729 0.668943 0.013157 -0.557397 -0.270895 0.465954 -0.265789 0.549508 0.077918
could -0.514917 -0.674574 -0.600250 0.204342 0.377915 0.312504 -0.085668 0.172422 0.073873 0.067661 -0.103754 -0.097506 -0.068629 -0.340509 -0.941346 0.430741 0.311744 -0.613741 0.559833 -0.215470 -0.541642 -0.740337 0.235852 -0.024362 0.315635 -0.276637 -0.148667 0.579670 0.785276 -0.220981 0.432866 0.563423 -0.226267 -0.417830 -0.071412 -0.694640 0.278712 0.938172 -0.427519 0.639777 0.552180 -0.226962 -0.375112 0.622313 -0.069495 -0.102228 0.683069 0.614706 0.189719 -0.636166
you're -1.051939 0.027625 0.036011 0.124664 -0.056409 0.458399 -0.389250 -0.338654 -0.184198 0.281353 0.576898 0.493083 -0.180697 -0.157749 -0.781792 -0.031260 -0.083622 -0.335731 0.216383 -0.519475 0.344598 0.498635 -0.325226 0.561517 -0.074085 -0.701748 0.587792 -0.040202 -0.146670 0.850941 -0.147134 0.182274 -0.469843 -0.583670 0.134973 -0.004541 0.142510 0.110981 -0.077070 -0.125397 0.045168 0.165916 -0.433968 0.880790 -0.504493 -0.263343 0.090441 0.006763 0.664873 -0.494946
him -0.496803 -0.324160 0.279224 -0.227438 0.177746 0.019292 -0.268211 -0.058280 0.437318 0.686648 0.121251 0.156828 -0.553350 -0.028529 -0.072991 -0.887315 0.210432 0.434792 0.050277 0.021885 0.141351 -0.533137 -0.191271 -0.501381 -0.123212 -0.149128 -0.778045 0.230349 0.882735 0.325872 0.297404 0.173958 -0.120894 0.483554 0.207446 -0.699221 -0.067180 -0.407488 0.127135 0.730462 0.541385 0.016580 -0.099316 0.713288 0.273910 -0.563533 0.945305 0.119936 0.087309 0.225040
come -0.781784 0.375659 -1.056092 0.327707 -0.398244 0.403626 0.257375 0.422861 -0.590588 0.370075 0.122138 -0.295587 0.127336 -0.394406 -0.335169 0.200326 0.758467 -0.431100 0.263014 -0.220447 -0.192003 -0.742479 0.137072 0.560385 -0.536620 -0.060152 0.303883 0.280495 0.123443 0.302298 -0.201093 0.035261 -0.624546 -0.910038 0.472854 0.099883 0.306918 0.042980 -0.112691 -0.145865 -0.452834 0.703554 -0.575009 -0.213003 -0.356740 -1.187610 0.185302 -0.631412 0.205189 0.633529
right -0.690623 -0.904327 0.309251 -0.109898 0.380119 -0.142743 0.231022 -0.543890 0.251508 0.008613 1.417995 0.634852 -0.076245 0.225389 0.281076 -0.068981 -0.149384 -0.132757 0.028509 -0.831984 -0.172109 -0.269087 0.056961 0.839820 -1.074804 0.243586 -0.382887 0.783637 -0.894959 0.311829 0.323366 -0.485989 -0.261690 -0.848217 -0.624681 0.417561 -1.429107 -0.191371 -0.416638 0.302503 0.158810 0.200911 -0.487815 1.022117 0.084793 -0.529774 0.251873 0.314065 -0.474742 0.716219
some -0.103615 -0.366872 -0.513580 -0.201290 -0.127726 -0.029823 -0.222938 0.507489 0.545326 0.529042 0.109991 -0.214544 -0.119705 0.305896 -0.182652 -0.758230 0.591037 0.444042 0.145984 0.031245 -0.190237 -0.521716 -0.079436 -0.415803 -0.413160 -0.520341 -0.919694 0.574438 0.677664 -0.022603 0.081338 0.039466 -0.585508 -0.028852 -0.267323 -0.798647 0.000423 -0.257118 -0.218073 -0.225956 0.146102 -0.074822 0.300815 0.027965 -0.362178 -0.098615 0.591309 0.088822 0.474350 0.171306
going -0.198865 0.126810 0.226356 -0.598661 0.370917 0.478515 0.144392 0.639245 0.571798 0.321769 0.109474 0.742054 -0.250530 0.059091 0.238227 -0.193578 -0.267264 0.448104 0.348340 -0.597092 -0.197701 0.239782 0.199121 0.596020 -0.042628 -0.036838 0.009458 -0.369449 -0.514728 0.878104 -0.246057 -0.043098 -0.430668 -0.173869 -0.322347 0.197737 -0.175155 0.186601 -0.924204 -0.115433 0.260498 -0.011210 0.092918 0.709066 -0.142961 -0.291087 0.729766 -0.022926 1.112441 0.209432
when -0.307190 -0.038773 -0.617004 -0.100706 0.065625 0.452392 -0.429957 0.492910 -0.296063 -0.164810 0.694687 0.188927 -0.694177 0.041005 -0.986652 0.071124 -0.078829 -0.197224 0.421449 -1.288139 -0.364618 -0.092140 -0.135820 0.497253 -0.035990 -0.558296 -0.749217 -0.074171 0.410721 0.023416 0.331350 0.557223 -0.467114 -0.023623 0.897474 -0.364276 0.225496 0.466641 -0.380610 0.318576 0.199063 0.107437 -0.029366 0.512853 -0.157201 -0.325160 0.853000 -0.127358 0.584505 -0.779606
"Hey, -0.275435 0.482911 -0.174286 0.315567 0.233033 -0.499800 -0.280851 -0.756415 -0.301306 -0.656410 0.323284 0.183578 0.020330 -0.437045 -0.213280 0.529182 -0.104874 -1.011472 0.163178 -0.628979 0.031998 -0.023161 -0.357735 0.189509 -0.412272 -0.074064 0.955690 -0.112458 -0.056854 0.319821 -0.375983 0.031910 -0.316284 -0.654872 1.043655 0.011775 0.056693 0.657612 -0.178870 -0.110766 -0.067362 0.143952 -0.319891 -0.050336 -0.821347 -0.249640 0.071204 -0.548809 -0.087227 -0.538652
Yeah. 0.187260 0.226310 0.167572 -0.026498 0.059326 -0.414216 0.040726 -0.292375 -0.091267 -0.363372 -0.148960 0.153375 0.190754 -0.515707 0.357657 0.499820 -0.005357 -0.179295 -0.062862 0.156425 -0.109631 0.328921 0.070030 -0.221374 -0.094111 0.303783 0.578074 -0.193915 -0.220039 0.231088 -0.368009 -0.399938 -0.041023 0.005377 0.206005 0.445034 0.001220 0.072296 -0.119238 -0.386282 -0.142409 -0.030515 -0.144788 -0.193140 -0.176554 0.134996 -0.148182 -0.069203 -0.216024 0.009499
We -0.599721 -0.315499 -0.188184 0.209816 -0.373276 0.886842 -0.272255 0.382388 -0.092998 -0.201757 -0.536077 -0.148531 0.025039 -0.512769 0.273477 -0.162346 0.370485 0.033348 0.050764 0.744698 0.813713 0.401190 0.840148 -0.294228 0.676321 0.236786 0.103269 0.065508 0.019238 0.339505 0.034214 0.214275 -0.718524 -0.703507 -0.977836 0.313651 -0.099588 -0.057863 -0.332688 0.003983 0.291161 -0.406014 -0.013999 0.218613 -0.161884 -0.486172 0.259456 0.720136 0.010910 -0.342559
because -0.268707 -0.556476 -0.493050 -0.299516 0.299432 0.311025 -0.379219 -0.511588 0.315350 0.217163 0.060789 -0.009402 -0.339120 -0.242934 -0.044932 -0.382031 0.290817 -0.011626 -0.305918 -0.503214 0.281033 -0.106618 -0.210101 0.190794 0.092819 -0.255330 0.390204 0.240619 0.301549 0.266674 0.478013 0.942114 -0.525861 -0.373738 0.074608 -0.244361 0.116707 0.131971 -0.319248 0.317321 0.625862 -0.253332 0.312695 0.150131 -0.575092 0.036540 0.587643 -0.223067 0.070133 -0.318853
little -0.206845 -0.112728 -0.155829 -0.289222 -0.363833 -0.280329 -0.175929 0.561848 0.184236 0.487419 0.385143 -0.346597 -0.336694 0.527880 -0.417749 -0.348172 0.248496 0.602958 -0.154683 0.425585 -0.081073 -0.558399 0.011064 -0.362576 0.010293 -0.318172 -0.668500 0.646793 0.037225 -0.077552 0.202703 0.188940 0.063529 -0.280061 -0.660986 -0.727297 0.000940 0.046227 -0.659619 -0.298358 -0.484004 0.347959 0.144045 0.050563 -0.087793 0.264479 0.518321 -0.100580 0.977198 0.149656
should -0.460462 -0.443372 -0.506120 0.558794 -0.254770 0.435767 -0.417300 0.592044 -0.149670 -0.497716 -0.798809 -0.393516 -0.054393 -0.443201 -0.314430 -0.052394 0.217488 -0.398618 0.508914 0.554218 0.253469 -0.178495 1.015942 -0.246075 0.385202 -0.185580 0.086804 0.271971 0.661796 -0.294238 0.212977 0.292097 -0.657513 -0.827667 -0.640493 -0.370317 -0.180042 0.616582 -0.493232 0.296592 0.187874 -0.135639 0.135832 0.023045 -0.422629 -0.414703 0.181522 0.664813 -0.010072 -0.532595
But -0.036720 0.258119 -0.053772 0.533811 0.263047 -0.034604 -0.230008 -0.305099 0.337101 -0.049600 0.008740 0.213555 -0.462928 -0.534637 -0.140969 0.435984 0.142794 -0.180670 0.007375 -0.419595 0.141934 -0.015574 -0.150629 0.000533 0.309379 -0.430849 0.402913 -0.157644 0.218240 0.608240 -0.037114 0.875459 -0.382645 -0.092125 -0.036747 0.219176 -0.033975 0.402640 -0.423628 -0.066663 0.004657 -0.415783 0.068759 0.243940 -0.715183 -0.042070 0.172962 -0.122074 0.305728 -0.554073
So -0.394065 0.327567 -0.035011 -0.333824 0.279264 -0.287887 -0.465637 -0.382974 -0.359885 -0.424467 0.177317 -0.000440 -0.224212 -0.076369 0.091304 0.520488 -0.231266 -0.198532 0.203709 0.044510 0.175430 0.139634 -0.047195 0.440371 -0.048020 -0.141090 0.089089 -0.380706 0.086295 0.730033 -0.537567 -0.128545 -0.339975 -0.532727 0.706384 -0.725993 0.125064 0.272448 -0.368778 -0.116568 -0.014013 0.279084 0.079669 0.241616 -0.043446 -0.233022 0.359656 0.145196 0.549407 -0.410535
mean -0.402889 -0.012430 -0.419208 -0.009603 0.084382 -0.112787 -0.038786 -0.557024 0.480356 -0.335834 -0.007794 -0.231250 -0.264622 -0.611597 0.075112 0.016619 0.103581 -0.048645 -0.117788 -0.306323 0.510744 0.079256 0.288041 0.142878 -0.372666 -0.236270 0.033554 0.015256 0.307932 0.370157 -0.895585 0.593610 -0.148109 -0.833711 0.118118 -0.482441 0.097340 0.289191 -0.213843 -0.156807 -0.010477 -0.402143 -0.437123 0.512829 -0.715380 0.101912 0.362622 -0.192010 0.155059 0.102509
who -0.369812 0.061506 -0.908410 -0.661073 -0.575462 -0.055457 -0.110257 0.193858 0.289465 -0.186545 0.069969 -0.510836 -0.461601 0.232978 0.277655 -0.104321 0.542292 0.377158 0.343710 -0.490301 0.223204 -0.028696 -0.057528 0.246899 -0.270672 -0.406882 -0.319947 0.265725 -0.289625 -0.694034 0.397589 0.368518 -0.586889 -0.117072 -0.581564 -0.711763 -0.296588 0.377487 -0.295739 -0.023451 -0.132170 0.074108 0.286614 -0.333036 -0.252852 0.060526 0.962476 -0.157048 0.209524 -0.534751
It's 0.101801 0.041049 0.203301 -0.074775 -0.550779 0.393746 0.214627 0.162478 0.545095 0.597691 0.395357 0.166573 -0.197042 -0.220962 0.237724 -0.419446 0.377295 0.604472 -0.242123 -0.040760 0.541796 -0.061582 -0.323246 0.294873 0.045001 -0.369458 -0.130344 0.135032 -0.238709 0.746373 -0.167488 0.705454 -0.090101 0.170085 -0.596095 -0.056452 -0.064385 -0.001704 -0.318043 -0.290669 -0.318621 -0.195192 -0.448430 0.078546 -0.941657 0.178186 -0.132193 -0.414174 0.431982 0.494289
love 0.045085 0.491780 0.202111 -0.314016 -0.231287 0.702923 0.049042 0.557519 0.466222 0.344747 -0.267082 0.255674 0.035618 -0.774125 -0.637370 0.011140 0.296781 0.467647 0.745336 -0.597549 0.099246 -0.539760 0.398991 -0.340382 -0.113696 0.433660 -0.079343 -0.489669 0.341871 0.071868 -0.900655 -0.163324 0.757679 -0.104708 0.245967 -1.081906 -0.507079 0.370845 -0.274069 0.112482 -0.296365 -0.465655 0.172766 0.385777 -0.143079 -0.158509 0.985961 -0.025348 0.441311 0.601401
wanna -0.929763 -0.246431 -0.289456 -0.086246 -0.181747 0.905709 -0.107233 0.267054 0.416474 -0.145994 -0.277116 -0.183874 0.665388 -0.474320 0.546623 -0.770056 0.052149 0.066648 -0.138808 -0.191571 0.306937 0.021536 0.178270 -0.093809 -0.396275 0.295277 -0.384037 -0.024312 1.022628 0.308491 -0.330048 -0.127568 -0.683668 -0.063023 -0.011513 -0.522306 -0.037645 -0.154177 0.196482 0.133193 0.055053 -0.000558 -0.446979 0.179159 -0.046150 -0.801336 0.574535 0.307360 -0.244970 0.143677
This -0.266926 0.545571 -0.393436 -0.548158 -0.477800 -0.583418 0.501589 0.101130 -0.263469 0.138457 0.386537 0.040018 -0.133808 0.213571 0.196545 0.116451 0.603397 0.559601 -0.242216 -0.037238 -0.256254 0.030940 -0.277382 0.547815 -0.011322 -0.326373 -0.159066 -0.050914 -0.583721 0.533336 -0.504590 0.271766 -0.036573 -0.281686 -0.050863 -0.197817 0.334425 0.018073 -0.125814 -0.614009 -0.780767 0.376606 -0.268319 -0.291883 -0.352296 0.328964 -0.017956 -0.905039 0.365576 0.217705
you. 0.045914 0.044646 0.143620 -0.451354 0.374287 0.061629 -0.018331 -0.231293 0.744628 0.598936 -0.025034 0.139499 0.092840 -0.469870 0.102671 -0.301802 0.178560 0.433128 0.397944 -0.334531 -0.113377 -0.332402 0.190099 -0.218987 -0.043390 0.588472 0.315231 -0.414841 0.416693 0.353622 -0.358007 -0.143226 0.483971 -0.294753 0.192180 -0.476760 -0.254906 -0.042311 -0.362520 0.353708 0.573357 -0.226138 0.163720 0.200808 0.288584 -0.169713 0.816104 -0.069653 0.399074 0.585578
no, -0.461639 -0.262260 -0.246649 0.255382 0.161958 -0.825093 -0.288729 -0.742879 0.043475 -0.413852 0.069652 0.504953 0.288427 -0.902631 -0.329478 0.100031 0.625271 -0.675209 -1.078458 -0.208929 0.437797 0.067299 -0.243662 0.343397 0.033016 0.249893 1.567514 0.212759 -0.571752 0.718032 0.134685 0.116160 -0.658406 -0.136885 -0.017040 1.210323 -0.235354 -0.181476 -0.169180 -0.646692 -0.379821 -0.183226 -0.927154 0.034448 -1.220862 0.152440 0.599359 -1.260521 0.014516 0.160778
been 0.398192 0.295420 -0.292521 0.932758 -0.767277 -0.515742 -0.235299 0.324878 0.615123 0.683270 -0.016365 0.132964 -0.653521 -0.013169 0.025753 0.073271 0.449392 0.266883 0.573712 0.058515 -0.192996 -0.812568 0.250848 -0.863698 0.223442 -0.011407 0.337395 0.060526 0.566236 -0.321269 0.118661 -0.489430 0.055221 -0.268061 -0.733630 -0.253319 -0.534431 0.130932 -0.172294 -0.041115 -0.334987 -0.949247 0.839091 -0.549510 -0.470044 -0.741561 1.075909 -0.247061 0.004412 0.558788
make -0.189938 -0.699118 -0.257423 0.093142 0.064765 0.346451 -0.262193 0.129685 0.295236 0.423464 -0.257321 -0.050136 0.046163 -0.280832 -0.578654 -0.395984 0.234075 0.251399 -0.180943 -0.061675 0.114793 -0.529592 0.200032 -0.096576 0.202207 -0.380042 -0.146929 0.355194 0.565689 0.175459 0.067872 0.312265 -0.285126 -0.458011 -0.292886 -0.608299 0.217246 -0.119047 -0.078786 0.560795 0.334569 -0.358265 0.172172 0.687644 -0.393859 -0.301604 0.626825 0.016989 0.411876 0.233470
"All -0.815373 -1.066618 -0.113264 0.125372 0.711234 -0.117752 -0.057059 -1.170395 -0.160178 -0.432575 1.390560 0.701706 -0.208547 -0.090991 -0.025670 0.277631 -0.459958 -1.049623 0.506469 -0.448142 -0.231301 0.618322 -0.195028 0.737082 -1.065276 -0.368365 0.558403 0.906869 -0.817829 0.465276 -0.503743 -0.175385 -0.185807 -1.271272 -0.143918 0.445336 -0.399264 0.294751 -0.240643 0.209608 0.214829 0.470024 -0.939636 1.005174 -0.615890 -0.039580 -0.597523 0.514105 -0.340074 0.215743
that's 0.163124 0.353166 -0.265380 0.084355 -0.042980 -0.326572 -0.271792 -0.645159 0.021212 0.145484 0.300503 0.161089 -0.413331 -0.014098 -0.251245 0.325865 0.096488 -0.095009 -0.220240 -0.553206 0.156994 -0.036362 -0.433583 0.222715 0.189965 -0.602427 0.775887 -0.221309 -0.423217 0.520061 0.009046 0.617366 -0.031657 -0.230154 0.172001 0.321216 0.265177 0.403533 -0.299864 -0.439190 -0.127088 -0.153986 0.228114 -0.122373 -1.151010 0.572783 -0.077824 -0.571484 0.523215 -0.104290
here -1.064478 -0.007678 -0.045067 0.158072 -0.551875 0.621087 0.076715 0.187013 -0.304187 0.762005 0.702226 0.190717 -0.086740 0.048991 -0.093549 -0.353756 0.525511 -0.397031 0.406580 -0.042248 0.192366 -0.982122 -0.005204 0.958647 -0.377078 -0.186949 -0.140347 0.278386 0.022984 0.530155 0.274631 -0.178881 -0.315592 -0.665020 -0.233731 0.242392 -0.476182 -0.212653 -0.085557 0.468493 0.133415 0.233484 -0.335766 0.048163 -0.036606 -1.060138 0.170128 -0.125275 0.496506 0.690020
it. -0.194029 -0.365060 -0.394045 0.143179 -0.080065 -0.355468 -0.318698 0.126711 0.193607 -0.128510 0.048952 -0.040048 -0.246637 -0.150828 0.203565 0.201033 0.155781 0.174922 0.237925 0.628715 -0.005870 -0.567481 0.207278 -0.460048 0.051543 0.012054 -0.124687 -0.018947 0.788268 -0.129803 -0.200096 0.170706 0.003236 0.031917 -0.191561 -0.893955 0.329019 0.142928 -0.000741 0.021447 0.419759 -0.565841 -0.170709 0.077809 -0.066908 -0.102948 0.517061 0.216879 0.073440 0.209604
look -0.507817 -0.059683 -0.068230 -0.281860 0.202888 0.093652 -0.068110 -0.350567 0.000119 0.183788 0.519473 0.138697 -0.518554 -1.007874 0.065602 -0.240087 0.932272 -0.136856 -0.537801 -0.077201 0.710095 -0.366026 -0.478233 0.198148 0.233186 0.105027 -0.381090 0.069398 0.026860 0.243579 -0.087307 0.852879 -0.494536 0.107863 0.259923 -0.269892 0.116305 -0.408746 0.385414 -0.075422 0.017940 -0.172783 -0.470448 0.098885 0.228747 0.016268 0.600325 -0.352669 0.251382 -0.071730
say -0.313357 -0.339006 -0.534663 0.012514 -0.183623 -0.058903 -0.568497 -0.248604 0.065564 -0.127465 -0.236634 0.223340 -0.437801 -0.057711 0.110588 -0.183177 0.092818 -0.064033 0.269302 -0.411904 0.512236 -0.246551 0.256585 -0.021186 0.105655 -0.089093 0.262218 0.168034 0.278609 -0.007410 0.004084 -0.109246 -0.338661 -0.394536 0.006851 -0.541816 -0.368879 0.175825 -0.036870 0.406040 0.302958 -0.431553 0.202909 0.028421 -0.737326 -0.355331 0.733720 -0.216935 -0.206750 -0.181579
take -0.675924 -0.647477 -0.577308 -0.212503 0.109305 0.062765 -0.323685 0.210910 0.315900 -0.176366 -0.262146 -0.368515 -0.114722 -0.077646 0.194241 -0.446853 -0.004631 0.092521 0.353946 0.352721 -0.096110 -0.325343 0.583697 -0.347245 0.240476 -0.037223 -0.313526 0.267422 0.849531 -0.335313 0.505511 -0.063930 -0.544762 -0.384922 -0.671950 -0.486594 -0.301875 0.055242 -0.331889 0.374240 0.671510 0.289508 0.206379 0.067373 0.011522 -0.453668 0.551605 0.637834 0.053937 -0.174786
from -0.012028 -0.146724 -0.219710 -0.479836 0.099507 -0.196147 -0.009633 -0.066912 0.413326 -0.052732 0.326132 -0.033452 -0.235639 0.256826 0.452365 -0.284378 0.101215 0.138500 0.361854 -0.513508 -0.193783 -0.661097 -0.328905 0.306151 -0.291083 -0.110956 -0.278928 0.117683 0.004759 -0.383096 0.496016 0.234216 -0.200890 0.176321 -0.341004 -0.601431 -0.575206 0.202696 -0.312242 0.162188 0.212289 0.158037 0.143252 -0.269879 0.109415 0.006782 0.473287 -0.032655 0.051524 0.037699
Hey! 0.229864 0.326201 0.078214 -0.058280 -0.096468 -0.239915 0.102354 -0.302631 -0.169506 -0.324460 0.168871 -0.124689 0.081537 -0.067960 0.217549 0.268752 0.163331 0.116503 -0.200340 0.278609 -0.036853 0.085541 -0.029580 0.104251 -0.011167 0.063550 0.078491 -0.099782 -0.265043 0.254349 -0.029441 0.167997 0.107690 0.204292 0.163774 0.237431 0.018891 0.162220 -0.121172 -0.169998 -0.057309 -0.051209 -0.019004 -0.371212 -0.067229 0.415144 -0.377675 0.054645 -0.182398 -0.145944
The -0.451003 0.129746 -0.640227 -0.245392 -0.549012 -0.106907 0.333432 0.126794 -0.057740 -0.106313 0.236605 -0.440330 0.002296 0.285760 0.529631 0.221683 0.341124 0.240844 -0.156507 0.188618 0.374147 -0.067085 0.047936 -0.032063 0.093166 0.285932 0.041048 0.305774 -0.564642 -0.036900 0.446640 0.151268 -0.284863 -0.320390 -0.859841 0.019440 -0.369755 0.072469 -0.104929 -0.155655 -0.256071 0.195060 -0.008327 -0.647899 -0.141370 0.128728 0.023630 -0.184930 -0.381729 0.068954
let -0.981526 -0.066602 0.305350 -0.047143 0.519621 -0.229770 -0.310604 -0.664564 0.411225 0.196633 -0.105153 0.097365 -0.156160 -0.030351 0.070873 -0.105123 0.090883 -0.333344 -0.090961 -0.071712 0.391576 -0.557261 -0.582479 0.466388 -0.382307 -0.328365 0.168627 -0.059875 0.585638 0.833353 0.045895 0.114887 -0.395658 -0.018616 0.483509 -0.611305 -0.134476 -0.205531 -0.138288 0.487133 0.285426 0.163725 -0.572893 0.695078 -0.126389 -0.767052 0.671599 -0.179807 0.364291 -0.109178
said 0.144632 0.055122 -0.241947 -0.165822 -0.110216 -0.313007 -0.556061 -0.037448 0.326172 -0.204886 -0.160201 -0.140711 -0.816442 -0.557214 -0.075155 0.417034 0.451716 0.065228 0.344927 -0.504748 0.351721 0.211595 -0.230630 -0.928645 0.396462 0.261893 0.289664 -0.297419 0.059677 -0.292666 0.229093 0.016160 -0.205182 0.200746 -0.138092 -0.123058 -0.361229 0.266577 -0.254791 0.130554 0.145734 -0.510702 0.511090 0.057655 -0.232657 -0.082745 0.933366 0.300201 0.091738 -1.132930
ve -0.097975 -0.253002 -0.150693 1.005291 -0.632009 -0.122451 -0.623182 0.424248 0.590145 -0.024004 -0.287490 0.046458 -0.484919 -0.738364 0.100261 0.189509 0.778480 -0.232957 0.653967 0.048519 -0.039086 -0.729181 0.090009 -1.371317 0.193286 0.266853 0.482856 0.157255 0.773245 -0.623020 0.150059 -0.418638 -0.160115 -0.015799 -1.110958 -0.347735 -0.794799 0.496777 -0.491311 -0.257604 -0.291496 -1.188876 0.151866 -0.262817 -0.831592 -0.891791 1.244002 0.287280 -0.220860 -0.126335
know. -0.339008 -0.138616 -0.282490 0.305247 -0.250795 0.484708 -0.316875 -0.482369 0.195945 -0.202631 -0.088562 0.045624 0.536787 -0.923043 0.644678 -0.733036 0.420137 -0.245315 -0.549151 0.002361 0.160106 -0.035055 -0.253963 -0.282874 -0.296018 -0.322802 0.357286 0.498773 0.871940 0.603339 -0.037425 1.015459 -0.651914 0.372261 0.174736 -0.030537 0.263534 0.138041 0.304886 0.207355 0.159108 -0.054825 -0.591507 -0.357373 -1.203519 -0.149735 -0.718463 -0.089016 -0.906760 -0.153099
What?! -0.031390 0.163468 0.029771 0.026915 -0.108360 -0.087205 -0.063211 -0.002122 -0.007673 -0.431420 -0.303199 -0.393296 0.006211 0.017757 0.422725 0.303532 -0.276453 0.141840 -0.146549 0.315953 0.316561 0.481314 0.145633 -0.279910 0.137904 0.270234 0.285067 -0.389386 -0.165684 -0.074823 -0.276282 -0.275760 0.034214 -0.270413 -0.313531 0.112733 -0.083637 -0.058611 0.003765 -0.217258 -0.271875 -0.001772 0.151965 -0.079857 0.061749 -0.043811 0.040658 0.229168 -0.061093 -0.229551
can't -0.753021 -0.390508 0.181317 -0.000967 0.263143 -0.042724 0.007534 -0.616545 0.133746 -0.362267 0.174666 0.146103 -0.032436 -0.584852 0.183593 -0.214779 0.282192 -0.350900 -0.420589 -0.102100 0.332459 -0.432932 -0.211154 0.171640 0.072980 0.249915 0.056033 0.108463 1.047627 0.629808 -0.077119 0.454442 -0.492100 0.043635 0.349155 -0.627913 -0.043822 0.272407 -0.203151 0.547019 0.425282 -0.381080 -1.207821 0.341426 -0.241839 -0.428284 0.423337 -0.083242 -0.613408 0.018178
didn't -0.589651 -0.518032 -0.888421 0.056091 0.367828 0.156517 -0.524664 -0.208028 0.396154 -0.036432 -0.616099 -0.216402 0.127809 -0.260583 0.200947 -0.611101 0.026141 0.021225 -0.043732 0.146400 0.048986 -0.112948 0.289418 -0.328110 0.182799 -0.103681 0.369276 0.169840 1.285346 0.147050 -0.172186 0.391288 -0.121892 -0.080349 0.141805 -0.572582 0.312689 0.236309 0.105206 0.745031 0.496928 -0.314281 -0.145718 0.120387 -0.970508 -0.381767 0.587109 -0.106621 -0.155251 -0.129839
need -0.110773 -0.433812 -0.423628 0.033831 -0.656987 0.681934 -0.006808 0.642904 0.251720 0.245755 -0.767060 -0.336234 0.082403 -0.146876 0.334140 -0.565125 0.584041 0.034637 0.163384 0.796035 0.454265 0.137812 0.737428 -0.110140 0.171739 -0.168551 0.082679 0.310624 0.564859 0.287665 -0.745311 -0.053205 -0.021970 -0.380491 -0.409851 -0.785715 -0.022819 0.125945 -0.235260 0.158965 -0.117945 -0.261934 -0.363423 0.018998 -0.769214 -0.225418 -0.041639 0.016715 -0.156751 0.331126
No. 0.188840 0.350311 0.146169 0.207990 0.183949 -0.172393 0.193500 -0.322322 0.013942 -0.204370 -0.303254 0.076285 0.061425 -0.297089 0.288007 0.517339 0.019983 -0.220443 -0.016074 0.036474 -0.062869 0.187586 -0.063533 -0.349799 0.077064 0.232264 0.232104 -0.203878 0.003001 -0.019868 0.161662 0.306786 0.195891 0.412197 0.150687 0.298737 0.010229 0.067399 0.096514 -0.049345 0.230434 -0.094159 -0.109330 -0.340441 0.164643 0.391100 -0.483589 0.095288 -0.471074 -0.288325
Why -0.310643 0.083285 -0.454446 0.240724 -0.434482 0.208996 -0.078383 -0.229451 -0.071318 -0.880024 -0.479607 -0.361281 0.228689 -0.874412 0.038695 -0.052915 -0.013421 -0.398832 -0.265318 0.156521 0.457130 0.524607 0.215403 -0.170332 0.289822 0.136900 0.684657 -0.196038 0.620440 0.043503 -0.646644 -0.255357 -0.594236 -0.209778 0.031202 0.125181 0.236197 0.308303 0.038297 -0.111961 0.086588 -0.039462 -0.756110 -0.087851 -0.664287 -0.212269 0.138277 -0.034112 -0.552128 -0.351445
am 0.058503 0.174200 0.292428 -0.541090 -0.037265 -0.024269 0.082094 0.100793 0.263913 0.265281 0.340806 0.731927 -0.046292 -0.431331 0.143528 0.090321 0.314586 0.336778 -0.055045 0.027763 -0.417484 0.002495 0.154551 0.334645 -0.251982 -0.372436 -0.066649 0.011307 -0.660406 1.182935 -0.752222 0.373730 -0.118494 -0.166695 -0.047610 0.123174 0.019178 0.169151 -0.608603 -0.581476 -0.150216 -0.236873 0.053559 0.438339 -0.828579 0.334903 -0.046816 -0.034360 0.676066 0.347145
No! 0.145121 -0.042812 0.386079 0.451516 0.641710 -0.358189 0.008945 -0.778620 0.131863 -0.667899 -0.585018 0.356103 0.214716 -0.717841 0.583051 0.605505 -0.075136 -0.506026 0.062472 0.094913 0.163226 0.191685 -0.012662 -0.477815 -0.021387 0.342095 0.822691 -0.385648 -0.055344 0.214786 -0.277746 0.088784 0.481218 -0.003579 0.209683 0.379593 -0.404125 0.191455 -0.027587 -0.009536 0.064602 -0.334304 -0.178020 0.062807 -0.371546 0.292051 -0.458439 0.046120 -0.756277 -0.076727
never -0.553207 -0.065953 -0.118544 0.780213 -0.390819 0.420965 -0.223867 0.660678 0.377706 0.080206 -0.442560 0.259487 -0.258856 -0.353891 -0.127230 -0.007415 0.273832 0.061423 0.489236 0.023464 0.420749 -0.208451 0.561194 -0.544265 0.009935 -0.409875 -0.064169 0.269407 0.529982 0.243589 -0.114360 -0.122924 -0.235903 0.156201 -0.657662 -0.440293 -0.523985 0.360840 -0.268299 0.031653 -0.278173 -0.500195 -0.567862 0.471301 -0.788948 -0.509085 0.553024 0.211839 -0.072919 0.107649
or -0.118119 0.097707 0.267582 0.253428 -0.705208 0.082722 -0.008169 0.328363 0.150820 0.025689 0.185479 -0.760386 0.157407 0.650407 -0.276720 -0.565135 -0.145228 0.600326 -0.544424 0.093044 0.521777 -0.424789 -0.356138 0.139622 -0.151508 -0.171365 -0.387853 0.152713 0.432235 0.271504 -0.023136 0.011501 -0.068622 0.067278 -0.459686 -0.568715 -0.088576 -0.028637 -0.182553 0.273857 -0.540976 0.053970 -0.106393 -0.030663 -0.103005 -0.248492 0.064892 -0.329364 0.333985 -0.023245
over -0.445532 -0.393331 -0.399687 -0.391690 0.156142 0.272159 -0.049929 0.275777 0.182526 0.484756 0.663695 0.309187 -0.220090 0.318100 0.236258 -0.576547 0.238061 -0.036783 0.635390 -0.432976 -0.367068 -0.247655 -0.049156 0.814513 -0.497836 -0.423467 -0.559923 0.327278 -0.050270 0.000389 0.497198 -0.263390 -0.651489 -0.270537 -0.193433 -0.106795 -0.485294 -0.204723 0.000961 0.125092 0.420230 0.349994 0.274093 0.165499 0.361903 -0.426725 0.261406 0.152530 0.469415 0.192039
mean, -0.279702 0.045668 -0.448613 -0.175771 -0.208385 0.216722 0.098013 0.082317 0.126034 -0.350545 0.112933 -0.267500 0.078354 -0.494226 -0.363424 0.198518 0.324999 -0.158627 -0.035405 -0.268443 0.048888 -0.044222 -0.217582 -0.048964 -0.426680 -0.456241 0.091431 0.204628 0.141168 0.260836 -0.430216 0.649015 -0.548840 -0.638561 0.190477 -0.383974 0.336840 0.638751 -0.513872 -0.611785 -0.379335 0.130237 -0.449251 0.174476 -0.710854 0.130096 0.230615 -0.220048 0.467256 -0.223745
still -0.383892 0.542339 -0.016781 0.183273 0.224299 0.730489 0.177920 0.416817 0.455074 0.427823 0.055520 0.025942 -0.190946 -0.317316 -0.033840 0.286184 0.172272 0.488720 -0.244326 -0.272989 0.549890 0.110537 -0.071417 -0.116493 0.590556 0.369532 -0.138866 -0.261818 -0.182199 0.476802 -0.060941 0.611320 -0.021344 -0.270007 -0.815223 0.200504 -0.491922 0.001544 -0.221305 -0.116593 -0.313445 -0.339585 -0.079925 0.402320 -0.025981 -0.189267 0.481417 0.059576 0.353027 0.031786
then -0.227846 -0.222978 -0.419385 0.425467 -0.035320 -0.341622 -1.036058 -0.250474 -0.311247 0.173143 0.194185 0.845975 -0.780171 -0.426312 -0.474374 0.187466 0.828671 -0.504963 0.439087 -0.249210 -0.479257 -0.340220 -0.496523 0.283915 0.106232 -0.970110 0.351579 0.109347 0.342411 -0.135919 0.466453 0.098765 -0.988585 0.065531 0.297729 -0.105753 0.158225 0.238719 0.075580 0.010242 0.106221 0.053691 0.311663 -0.158459 -0.482217 -0.314917 0.260817 -0.025692 0.153661 -0.762471
time -0.204716 -0.570709 -0.426269 -0.434186 -0.354804 -0.253686 -0.149973 0.151277 0.038545 -0.103905 0.690560 -0.298869 0.033013 0.005343 -0.148255 0.056948 0.286332 -0.075833 0.424755 0.028595 -0.265390 -0.640338 -0.348370 -0.256144 -0.620005 0.001565 -0.251370 0.402528 -0.419300 -0.436288 0.278541 0.099772 -0.048892 -0.457953 -0.433444 -0.189418 -0.062982 0.282156 -0.506351 -0.560670 0.190579 0.086962 0.294239 -0.367196 -0.027256 0.340452 0.543276 -0.022698 0.830421 0.072925
thought 0.537954 -0.102539 -0.271743 0.132579 0.172010 -0.035993 -0.348070 0.031950 0.258615 -0.047492 0.113215 0.264044 -0.410748 -0.884256 -0.610852 0.058113 0.501995 -0.344046 0.299238 -0.551861 -0.117041 -0.151833 -0.088575 -0.559403 0.008270 -0.171844 0.084088 0.277842 0.729666 -0.073232 0.010855 0.252895 -0.567916 0.092679 0.462017 -0.348950 -0.053065 0.713953 -0.591764 0.276022 0.347059 -0.501955 0.340898 0.106186 -0.655736 0.090046 0.286867 0.633707 -0.133157 -0.853293
why -0.578470 0.499851 -0.768522 -0.273770 -0.088218 0.164782 -0.228454 -0.527168 -0.428493 -0.139523 0.210235 -0.166296 0.020257 -0.420242 0.033741 0.272198 0.257755 -0.379920 -0.211290 -0.161703 0.537670 0.256713 -0.218131 0.192226 0.387207 0.057771 0.717481 -0.054608 0.499677 0.730189 -0.420150 0.278863 -0.668045 -0.791009 0.290400 -0.482616 0.255230 0.458505 0.024985 -0.084804 0.136977 0.281123 -0.181190 -0.231090 -0.695600 -0.149457 -0.020169 -0.193882 -0.342886 -0.576920
"Well -0.228622 0.170838 -0.174255 0.158325 0.296704 -0.810327 -0.652566 -0.932566 -0.038951 -0.464844 0.167297 0.244218 -0.036912 -0.484510 0.060100 0.533946 0.319468 -0.713818 -0.317884 -0.073459 0.042435 -0.223559 -0.795655 0.425502 -0.463702 -0.515980 0.935687 0.010561 0.254937 0.693196 -0.396774 0.311912 -0.667104 0.074732 0.960131 -0.262253 0.205148 0.380973 -0.223832 -0.217051 -0.207943 0.090615 -0.292806 -0.281061 -0.923660 0.036671 -0.020436 -0.328137 0.190813 -0.623287
How -0.276703 -0.093289 -0.461183 -0.014284 0.079477 -0.132488 -0.093083 -0.277847 -0.458167 -0.166543 -0.167218 -0.458807 0.055681 -0.166005 -0.746475 0.676778 -0.100297 -0.357172 0.515355 0.338636 -0.167447 -0.560862 0.447215 -0.079266 0.095907 0.028260 0.014966 -0.047988 0.581614 -0.279805 -0.194986 -0.008520 0.261077 -0.679072 0.359847 -0.819054 0.559137 0.386359 -0.257790 0.278817 0.251055 -0.068057 -0.131161 0.329222 0.253239 -0.015103 0.330631 0.508993 0.313738 -0.239330
his -0.228994 0.036786 -0.020203 -0.496838 -0.307915 -0.009989 -0.241758 0.305028 0.135056 0.288553 0.553737 0.022271 -0.557158 0.284246 0.306756 -0.345694 0.375977 0.408180 0.043521 -0.301907 -0.293525 -0.199305 -0.296493 0.049350 -0.488521 -0.535965 -0.987359 0.175356 -0.111929 -0.180955 0.381897 0.211138 -0.270647 0.366963 -0.093115 -0.252613 -0.319139 -0.126241 0.003910 -0.018876 -0.127733 0.130141 0.292775 0.004884 0.068700 -0.241413 0.606623 0.009060 0.214178 0.011946
maybe 0.163747 -0.405640 -0.572642 0.559484 0.180014 -0.120529 -0.619495 -0.121922 -0.259429 -0.165612 -0.072172 -0.019248 -0.404025 -0.327350 -0.611947 0.275465 0.253452 -0.820760 0.284872 0.165683 -0.264754 -0.349487 0.149046 -0.089772 -0.103497 -0.691770 0.510895 0.677379 0.476327 -0.020095 0.190120 0.690569 -0.536674 -0.371518 0.113265 -0.038694 0.159135 0.737828 -0.383684 0.333503 0.130157 -0.336539 0.303024 -0.207257 -0.891221 0.103139 -0.334711 0.268519 0.060755 -0.660364
All -0.303578 -0.572181 0.151773 0.051824 0.617042 -0.138565 0.385759 -0.885016 0.002387 -0.477426 0.897734 0.685717 -0.062087 -0.081980 0.264297 0.650703 -0.253081 -0.571895 0.374883 -0.333900 -0.126500 0.471975 -0.035830 0.488844 -0.477280 -0.015877 0.502421 0.486193 -0.760183 0.231223 -0.054716 -0.067322 0.194531 -0.729257 -0.524755 0.361124 -0.490394 0.568143 -0.049699 0.336014 0.074090 0.309388 -0.814462 0.456273 -0.171925 0.415447 -0.895355 0.507473 -0.912778 0.094377
Well 0.160819 0.074821 -0.272323 0.417330 0.079426 -0.605994 -0.571800 -0.536202 -0.476822 -0.283528 -0.177766 0.054285 -0.514312 -0.136133 -0.385572 0.727157 0.166308 -0.575967 0.094165 0.192128 0.104924 -0.113282 -0.247909 0.180509 0.037508 -0.557360 0.755930 0.016718 -0.029094 0.013802 -0.114244 0.213214 -0.258593 -0.361058 0.312112 -0.088461 0.314466 0.472288 -0.218265 -0.143910 -0.334110 -0.089792 0.165940 -0.221819 -0.715478 0.119106 -0.144391 -0.088110 0.122000 -0.543101
you, -0.246397 -0.409268 0.085503 0.004005 -0.196856 -0.339628 -0.408569 -0.443008 -0.178058 -0.185746 0.256426 -0.195150 -0.412950 -0.398640 -0.448804 0.144997 0.079356 0.032480 0.081542 0.072010 0.522618 -0.424093 -0.037495 0.029044 -0.278394 -0.233641 -0.394052 -0.377753 0.523364 0.505577 -0.558394 0.197960 0.177828 -0.237096 0.606187 -0.804968 0.324874 -0.110645 -0.085271 0.089266 0.316460 -0.517307 -0.309073 0.637172 -0.038329 -0.156792 0.830219 -0.037416 0.571712 0.268025
as 0.055918 0.045968 0.549817 -0.057878 -0.059974 0.341202 -0.184630 0.083263 0.068948 -0.034837 -0.286504 -0.321828 -0.535571 -0.056034 -0.976823 0.459853 -0.207666 0.108656 0.685683 -0.010596 0.256513 -0.664140 0.113954 -0.155243 -0.354590 -0.641854 -0.056078 -0.365564 -1.067367 -0.348705 -0.023924 -0.090664 0.771451 -0.481616 -0.208791 -0.024622 -0.191994 0.457566 -0.815994 -0.335197 -0.269001 -0.268444 0.648089 1.103913 -0.182938 0.313821 0.510403 0.640393 1.309766 -0.056349
back -0.551608 -0.260366 -0.775374 0.049275 0.045227 0.348242 0.099096 0.717726 0.153549 0.189350 0.269654 -0.058749 -0.305295 0.148374 -0.269638 -0.512940 0.247733 -0.041872 0.447768 -0.619975 -0.370465 -0.563233 0.490485 0.866992 -0.337895 -0.377438 -0.763832 0.242116 0.707180 0.085883 0.159088 -0.208408 -0.710311 -0.302008 0.525893 0.005598 -0.207086 0.031364 -0.162918 0.593203 0.391565 0.479486 -0.374495 0.270032 0.110291 -0.931733 0.789935 -0.013333 0.451954 0.382233
it." -0.385431 -0.276433 -0.503951 -0.019548 -0.340003 0.015938 0.051205 0.352873 -0.143891 -0.258564 -0.022369 -0.255860 0.003646 -0.021962 -0.030053 0.179268 -0.040691 0.072447 0.400959 0.183778 0.038290 -0.412415 0.430124 0.184815 -0.293986 -0.290121 -0.384427 -0.152452 0.442692 -0.107030 -0.368424 -0.225945 -0.139879 -0.172726 0.133735 -0.583642 0.362834 0.031979 0.147958 0.123662 0.148603 -0.084834 -0.349522 0.255967 0.106796 -0.336639 0.420039 0.054391 0.326373 0.328693
something -0.178376 0.178157 -0.524853 -0.043121 -0.330323 0.251345 -0.265946 0.104010 0.581442 0.382641 -0.152570 -0.058061 -0.450292 0.156627 0.130971 -0.396268 0.400633 0.247485 0.497360 -0.188180 0.484185 -0.534626 0.149645 0.214823 -0.058217 -0.181846 0.020857 0.075560 0.848640 -0.007023 0.081909 0.059223 -0.213700 -0.155510 0.151991 -1.250010 -0.445889 0.229259 -0.059733 0.658663 0.310929 -0.023553 0.393408 -0.220760 -0.036584 -0.406328 0.341316 0.137750 -0.150523 -0.015515
now -0.315704 0.070985 0.038423 0.267687 0.147091 -0.003699 -0.492792 -0.365598 -0.233942 0.055055 0.415967 0.472166 -0.217522 -0.344784 -0.529166 0.085590 0.293802 -0.413023 0.271875 -0.624966 -0.035792 -0.495102 -0.342694 0.444595 -0.312999 -0.598208 0.178344 0.196723 0.174679 0.556273 0.182610 0.270155 -0.579795 -0.152985 0.599329 -0.277230 -0.128914 0.078958 -0.176995 0.121539 0.169028 0.269849 -0.012899 0.252232 -0.294180 -0.237940 -0.166471 -0.003257 0.355922 -0.231475
me. -0.114217 -0.118603 0.436658 -0.368551 -0.035763 0.363303 0.156699 0.242519 0.473083 0.466301 0.082778 0.102100 -0.148530 -0.477220 -0.024724 -0.188895 0.432785 0.518431 -0.032477 -0.025423 0.477527 -0.492106 -0.168247 0.057050 0.079124 0.350898 -0.147859 -0.045083 -0.170524 0.317423 0.002197 0.255414 0.265058 0.037308 -0.357328 -0.306619 -0.366464 -0.242346 -0.236721 0.211132 0.024656 -0.159930 -0.232345 0.293676 0.385470 -0.092628 0.695966 -0.271433 0.588072 0.501042
well -0.228433 -0.006685 -0.015498 0.445955 0.114326 -0.637023 -0.382915 -0.822584 -0.169018 0.354068 0.209520 0.634691 -0.221699 -0.505922 -0.812621 0.064183 0.713396 -0.994874 0.057953 -0.299714 -0.165704 -0.329277 -0.529735 0.170121 0.068981 -0.179413 1.156672 0.303465 0.253049 0.505144 0.053045 0.163141 -0.287394 -0.442039 0.617102 0.392312 0.065361 0.354435 -0.244825 -0.024145 0.162200 0.159543 -0.514899 0.098475 -0.590654 -0.274837 -0.071059 -0.391823 0.070726 -0.338843
Do -0.563746 -0.248138 -0.428056 0.012675 -0.159309 0.020889 0.022888 -0.044366 0.195349 -0.221980 -0.391483 -0.268046 0.236788 -0.603080 0.286107 -0.004979 -0.008992 0.034897 -0.235106 0.402894 0.321758 -0.176230 0.301891 -0.412789 0.165222 0.289020 0.206534 -0.183412 0.564067 0.080962 -0.416876 0.142710 -0.296251 -0.151957 -0.303720 -0.026838 0.310927 -0.183621 -0.073203 0.009437 0.280625 -0.361085 -0.328148 0.224895 -0.337493 -0.252031 0.652762 0.073050 0.099525 0.215379
it! -0.096244 -0.118445 -0.044527 0.474604 0.180213 -0.954520 -0.143395 -0.269261 0.148429 -0.629730 -0.278485 -0.238587 -0.120429 0.015575 0.446576 0.746006 -0.165290 0.152583 0.159376 0.618890 -0.144510 -0.780104 -0.088489 -0.578988 0.111148 0.130356 0.112983 -0.547116 0.917273 -0.285017 -0.137037 -0.143439 0.264938 0.408470 -0.240998 -0.621984 0.126597 0.054258 0.264073 0.292088 0.229405 -0.442908 -0.219640 -0.172440 0.383400 -0.176681 0.179496 0.139962 -0.462413 0.113311
you." 0.073618 -0.371032 0.217830 -0.133829 -0.123383 0.237799 0.028292 0.139974 0.193061 0.600106 -0.000530 0.359860 0.118175 -0.371183 -0.494736 -0.445303 0.277467 0.007846 0.541706 -0.058918 -0.289188 -0.437989 0.520901 -0.155731 -0.122445 0.328912 0.085069 0.087777 0.310160 -0.044244 -0.392757 -0.451703 0.634614 -0.299623 0.242792 -0.213204 -0.122264 -0.172235 0.007336 0.296912 0.337139 -0.312054 0.012485 -0.027112 0.283196 -0.107294 0.437607 -0.347627 0.370466 0.678777
it? 0.066343 -0.163106 -0.355698 -0.052337 0.059391 -0.282243 0.233275 0.249103 -0.032199 -0.338887 -0.054127 -0.448031 -0.146610 0.267109 0.045963 0.151279 0.036524 0.215778 0.020078 0.396666 -0.016089 -0.275872 0.081071 0.300737 0.030815 -0.266631 -0.380401 -0.162884 0.088320 -0.262908 -0.566505 -0.092687 0.280473 -0.043112 -0.050922 -0.517769 -0.045323 0.232621 0.166374 -0.016251 -0.412588 -0.017713 -0.182281 -0.128651 -0.056121 0.097507 0.181961 0.020913 0.469321 0.119596
it, -0.535380 -0.205529 -0.681715 0.376729 -0.151189 -0.095863 -0.079675 -0.220064 0.072729 -0.356476 -0.042951 -0.111777 -0.284190 -0.130385 -0.450806 -0.051648 -0.031080 0.100506 -0.142892 -0.170351 0.472112 -0.358829 0.255322 0.341647 0.060091 -0.590643 0.044682 -0.241805 0.552155 0.195859 -0.345054 0.616763 -0.340988 -0.469311 -0.094137 -0.621655 0.418049 0.409154 0.047645 0.034229 -0.129304 -0.350960 -0.596750 0.579279 -0.468465 -0.130783 0.556458 -0.279672 0.320174 -0.009463
believe -0.776451 -0.196666 -0.082708 0.103021 0.487228 -0.267317 0.249700 -0.725552 -0.130374 -0.321794 0.227457 0.160220 0.082893 -0.724184 0.187349 0.268359 0.361903 -0.399695 -0.564025 0.030947 0.329127 -0.071620 -0.161851 -0.250602 0.241093 0.468862 0.161641 0.163611 1.020672 0.738508 -0.332920 0.584945 -0.289650 -0.189379 0.373341 -0.414500 0.155715 0.374100 -0.184840 0.032088 0.257504 -0.375456 -1.217774 0.225617 -0.338403 -0.113623 0.197685 -0.193004 -0.841074 0.005214
Are 0.056370 -0.141190 0.312235 0.140424 0.110515 0.268917 -0.107889 -0.088769 -0.466976 -0.639205 0.089291 -0.352209 0.322822 -0.119702 -0.127015 0.258121 -0.499134 -0.421531 -0.183498 0.317014 0.382365 0.225597 -0.276263 -0.057335 0.096777 0.318681 0.073836 -0.353555 0.056649 -0.018938 -0.263714 -0.488207 0.038072 0.278663 0.301941 0.058431 0.274261 -0.150028 0.124172 0.176314 0.166543 -0.183959 -0.221457 0.263373 0.415551 -0.160395 -0.154579 0.690984 0.139532 -0.270781
He 0.119147 0.357797 0.022453 -0.244248 -0.078829 -0.167799 0.137144 -0.226086 0.566277 0.135754 -0.238394 -0.097778 -0.096880 -0.292929 0.418132 0.222499 0.220588 0.665590 -0.025574 -0.116407 0.258768 -0.032838 -0.066431 -0.242773 0.172578 0.304838 0.176801 -0.288967 0.160190 0.095568 -0.044647 0.037954 0.308298 0.196131 0.013034 -0.560781 -0.211239 -0.082094 -0.083023 0.272278 -0.031985 0.021146 -0.002362 -0.211356 0.273487 0.057169 0.367841 -0.253489 -0.185492 0.035497
I'll -0.700666 -0.701738 -0.099125 0.229581 0.534519 0.174975 -0.438141 -0.622197 -0.114392 -0.193639 0.366142 0.617511 0.302916 -0.121050 0.412409 -0.477728 -0.504457 -0.883653 0.349307 -0.329486 -0.549575 0.071735 -0.464236 0.395378 -0.358244 -0.287317 -0.052367 0.165789 0.824760 0.476082 -0.067912 -0.389982 -0.495442 0.322104 0.435711 0.241896 0.000214 -0.135906 0.203389 0.437348 0.715798 0.255380 -0.658925 0.409438 -0.065002 -0.732811 -0.023144 0.351623 -0.193383 -0.099173
I've 0.264393 -0.031040 0.006542 1.114146 -0.240192 -0.589219 -0.883284 0.202224 0.216406 -0.063334 -0.164786 0.074841 -0.520464 0.112280 0.415951 0.018132 0.042217 -0.500824 0.490810 -0.005001 -0.607563 -0.851416 -0.203799 -0.456641 -0.207246 -0.417586 0.124191 0.039320 0.744563 -0.292468 0.239691 -0.304848 0.056316 0.447382 -0.062466 -0.060839 -0.245991 0.392719 -0.051155 -0.000884 -0.247015 -0.878130 0.536198 -0.798513 -1.064984 -0.752101 0.728203 -0.395887 -0.017486 -0.011254
yeah, -0.081600 0.494559 -0.472640 -0.270979 0.383978 -0.777757 -0.264072 -0.673094 -0.518790 0.030865 0.244392 0.378868 -0.439422 -0.579663 -0.533182 0.563140 0.409530 -1.023858 0.029428 -0.869159 -0.039574 0.331817 -0.554911 0.134646 0.159085 0.347286 1.476059 0.029559 -0.412482 0.186351 0.062860 -0.323175 -0.611953 -0.694879 0.537901 0.583137 -0.090053 0.427883 -0.458811 -0.294112 -0.005661 0.411358 -0.142301 -0.188886 -0.604293 -0.029730 0.168634 -0.658093 -0.198457 -0.645343
God! -0.189620 0.792268 -0.101731 -0.367452 -0.103232 -0.621431 0.232161 -0.101049 0.545425 0.327787 -0.379377 0.081849 -0.007663 -0.784409 0.605483 0.413905 0.218625 0.424093 -0.486842 0.188872 -0.043140 0.999710 0.285167 -0.734188 0.422236 0.672966 0.480234 -0.449458 0.059719 0.498136 -0.719198 -1.054284 -0.553504 -0.314590 -0.202361 0.862415 0.019332 -0.605260 -0.472904 -0.835444 -0.271802 0.271239 -0.123668 -0.174916 0.226683 -0.330501 0.900078 -0.487356 0.099400 0.279070
I-I -0.155678 -0.105227 0.032134 0.422548 0.040851 0.594168 -0.308964 -0.232001 0.317630 -0.064866 -0.442632 0.377019 0.114931 -1.031571 -0.019645 -0.231078 0.185816 -0.265988 0.043146 -0.185745 0.383085 0.225684 0.236311 -0.294775 -0.153924 -0.226208 0.756147 0.236619 0.440418 0.677164 -0.419443 0.612895 -0.228010 0.228341 -0.058228 0.021616 0.052685 0.423464 -0.259077 0.168322 0.053656 -0.587074 -0.379558 0.335421 -1.349645 -0.069826 -0.112440 -0.066075 -0.328994 -0.147144
No 0.261137 -0.086323 0.236608 0.131233 0.242983 -0.068420 -0.161221 -0.593667 -0.115591 -0.177791 0.100745 0.632625 0.067090 -0.319288 0.096509 0.017214 -0.186573 -0.317140 -0.337918 -0.419294 0.310666 0.285724 -0.039268 -0.166544 0.106877 0.160862 0.502269 -0.048197 -0.455586 0.292820 -0.215447 -0.108468 0.083814 0.194443 0.358563 0.704287 -0.282023 -0.181761 0.125441 0.072454 -0.070499 -0.491369 0.122557 0.108226 -0.748925 0.094855 -0.282432 -0.106610 -0.434611 0.034502
two -0.394867 -0.520338 -0.437804 -0.375845 -0.756596 0.072337 -0.312827 0.343577 -0.003313 -0.102615 0.089634 -0.118215 -0.243541 0.094029 0.321623 -0.491794 0.043121 0.366465 0.252030 0.118846 0.163299 -0.111063 0.298447 -0.481774 -0.073980 0.045743 -0.435833 0.157474 -0.104646 -0.527504 -0.181713 -0.106458 -0.401356 -0.158574 -0.587992 -0.069637 -0.294764 -0.293879 0.126601 -0.267709 0.204059 -0.350103 0.515688 -0.107154 -0.186067 0.038103 0.755006 0.165202 0.187453 0.166459
even -0.758956 -0.430799 -0.163635 0.173839 -0.174525 0.735782 -0.204842 -0.026875 0.407072 -0.224844 -0.411289 -0.195016 0.266737 -0.571320 0.086079 -0.470882 -0.008147 0.176774 -0.363510 0.154983 0.501628 0.072872 0.143929 -0.436616 -0.113712 -0.389141 0.174797 0.213136 0.563052 0.581360 -0.270642 0.745001 -0.161471 -0.044112 -0.167135 -0.592624 0.235710 0.364985 -0.133472 -0.141233 -0.208672 -0.421377 -0.301957 0.440827 -1.169148 -0.041531 0.346696 0.059742 0.032492 -0.219021
doing 0.083097 0.464267 0.020277 -0.476123 0.053517 0.214590 0.064167 0.527287 -0.041445 -0.431333 0.646442 0.303006 0.044200 -0.388391 0.005022 0.333275 -0.386629 0.419066 0.129223 -0.233957 0.332583 0.160816 0.422796 -0.195048 -0.112057 0.281116 -0.496362 -0.629863 0.080882 0.533055 -0.758529 -0.619364 -0.464610 0.017752 0.416599 -0.521754 0.172650 0.018877 -0.356893 -0.259652 0.387417 -0.401631 0.228170 0.811993 0.677721 -0.086045 0.385414 1.103035 0.741202 -0.104752
good -0.181084 0.202280 -0.004412 -0.384835 -0.316238 -0.181338 -0.221014 -0.076730 -0.021373 0.245186 0.286994 -0.239593 -0.496210 -0.110129 -0.149979 0.253871 0.522210 0.318889 -0.068886 0.371997 0.312481 -0.351642 0.008178 -0.025831 -0.110748 -0.271940 -0.248486 0.292486 -0.596299 0.443484 -0.034705 0.316251 -0.086856 -0.485652 -0.207258 -0.387162 -0.066359 0.032935 -0.488080 -0.477605 -0.392092 0.017599 0.324437 0.215970 -0.148322 0.330892 0.257431 0.084770 0.605475 -0.078690
guy -0.343410 0.310900 -0.680193 -0.614850 -0.450097 -0.351253 0.118718 -0.024300 0.524155 0.301251 0.491695 -0.494819 -0.546058 0.415162 0.540941 -0.213225 0.736453 0.429379 0.184905 -0.279627 0.253067 -0.224864 -0.308827 -0.123142 -0.497930 -0.267815 -0.509508 0.507676 -0.195234 -0.317633 0.439155 0.420104 -0.326591 0.035225 -0.667600 -0.703736 -0.640244 0.218684 -0.330107 -0.161937 -0.128633 0.102877 0.033566 -0.608268 -0.245810 0.337712 0.456716 -0.305133 -0.145793 -0.137548
much 0.144038 0.093837 0.027640 -0.455731 -0.392494 -0.126269 -0.205383 -0.332636 -0.183101 0.398427 0.029071 0.201973 -0.504869 -0.395371 -1.230968 0.387674 0.225813 0.087309 0.588641 0.014381 0.059490 -0.700457 0.294545 -0.309728 -0.117898 -0.474588 0.011756 -0.191069 -0.643896 -0.364798 -0.825826 -0.096112 0.773185 -0.795631 0.280372 -0.596142 0.576237 0.419167 -0.497193 -0.366441 -0.384302 -0.758775 0.615371 0.638136 -0.586789 0.649455 0.533873 0.317281 1.303295 -0.047949
big 0.211160 -0.095738 -0.184890 -0.345253 -0.351833 -0.224833 -0.014355 0.322491 0.310686 0.249771 0.214008 -0.109707 -0.233331 0.526074 -0.118855 -0.073021 0.112962 0.571511 -0.006008 0.214725 -0.171349 -0.391012 -0.069369 -0.024462 0.159310 -0.168441 0.035905 0.215988 -0.309113 0.105875 0.365247 0.030131 -0.064272 -0.302849 -0.804224 -0.112269 -0.155187 0.214350 -0.556437 -0.181518 -0.119880 -0.059171 0.497845 -0.061571 -0.285684 0.212795 0.265429 0.039655 0.450785 0.160574
he's 0.013745 0.394532 0.212219 0.025465 -0.219889 0.517520 -0.487456 -0.109789 0.346826 0.335977 0.201455 0.445493 -0.410948 -0.361431 0.319794 0.026195 0.440095 0.497798 -0.385587 -0.310574 0.315397 0.576689 -0.594195 0.079897 0.001521 -0.711529 -0.020070 -0.164170 -0.316111 0.599594 0.316199 0.460741 -0.614731 0.387015 -0.181119 -0.033462 -0.105546 -0.115572 -0.058651 -0.314626 -0.366247 -0.048663 0.266649 0.234944 -0.462959 -0.121432 -0.184565 0.078514 -0.060629 -0.514812
okay, -0.209194 0.242019 -0.036723 0.359045 0.025913 -0.630689 -0.110384 -1.023467 -0.003415 0.113407 0.324371 0.325133 -0.021004 -0.194948 -0.456661 0.467420 0.671078 -0.527250 -0.278795 -0.368202 0.056015 -0.501927 -0.792933 0.587312 -0.226194 -0.362472 1.012148 0.248176 -0.175027 0.442512 0.366899 0.516662 -0.310435 -0.465760 0.246245 0.048154 0.032697 0.501115 -0.269684 -0.104316 -0.151616 0.219514 -0.556263 -0.267628 -0.310338 0.249066 -0.264441 -0.604274 -0.184182 -0.289643
by 0.037529 -0.765157 -0.191301 -0.509753 0.059018 0.330629 0.189298 0.227586 -0.084374 0.039640 0.791425 0.195469 -0.105985 -0.011000 0.110040 -0.740935 0.123538 -0.404716 0.327180 -0.495822 -0.462596 0.227949 0.045902 0.452086 -0.634845 -0.159703 -0.828914 0.641311 -0.329914 -0.528124 -0.112055 -0.160164 -0.307255 0.010067 -0.119653 0.289214 -0.205991 -0.124117 -0.094985 -0.167133 0.337893 -0.026234 -0.224279 -0.075467 0.012328 0.353703 -0.022237 0.226974 0.247653 0.290660
gotta -0.988748 -0.322605 -0.299129 0.246330 0.128787 0.570967 -0.335514 0.212537 0.252258 -0.096521 -0.509006 -0.195386 0.303375 -0.055155 0.538765 -0.681326 -0.289351 -0.209288 0.246432 0.442725 0.317447 -0.082594 0.395625 -0.290214 -0.133651 0.148829 -0.243321 -0.078653 1.176099 0.386368 -0.296653 -0.170443 -0.213963 0.263917 0.127049 -0.320913 -0.018871 -0.183678 0.258292 0.473122 0.538306 -0.063849 -0.627258 0.169728 -0.037798 -0.977856 0.394162 0.376025 0.060672 0.202715
She 0.405288 0.413776 -0.214746 -0.333212 0.283811 -0.454270 0.282943 -0.177900 0.680908 0.471908 -0.189070 -0.046366 -0.596822 -0.066828 -0.053784 0.399484 -0.066209 0.403271 0.084673 -0.353432 0.017033 0.383854 0.008367 -0.215913 0.520405 0.213044 0.460394 -0.297457 -0.209413 0.060558 0.221940 -0.153498 0.186342 -0.025851 -0.041912 0.226187 -0.155092 -0.126031 -0.252041 0.376628 0.359807 -0.123841 0.388498 0.191495 0.378015 0.223154 0.579158 -0.125756 0.167996 -0.202332
didn -0.707573 -0.101683 -0.513036 0.001592 0.221005 0.424022 -0.262145 -0.433911 0.249196 0.004009 -0.145980 -0.012788 0.340683 -0.663390 0.662200 -0.553414 0.109477 -0.009030 -0.405098 0.112995 0.274212 0.024344 0.216436 -0.349700 0.045951 0.260491 0.211249 0.197731 1.022784 0.643721 -0.065711 0.536483 -0.390330 -0.045892 0.299191 -0.447677 0.131116 -0.015470 0.145937 0.486674 0.315533 -0.140062 -0.243515 -0.055174 -0.479699 -0.309502 -0.042675 0.007361 -0.649237 -0.181552
me, 0.007081 -0.678784 -0.176446 -0.278906 0.331823 0.209280 -0.442649 -0.554995 0.120451 0.065492 0.222021 0.070978 -0.051966 -0.410074 -0.232578 -0.525898 -0.072279 -0.256148 0.181728 -0.261099 -0.132392 -0.305427 -0.193368 0.121396 -0.380176 -0.235054 -0.043393 -0.132119 0.614945 -0.056113 0.065464 0.576606 0.059628 0.227484 0.891009 -0.527428 0.405987 0.066342 0.069249 0.391955 0.823065 -0.289301 0.137009 0.264598 0.032578 0.099260 0.292053 -0.020612 0.157019 0.149691
right. -0.362135 -0.388808 0.064640 0.087175 0.740201 -0.057595 0.250140 -0.962284 0.008677 -0.263545 0.764379 0.454425 0.060301 -0.220465 0.199835 0.518763 -0.276614 -0.672941 0.249781 -0.232332 0.055478 0.849324 -0.245159 0.128839 -0.411853 0.164738 0.560477 0.330997 -0.544470 0.214323 -0.381836 -0.036605 0.238570 -0.665349 -0.210118 0.385927 -0.190833 0.237018 0.096014 -0.039474 0.231815 0.293536 -0.772042 0.480770 -0.032806 0.451075 -0.785774 0.477154 -0.564166 0.003372
"You -0.475771 -0.400014 -0.364259 -0.161437 -0.022890 0.659576 -0.471182 -0.092613 -0.036869 -0.590319 -0.214705 -0.300626 0.316497 -0.587009 0.362297 -0.499352 0.000203 -0.382157 -0.230893 0.002255 0.433374 0.487641 -0.127881 -0.143897 -0.525341 -0.130830 -0.024077 0.196378 0.488462 0.397157 -0.530322 0.558956 -0.647482 0.070364 0.438363 -0.310412 0.435170 0.157417 0.035014 -0.237488 0.087088 -0.234424 -0.348424 -0.078470 -0.872663 -0.091961 0.089401 0.099395 0.041623 -0.367125
Is 0.403843 0.739329 -0.100526 -0.216076 0.000362 -0.335025 -0.106388 -0.082691 0.006317 0.227037 0.070845 0.031175 -0.733270 0.361502 -0.288900 0.457463 0.297482 0.334645 0.173144 -0.484854 0.188889 -0.064202 -0.036791 0.590705 0.054119 -0.249732 0.224854 -0.321175 -0.429943 -0.397063 0.155551 -0.102138 0.043633 -0.235571 0.202151 -0.669981 -0.433325 0.258483 -0.149389 -0.095955 -0.567370 0.122153 0.539278 -0.156134 0.177453 0.119648 0.198755 -0.197881 0.004453 -0.354678
has 0.201677 0.436180 -0.378213 -0.112653 -0.844982 -0.867984 -0.394656 0.456692 0.168373 0.327205 0.154886 -0.249084 -0.758565 0.429157 -0.024724 0.048422 0.720641 0.529354 0.283817 -0.191046 -0.334986 -0.558495 -0.269376 -0.216619 0.057988 -0.337779 -0.106292 0.039567 -0.247434 -0.338246 0.575659 -0.433540 -0.211056 0.288598 -0.286001 -0.234878 -0.299556 -0.137324 -0.141843 0.044957 -0.558613 -0.072858 0.748996 -0.549788 -0.032436 -0.323982 0.763594 -0.635033 0.313919 -0.309065
Oh, 0.015679 0.231269 -0.130068 0.047208 0.358024 -0.201834 0.021701 -0.415584 0.181768 0.008198 0.135430 0.348535 -0.220510 -0.522490 0.019916 0.039334 0.009723 -0.284129 -0.125507 -0.464986 -0.162878 0.140901 -0.343346 -0.004578 0.210365 -0.147161 0.183482 -0.175843 0.042514 -0.072374 -0.115577 0.251860 -0.389862 0.034572 0.027414 0.329473 0.055694 0.165656 -0.148709 -0.396739 0.049194 -0.094101 -0.068819 0.097986 -0.361881 0.182780 0.077052 -0.126571 -0.036699 -0.206675
talk -0.128725 -0.629640 -0.319708 -0.080616 -0.312764 0.320036 -0.431308 -0.046109 0.162129 0.124867 -0.359954 0.086893 -0.061895 -0.390480 -0.166190 -0.450018 0.192289 -0.173096 0.605806 0.623575 -0.116499 -0.532428 0.679189 0.082116 -0.131316 -0.198532 0.239330 0.279256 0.845355 0.097286 -0.315462 -0.184219 0.187825 -0.191610 0.427321 -0.949471 0.273304 0.170016 -0.207762 0.681258 0.631503 -0.248014 -0.113720 0.094892 -0.171165 -0.432212 0.305226 0.178110 0.263323 0.267031
ah, -0.204509 0.067917 -0.138774 0.008972 -0.142567 -0.174772 -0.207737 -0.092565 -0.279603 -0.563212 0.263799 0.000422 0.076746 -0.114184 0.160830 0.193113 -0.097174 -0.470490 0.166849 -0.074197 -0.043080 0.008979 -0.227571 0.507549 -0.333547 -0.256406 0.155585 0.163744 0.103702 0.372983 -0.506472 -0.055364 -0.399885 0.097197 0.511358 -0.176622 -0.002369 0.253015 -0.172955 -0.178057 -0.124094 0.297219 -0.317784 -0.139941 -0.460158 -0.048917 -0.323790 -0.036673 0.147875 -0.157391
always 0.127868 -0.221692 -0.146698 0.641104 0.002462 0.938624 -0.113469 0.525350 0.097134 -0.268611 -0.410274 -0.115744 -0.169155 -0.613412 -0.098246 -0.533480 -0.584933 -0.177325 0.114551 -0.012901 0.390282 0.203145 0.839497 -0.233177 0.163820 -0.237001 -0.570166 0.011578 0.330172 0.117355 -0.335985 0.448539 -0.211352 -0.110348 -0.192497 0.401858 0.024875 0.206741 -0.260454 0.295874 0.237770 -0.740958 0.138796 0.264351 -0.648451 -0.396880 0.155045 0.441842 0.227973 0.072572
give -0.471169 -0.525100 -0.030550 0.068712 0.063726 0.139882 -0.167484 0.076194 0.195735 0.634650 0.094574 -0.059285 0.051645 0.134663 -0.433920 -0.956690 0.068236 -0.065335 -0.095041 -0.108550 0.018874 -0.409820 -0.184105 0.136269 -0.074570 -0.054413 0.023990 0.425880 0.765642 0.246249 0.331547 -0.145152 -0.080400 -0.151424 -0.038904 -0.143252 -0.064101 -0.245604 -0.085690 0.781994 0.284706 0.193040 -0.409613 0.448456 -0.142816 -0.794735 0.479374 -0.343619 0.256851 0.252987
our -0.380138 0.018888 -0.334066 -0.219052 0.212725 0.338473 0.139229 0.236510 0.221473 0.668841 0.144899 0.006978 -0.549835 0.496296 0.136885 -0.058311 0.184045 0.085902 0.321681 -0.051748 0.012517 0.072540 -0.143685 0.382760 0.337719 -0.101797 -0.404565 0.091963 -0.225205 -0.240350 0.572117 0.149421 -0.270811 -0.526485 -0.607254 0.254251 -0.239448 -0.200671 -0.078891 -0.062755 0.296671 0.312193 0.261170 0.034958 0.628886 -0.104406 0.590131 -0.031861 0.606258 0.099688
them -0.388989 -0.468057 -0.058588 -0.276428 -0.038648 0.227980 0.071119 0.336358 0.275613 0.052302 0.029410 -0.069536 -0.024039 0.050029 0.152907 -0.553596 0.158159 -0.010754 0.248538 -0.226492 -0.118357 -0.177099 -0.005363 -0.101176 -0.343749 -0.049279 -0.444884 0.293653 0.037258 -0.338454 0.312900 0.033261 -0.185526 -0.057166 -0.320861 -0.070685 -0.303222 -0.085099 -0.147239 0.088713 0.170738 0.187044 -0.038086 0.240778 0.154079 -0.241427 0.606238 0.134137 0.165298 0.263860
thing -0.136076 -0.209448 -0.737791 -0.587069 -0.547956 -0.649360 0.374087 -0.045948 -0.069150 0.190998 0.629749 -0.617403 -0.578228 0.201486 -0.292168 0.004013 0.469205 0.104667 0.158217 -0.080328 0.113165 -0.443218 -0.000896 -0.225718 -0.254157 0.095448 -0.568428 0.655310 -0.346370 -0.691420 0.100414 0.086402 0.080513 -0.620199 -0.487904 -0.565187 -0.237802 0.138057 -0.563551 -0.393693 -0.182778 0.039802 0.053488 -0.333055 -0.037716 0.594108 0.769761 -0.240825 0.228673 0.263593
too 0.286261 0.347704 0.015344 0.023578 -0.278461 -0.413959 -0.063207 -0.274248 0.247409 0.581437 -0.103678 0.105928 -0.388070 0.057800 -0.609239 0.445972 0.416621 0.435713 0.006496 -0.099958 0.200936 -0.393128 -0.065075 -0.238193 -0.144288 -0.443538 0.214261 0.140914 -0.437415 -0.169120 0.000419 0.194651 0.417855 -0.402183 -0.211088 -0.344388 0.026396 0.135533 -0.313524 -0.476166 -0.709883 -0.158943 0.473627 -0.067333 -0.338603 0.559407 0.139832 -0.335560 0.461498 0.030523
well, -0.328149 -0.084680 -0.214031 0.197879 0.236082 -0.311113 -0.247060 -0.773236 -0.448576 0.104720 0.333785 0.641797 -0.249325 -0.437718 -0.574888 0.227082 0.345542 -0.998671 0.149359 -0.557648 -0.161286 0.223431 -0.371276 0.239716 0.024283 -0.074358 1.240060 0.389861 -0.351764 0.149358 -0.013728 0.051582 -0.221278 -0.411372 0.385241 0.669729 0.095962 0.225976 0.066749 -0.150208 0.134869 0.165717 -0.326030 -0.128943 -0.675013 0.102123 -0.404928 -0.605225 -0.166135 -0.463801
Oh! -0.294053 -0.029381 0.186789 0.161200 0.167216 -0.149883 0.300866 -0.371711 0.105259 -0.034003 -0.043067 0.026502 0.413460 -0.177155 0.468545 0.497690 0.210895 -0.231423 -0.406148 0.618036 -0.093152 0.138531 -0.286189 -0.394095 -0.144988 0.368142 0.595440 0.072647 -0.286141 0.306948 -0.057253 0.237935 -0.033893 -0.052854 -0.729022 0.311609 -0.034964 0.166889 -0.089275 -0.464429 -0.314280 -0.101298 -0.485484 -0.021382 -0.051848 0.203549 -0.402491 0.195986 -0.420050 -0.023795
Okay, -0.618226 0.358729 0.259717 0.168520 0.241556 -0.241093 0.129517 -0.429396 0.117904 -0.099649 -0.180709 0.116705 0.273006 -0.010880 0.313785 0.379715 -0.117907 -0.211979 -0.318662 0.102137 0.192372 0.148788 -0.316851 0.464949 -0.181494 -0.139463 0.226181 -0.297008 0.145140 0.614683 -0.285723 -0.191030 -0.303236 -0.004023 0.157233 0.209268 0.046255 -0.122786 -0.007630 -0.234853 -0.289452 0.320773 -0.737934 0.302327 0.183668 -0.348258 -0.053845 -0.195721 0.041992 -0.037085
any -0.416823 -0.512070 -0.632398 -0.235381 -0.572999 -0.172951 0.091802 -0.165111 0.163567 -0.142759 0.135567 -0.668893 0.230125 0.042727 0.146481 -0.322284 -0.105448 0.334982 -0.406626 0.402041 0.341628 -0.507303 0.264461 -0.564846 -0.133724 0.166000 -0.325597 0.491668 0.284707 -0.451319 0.222548 -0.002627 -0.371837 -0.481874 -0.723133 -0.400603 0.010817 -0.349610 -0.086718 0.122263 0.259734 -0.104772 0.352186 0.030166 -0.103378 0.006094 0.564824 0.380421 -0.110957 0.288612
me." -0.036578 -0.217715 -0.004426 -0.122710 -0.255518 0.009432 0.068686 0.251805 0.098687 0.024035 0.285955 0.031189 0.158054 -0.035432 -0.415337 -0.307566 -0.001490 0.200284 -0.043475 -0.364998 0.090836 -0.564434 -0.051413 0.002635 -0.370138 0.256231 -0.014795 0.178661 0.070179 0.251192 -0.061271 -0.105764 0.132468 -0.008457 0.006157 -0.128031 -0.184557 -0.041555 -0.222261 0.272676 0.049565 -0.120975 -0.224893 0.247521 -0.093004 -0.135421 0.385181 -0.285247 0.389043 0.372206
more 0.120950 -0.892361 0.083273 -0.473808 -0.739501 -0.584385 0.030822 0.009381 0.052953 0.149990 0.200262 -0.026470 0.211537 -0.022166 -0.687915 -0.332501 0.253444 0.380791 -0.044663 0.392646 -0.145016 -0.686558 0.329834 -0.647290 -0.210891 0.040415 -0.045034 0.490066 -0.646690 -0.522143 -0.361295 -0.465721 0.555397 -0.447025 -0.636209 -0.118147 0.201133 -0.192653 -0.347858 -0.298227 -0.295824 -0.595657 0.222898 0.110956 -0.599686 0.456729 0.527081 -0.080623 0.720137 0.592057
y -0.202062 -0.037363 -0.434747 -0.367223 0.369215 0.133254 -0.519164 -0.684328 0.249232 -0.522306 0.079908 -0.245301 0.061691 -0.392538 0.435082 -0.158474 -0.122014 -0.295734 -0.465289 -0.553465 0.098721 0.394440 -0.436229 -0.044623 -0.784835 -0.401243 0.285649 0.082884 0.425635 0.361577 -0.425522 0.764013 -0.595667 0.193991 0.849445 -0.726379 0.360394 0.541460 -0.111306 -0.381112 -0.239147 -0.144962 0.188738 -0.340351 -0.937262 0.397770 0.050670 -0.181692 0.085672 -0.807068
feel -0.043077 0.198219 -0.084606 0.361240 -0.819690 -0.256358 0.183265 -0.320121 0.532487 0.447849 0.338650 -0.053991 -0.115467 -0.563704 -0.659108 -0.337073 0.687225 0.192843 0.062830 0.200192 0.468081 -0.407013 -0.365748 -0.800774 -0.053397 -0.218958 0.237421 0.365643 0.747602 -0.128502 -0.847458 0.043904 0.033339 -0.163885 -0.389198 -1.084644 0.083969 0.169672 -0.264240 -0.261624 -0.328918 -0.370350 -0.552385 0.048136 -0.689537 0.043940 0.023598 -0.009463 0.127698 0.084818
